-0.029749472,-0.022745835,-0.026253277,-0.0115482975,-0.009033069,-0.008516641,-0.0034808547,-0.013610315,-1.4454923,-3.286098,-1.5320835,-7.7218966,-2.8092415,-3.1741605,0.2787311,2.0605495,-0.8742395,-0.81488305,-2.05357,-2.7816703,-0.51980793,-0.37691247,0.171387,2.1905606,-2.4873574,-2.2816784,-0.22404206,-2.6272767,0.54311,0.4493904,0.5356329,1.5914032,-3.4277081,-0.9278357,-0.5040761,-1.495049,0.73985964,0.09691237,-0.48888248,1.5285677,-8.738974,-3.579691,-4.7332454,-4.106561,-0.6456086,-1.4061637,-0.2964628,2.3304117,-9.2573805,-1.3167382,-7.459285,-9.306185,-0.6086938,-4.912714,-3.017869,-0.46431887,-0.030608775,0.00450632,-0.010380565,0.02181032,-0.028458107,0.007565051,-0.00848062,0.031561833,-6.9117136,-5.1797543,-5.7493615,-5.3727045,-4.552145,-6.997338,-7.4429955,-7.720706,-6.5098705,-7.7254405,-4.201739,-5.324637,-6.416018,-7.2523437,-2.9846666,-6.348828,-4.1619167,-5.29394,-6.3743763,-4.9513283,-4.4109054,-5.016218,-6.2320065,-4.321607,-8.706995,-7.674983,-4.6746874,-5.178088,-6.2031517,-3.3068397,-5.772932,-6.2511835,-5.1785326,-5.8373256,-5.5334044,-5.9489865,-6.24083,-6.385552,-3.3911006,-5.4593043,-7.4591737,-2.0372095,-4.8012066,-4.8131795,-0.04685155,-1.589352,-3.0610967,-4.66169,-6.4207478,-3.5948877,-5.486493,-5.7953906,-7.5507727,-1.7475371,-5.876239,-1.7984166,-20.376215,-7.2784705,-7.364811,-2.4854808,-5.2254057,-1.9770038,-14.151029,-11.230714,-7.5040336,-4.8519564,-7.275763,-5.908162,-9.185504,-7.8645105,-10.800378,-4.630533,-4.600449,-8.558892,-4.4927673,-8.005712,-8.101501,-9.652258,-4.954169,-3.9755158,-9.475977,-3.2126145,-7.643888,-6.4194093,-6.3420343,-6.114164,-6.2337365,-5.388962,-6.3285637,-6.6806655,-6.912485,-6.6575174,-6.5112743,-4.9446926,-8.565627,-8.398671,-9.808077,-7.311848,-6.4830785,-5.226896,-3.8603523,-5.069321,-5.1129184,-9.792793,-7.8761296,-7.1291547,-6.959394,-6.2623982,-3.7455726,-6.5528026,-5.5877147,-4.357132,-7.7498927,-9.48266,-9.802256,-7.1759186,-5.7126226,-7.9520473,-5.669401,-6.7118073,-6.34228,-10.830942,-7.0382833,-11.534144,-5.838681,-11.875239,-4.330924,-9.453143,-13.436688,-12.875203,-11.953581,-13.87641,-14.062421,-15.916473,-13.894501,-14.03375,-15.815868,-17.560818,-14.576207,-16.836897,-14.923728,-16.165342,-15.342057,-14.491645,-14.820282,-14.636778,-14.487921,-15.718969,-12.799619,-13.78908,-10.083315,-10.942671,-15.524253,-14.1486225,-14.024594,-14.870786,-13.002069,-15.2468605,-10.969433,-11.278378,-14.536018,-12.72511,-14.456144,-13.466362,-12.646216,-13.704519,-13.304232,-13.131777,-15.859709,-12.156569,-14.715434,-13.290998,-12.227652,-14.889488,-11.422211,-10.884985,-17.089443,-14.342741,-14.417192,-12.482165,-11.892638,-11.550534,-8.3462715,-9.668711,-13.309527,-10.474145,-13.573634,-13.745689,-7.8319273,-13.503354,-11.576855,-8.820414,-19.005089,-14.354014,-13.5370245,-17.05515,-17.049826,-19.843275,-22.32566,-14.155194,-19.383867,-18.011696,-16.359514,-16.251411,-18.276255,-18.35806,-16.376389,-12.919714,-19.400562,-14.6390505,-15.223853,-16.341043,-17.14671,-17.706251,-16.222727,-15.903988,-16.136684,-18.238544,-16.245926,-17.142918,-16.446613,-16.075773,-15.905954,-16.267372,-18.276396,-15.7474,-18.203646,-18.82831,-17.664333,-16.88486,-16.549637,-20.477207,-17.58974,-17.310621,-16.831448,-17.53402,-17.58952,-18.853329,-20.431236,-16.372913,-20.15248,-17.916576,-19.182314,-19.091555,-19.737968,-16.779081,-16.35308,-15.359669,-15.181631,-17.607615,-18.256815,-19.943148,-15.363267,-17.61972,-17.210548,-19.941956,7.9743547,8.546429,9.543031,5.8983946,10.521828,6.0801387,10.776536,12.512549,8.488759,6.8281417,7.1021013,3.483549,3.6724684,4.287925,8.804758,9.377541,8.7705965,7.762268,3.2341774,1.7805586,3.42646,2.6901443,5.156884,4.3196707,1.6142359,3.3494623,2.187798,0.39150244,-0.010408363,1.0499399,3.146002,0.5482055,3.8130145,4.2911067,1.5098597,0.13634953,-1.2270284,1.1078309,3.0741818,2.854974,3.46299,2.0730314,5.990017,2.1117537,5.509869,-7.289176,3.0155218,1.6423233,0.21648794,-0.5863626,2.0632112,2.7087884,0.7280788,-1.1801047,2.2359335,6.170391,14.017518,6.8041387,6.3865376,10.655933,2.464833,-2.1282182,9.186287,1.3803544,-0.01646351,0.00018297693,-0.021017136,-0.014636245,0.009261862,-0.009475755,-0.028004298,0.03482215,1.2067969,1.406102,7.4698253,-0.7034466,1.5823296,3.0064976,9.564157,1.7688718,1.6135575,4.314949,-1.4701864,1.5233629,2.0710769,1.0536993,0.9674954,0.86277294,2.0182846,3.4043965,2.2532232,0.44640663,0.20542242,2.0532231,2.965025,3.2795446,2.1204658,4.5835624,3.4920204,3.5781856,3.3155808,1.7628102,4.1003714,2.9738128,1.1860498,3.7156668,3.5190327,2.5597193,3.307979,2.9288418,1.9342892,2.7334306,0.4965877,3.2019305,1.557676,3.7060308,4.289338,2.8711128,2.07619,1.7467891,0.022642687,-0.021480817,-0.011039457,0.007075233,0.0006994221,-0.008690972,-0.03266061,-0.028430723,3.2623746,2.3353524,8.64752,3.5658689,4.860802,-0.2942641,3.1608002,6.9753838,3.3957248,1.8172297,2.0617018,-1.6852376,-3.6561139,1.0346564,-0.36688152,1.9914078,-2.6656651,-0.1846958,1.3702574,0.79595405,-3.978804,-1.0029081,-0.84317625,-0.27053773,3.3353438,0.80948913,4.012958,0.33970028,1.7680689,0.6303563,2.444397,-0.3568934,0.8607071,5.3475547,0.98192364,3.5342407,1.7167399,3.826782,-0.42213118,4.536363,0.9218809,2.3953338,3.126473,3.3904498,3.8735964,1.9022821,1.9590654,2.224904,-0.5906998,3.2970285,-1.4388827,2.1250904,0.3203675,0.525583,1.2259743,1.1053138,3.437359,-1.3922896,-2.5320096,2.9709647,0.3448138,-0.0030248563,1.9239937,1.4186941,7.9801974,-1.1018996,7.4762526,6.9821644,4.4166155,4.1521807,3.0630054,8.485736,-0.038540438,7.355525,3.6023817,2.1641793,2.6481538,1.4141943,2.43927,4.070025,1.9306725,3.9203265,4.3977613,3.0623872,3.1307726,2.3271549,0.999418,4.3492126,-0.44221494,5.615214,2.8718927,2.599174,3.1790664,0.8170471,2.8918805,3.4741118,2.839169,4.288127,6.099514,2.1523826,5.155088,2.0053523,3.926829,3.1162417,-0.4800216,5.046246,3.779463,2.975424,4.07573,4.874028,3.3244147,0.7329667,1.8850528,2.7415857,3.5454316,4.525078,3.955041,2.4913764,3.5337,3.1172333,3.5185947,2.715119,2.199571,5.289169,2.7757256,6.494585,1.1528763,0.75689214,4.2798095,4.86717,5.6895256,8.014802,3.6070309,9.655021,5.8970523,6.1330595,8.113999,4.513239,9.636594,4.8397665,5.250515,2.692144,6.364984,5.7820334,9.128056,6.0470424,6.2004504,7.563807,1.4420741,6.4499,4.6284275,7.3750324,8.41617,7.3716807,6.8955803,6.8955073,9.087948,6.306558,4.4176626,7.126412,9.653348,8.173438,6.3417916,8.429375,7.929734,4.863153,5.637356,6.323851,9.193122,6.159363,8.966631,7.0474167,8.258485,6.2331038,3.4513476,7.966421,9.827015,7.9050617,8.527724,8.285879,5.2026987,8.935761,4.7455945,7.2113943,10.702184,5.9242973,8.656635,7.482422,7.6342874,8.848104,4.995793,7.8377056,5.9480844,6.3199177,7.780214,9.961611,5.1515803,7.2720404,7.2242966,7.852095,6.8749347,7.0681043,7.475154,8.585188,1.3945447,4.386795,7.6067743,6.075134,6.9135137,7.7369,8.453398,8.484842,5.876442,5.2509246,2.6635313,8.55836,1.1284782,8.306658,7.698028,9.285825,7.5773644,9.465533,0.86054814,5.4197264,7.484578,7.984017,8.804088,6.0129285,9.652635,2.2071848,7.567237,6.102089,1.0042677,9.141922,6.7945404,8.443699,7.2274947,7.900758,7.4073343,5.7066746,8.475033,8.090133,7.4531555,7.6188164,6.262086,7.4593897,5.9467645,0.2951671,11.815297,7.931466,6.0188975,6.486436,6.033884,9.976506,8.497825,-2.0150023,-3.2811534,3.9133983,7.934864,7.531925,9.685196,4.8859816,4.472039,6.6297116,2.4500332,2.405152,1.9676325,3.583395,1.4634105,5.545476,5.6908193,11.768658,3.9359174,1.4941192,4.5945296,4.168634,5.1935225,9.434495,10.089136,9.009074,1.7564012,9.937771,5.82598,2.321167,3.135941,5.6731787,4.9232297,9.985393,3.59047,7.379445,7.2218633,6.8477235,7.187699,6.285758,9.50488,10.725845,5.386855,5.4620256,6.175573,5.808895,7.007558,7.083878,5.8277435,7.835646,3.2611065,8.057066,5.84672,6.6272564,6.583167,4.984176,4.4661603,2.6357048,4.0680904,2.1718056,2.8718207,7.2766094,3.3642936,5.257463,2.4308105,2.3941839,-0.0077253673,0.01011332,0.02957571,0.022208186,-0.010115527,-0.008872891,-0.003952318,0.010511914,5.0793557,-1.1678573,2.01371,-1.5162632,1.2356436,2.0930865,0.8135768,1.8497444,2.3898745,2.3682494,-6.134634,-1.6679894,1.8383381,-4.2511954,0.9935159,3.320592,4.886797,7.369192,-1.711939,-7.096204,-15.103449,-4.967293,0.9729873,0.80791444,3.3387713,3.8363376,2.9978678,-16.271828,-13.195491,-3.147493,0.39837104,5.322109,8.383719,3.747281,-8.297925,-9.088919,-12.94836,-9.021168,1.7468859,0.62844336,-0.5295239,2.515069,-1.4348578,-6.2779884,-8.036537,-5.4487014,-8.368211,-0.28474477,-0.03376848,-0.028646598,0.020168392,0.0049206973,0.009535349,-0.032471236,-0.002687275,0.031566236,12.907081,-5.638254,3.0127273,3.406379,6.5280614,0.41755894,13.825522,-1.9450897,0.570196,-4.8369627,0.985583,-4.580111,1.6704794,-0.53782856,9.115603,6.8780637,-9.348839,-0.20031978,-1.5426526,-4.5529065,-1.0296912,-4.304784,-2.4775808,0.3325585,6.132178,-0.3653282,-3.4194708,-8.410584,-10.672011,-4.8138275,-0.00037209317,-1.8310046,-1.0531788,-5.804591,-3.6560793,-6.801264,-6.3194013,-4.5915627,-7.0878544,3.4711008,1.4231933,-2.6063716,-2.071666,-2.4812698,-8.194056,-9.11598,-2.283071,-0.91621095,-0.017974442,-8.994041,-0.88510525,-14.114978,-6.702014,-13.013713,-1.7786658,-13.208255,2.2498863,-2.438707,-6.3918858,-4.565729,1.5695637,-1.4488915,-14.515559,-9.524212,9.482261,3.6263542,5.5809045,4.7528996,9.342047,7.919024,0.013616119,11.881903,1.8170798,7.7125683,6.9562144,6.9251623,6.337725,8.666369,14.989411,8.047182,3.075438,5.2525887,8.397299,8.208531,3.726376,9.441251,2.2998266,-2.0479925,3.6317096,0.41171992,7.538757,4.2852077,0.14406389,-0.3484884,-1.9145244,3.5676455,-4.3202615,2.8279028,2.4217331,-1.7892778,-1.621776,9.281298,-2.5547743,-3.2084513,6.5719337,5.962354,4.044513,-2.6257067,0.27544358,5.26451,6.4358125,-3.2007856,9.899999,9.002849,2.8811731,5.184729,3.2662096,4.70462,8.116599,4.642756,14.960397,7.788959,11.6127615,4.6214943,1.0145727,1.0553815,4.9841003,3.8696256,4.0806365,5.9009714,7.2111664,10.748747,9.924921,4.364781,8.900154,-1.0014346,3.7292328,4.9490166,6.7474084,8.866456,10.932575,4.1458635,9.153377,6.766979,3.826277,5.1129003,9.075139,9.717315,13.165552,5.971518,11.693858,1.6145818,12.062177,6.730177,14.041163,10.285079,8.083769,11.346669,16.801018,9.3422,7.8759856,11.509685,10.56738,8.952468,7.580632,4.691471,-0.022280132,6.2265415,11.156398,10.43278,11.079895,5.0342174,8.192061,3.1369643,2.85631,11.437163,3.9098072,4.235493,8.956564,1.8600035,9.993454,5.3415356,2.1662755,14.936817,4.5809145,4.8449006,7.037697,7.346675,5.673666,5.487216,3.5716224,2.741678,6.8367186,-0.7367987,-1.5074552,6.920597,8.383273,1.4553243,-2.5469127,9.463128,0.8277206,2.2882893,7.0021844,8.531508,7.045341,6.044504,2.1111665,1.0615208,5.7143817,2.7897458,7.872842,7.770741,8.1807995,9.387368,9.885652,1.7042919,6.2721767,-11.78504,3.57862,7.637668,3.0942822,17.215466,14.025359,7.5949497,1.9957324,-11.319638,7.3150296,6.275733,0.6072766,8.586823,13.406382,7.094273,0.28027216,3.6120698,1.3166611,9.867167,1.3232834,18.415627,8.892027,5.4578223,5.3970337,9.196043,5.5383477,8.651048,10.19436,3.3755836,5.0125647,13.790675,6.301302,9.543965,1.1566867,6.9725976,10.835637,1.7929107,1.0245166,9.46972,6.3961325,2.7482016,4.577515,11.3306465,6.752048,8.152837,5.805665,5.967737,4.0669174,5.298476,4.262958,9.0504875,9.390567,9.225748,6.249157,5.3111634,8.170483,7.769328,-0.9920383,6.831808,4.402033,7.513308,5.6861215,6.760564,4.6586437,6.6809316,4.600124,-0.3897048,6.471531,6.318417,8.572267,10.0291815,7.59763,3.8039412,7.281369,4.819999,4.6082506,5.0182066,4.605838,6.53135,5.3825026,9.486262,7.588745,3.2506518,3.6941967,-2.4821997,3.7742634,8.247124,2.2009234,2.0299103,3.6076636,6.8748727,0.95759225,4.734829,-0.27130648,10.070197,-5.6629076,-0.08060232,-5.7099767,5.6430564,1.821646,-1.9233747,8.692379,13.214539,0.015169655,-0.025023796,-0.009080357,-0.023651626,0.032563765,-0.035559226,0.008970158,0.014617941,-4.9703097,-0.20298643,2.3555846,-0.44123867,-8.138672,6.6610274,-7.322325,0.78058916,-5.249452,-9.412642,-6.0024443,-1.7492294,-4.80465,-0.9380952,1.4133714,0.8811925,-4.0305977,-2.3570414,-4.4098654,-1.9171125,-12.5544615,-0.45167813,-5.297952,1.568371,-4.314283,1.1171483,-2.3032565,-9.218036,-12.331426,-0.11543991,-1.2838522,-1.0823531,-0.88353544,1.087922,-10.766395,1.441963,-8.084445,-1.379063,-0.9622011,-2.3987477,-5.2696605,-0.9214577,-1.6564468,-1.8525927,-6.11766,1.1646287,-3.1416328,-2.4053702,0.027752344,-0.018784814,0.02702106,-0.02128669,-0.008129424,-0.011659365,-0.0059152003,-0.0062353853,-7.7684646,-7.095126,-1.7920578,8.412271,-3.4492946,-2.4724545,-3.8296008,-9.868221,-7.560169,-7.343396,-9.146407,4.312729,8.885401,13.946708,-0.7970734,-0.3233022,-1.8397408,8.447479,-2.0883758,-0.3353904,-6.091047,-5.162231,-4.557675,-4.542095,2.6489627,0.44479534,5.2042103,0.33150512,-5.690209,3.986498,-2.7882805,-6.079655,4.291889,1.2746289,2.5401113,-7.579425,-6.985528,1.6614343,4.844271,1.3712218,-6.140086,-3.0141895,-7.955984,-0.8079272,-8.4857,-5.8245115,-3.9308348,-5.2637753,-0.059066433,-16.634987,-0.41731054,-4.9305716,-8.619053,-6.7782145,-16.019794,1.9577147,-6.7099633,1.8464091,-6.5971675,-0.038441934,-17.152676,0.365425,-5.1525826,23.235952,1.5591661,-0.4577312,2.510712,-2.3076134,3.8393395,-1.7023271,5.3545036,-10.239559,0.039216064,0.54785824,0.03448683,1.626807,-2.8682623,6.0619087,-13.177769,0.7583906,-2.2138414,0.29865095,3.1228619,-3.6639404,-1.3156667,-13.938147,-0.95859075,-7.854186,-9.019625,3.3257477,-1.8168044,-2.4651878,-10.169446,1.7564433,-3.5906928,2.7858396,-5.5475307,-8.088002,1.7201765,-8.672409,-1.5726166,-5.7802663,-3.7798011,-5.1730027,-0.9844857,8.177234,-20.618273,-2.3449924,-17.445105,-6.223644,-7.404292,-8.171248,8.754846,-14.79017,-3.410588,-11.78317,-4.5931077,-6.429053,-11.745191,-7.9718456,-22.55308,-5.12457,-13.234368,-1.6638235,-9.797275,-6.967072,-5.267391,-16.169422,-5.9853125,-5.8219023,-5.817558,-2.2940016,-2.4021235,-5.950158,-9.959141,-5.8418527,-10.066057,-6.525395,-3.4757783,-5.786762,-6.2324343,-3.7679942,-11.598325,-5.2918625,-7.7473927,-4.9458494,-5.5896096,-5.384493,-8.834935,-10.031718,-7.9984593,-11.1552515,-7.6220202,-5.3884892,-8.128725,-4.441058,-10.950638,-4.4349484,-9.512874,-11.355828,-9.700826,-7.5709653,-8.7879505,-6.5298266,-13.649433,-13.077334,-15.304868,-9.4977665,-16.90025,-14.827973,-15.54429,-10.071909,-17.462118,-14.901337,-9.175343,-10.214187,-7.157749,-14.101485,-13.8217325,-13.057031,-17.298447,-8.3264675,-12.347549,-4.8229413,-8.526661,-8.115999,-11.50355,-11.760131,-18.384235,-8.871654,-8.204259,-11.51753,-14.671991,-12.135288,-0.1650558,-6.198189,-6.822707,1.0232892,-3.8357809,-2.981793,-10.433523,0.94980335,-8.264613,-5.6972694,1.0497842,-4.10218,-0.6360424,2.074332,1.0522823,1.3152081,-6.3506074,-9.351675,-8.520245,-14.877046,-3.4372463,-6.0985336,-5.458014,-2.9611604,-11.692396,-7.66637,-9.719166,-6.0947633,-10.433223,-8.18286,-6.412995,-5.92631,-7.19296,-8.4841385,-11.659281,-10.7248125,-8.188694,-14.481065,-11.458729,-0.85506326,-11.329708,-8.01239,-11.646114,-12.647634,-16.4486,-6.915412,-6.7048655,-16.78639,-9.878435,-22.065105,-14.877913,-8.649917,-8.827611,-7.3804946,-21.04521,-13.232782,-13.967144,-13.104383,-20.92349,-10.252375,-12.033839,-28.392052,-0.7303603,3.6810365,0.1520944,4.173965,6.7256007,0.93231165,2.626806,1.2162434,4.5359917,8.368337,1.2760414,10.666868,3.4474304,4.1648345,9.78532,5.689663,6.4812675,7.3983245,3.38432,6.005581,6.5321503,6.6406274,0.12243615,4.655107,2.3333151,1.3410969,8.258124,7.495959,0.53969675,8.149725,0.81009716,5.845984,-1.4481295,6.9886284,1.6038313,3.5874474,2.1054313,3.8702226,4.553715,5.9780107,-8.297585,8.789766,0.25558394,5.568564,3.5786014,3.4024112,8.898963,7.028876,-10.7614765,2.2705674,1.7884725,3.9310532,3.0728002,10.279476,7.289415,10.80171,8.675974,9.811703,7.3186226,6.0165443,12.350259,6.4628997,8.818083,10.879279,-0.02529899,0.004992943,-0.00040804927,0.02525014,0.034509555,-0.0004473013,0.023692083,0.03181168,-2.130152,-3.069399,-4.9103065,1.5267681,-2.5181484,-0.47437823,2.4184415,2.3049607,-8.728098,-3.7220027,2.2437792,-3.3580034,3.0892296,-2.0606916,-0.32045576,-0.74632514,-2.9490056,-7.914494,-9.732114,0.032130178,-11.417418,-6.5775924,1.2447723,-3.635423,2.5673504,0.87684405,-2.3511584,-1.4615618,-9.50892,5.5554805,7.95926,-6.979329,10.370531,-3.5085073,20.426243,-18.236916,3.0773787,11.30985,-3.7120516,5.0280247,1.0085968,-14.280604,5.3994637,14.291992,-7.983963,-10.656713,3.9146116,0.22142185,-0.029413817,0.016936768,-0.028502336,0.0052538216,0.031880517,0.0052027055,-0.011134699,0.013311934,-6.2151146,6.7725,1.0209603,-0.3639284,2.8967285,3.5097058,6.4632597,15.194207,-3.476267,2.3852634,-4.819434,0.43724704,-3.059213,-2.1566567,-17.004856,-35.59058,3.6461294,-0.15112895,-0.97501236,4.865779,-5.505229,2.9022875,-1.4005855,7.905078,-2.7175748,9.287938,-10.846851,8.632657,11.7373705,-2.7154067,-4.035867,2.804926,5.996233,1.7523111,1.2038615,-2.083684,1.4531162,12.04937,7.047612,10.299242,2.3965473,7.1541967,8.020951,3.6119516,3.37598,-4.204861,-10.992708,0.3173115,-1.2787198,6.3882484,-5.1884027,16.583279,10.506375,4.2762666,4.930824,-3.5124848,-0.5021044,-0.26866597,-4.9020247,-8.121951,0.6171827,6.284985,-10.712691,-4.017178,0.808853,6.382071,-2.982828,-4.183243,10.548944,0.57880265,-5.4183893,-4.956745,1.2629356,3.4068806,-2.6415143,-0.86003464,-4.9303293,-2.2587132,-0.91691387,12.156199,3.6058724,6.58966,-0.10480545,0.8251977,-1.6631691,2.9334369,11.617425,2.248819,-6.523846,-3.3572307,5.2110324,4.137776,2.5015426,7.739893,10.289291,4.09331,8.550723,1.7365863,7.3668094,-0.06520822,3.0695758,2.9023836,4.9411197,2.5589046,0.22681199,3.1928332,6.0981646,6.9577723,-2.5889113,2.4436069,2.884572,-0.2773691,0.877327,7.806036,5.465114,3.2716048,7.2713265,6.932178,-6.361415,2.6014378,-3.4854693,14.594233,-3.5158067,-0.71003747,0.8961514,2.515467,11.871515,5.264004,-0.27174592,6.666551,5.236337,1.7163832,8.014233,5.2491264,-1.4537537,1.5813472,11.610343,15.145326,1.5729303,2.1736531,5.762948,8.622327,10.922587,7.8395014,-8.39155,1.5778905,7.563328,0.45804977,5.518284,3.6837533,-3.5931156,3.1554992,4.5680475,6.652461,-5.643804,2.1264656,4.1500883,2.2236989,-7.464892,9.257462,-7.2634363,-0.21756728,7.9939733,-5.5658484,1.0339855,10.737107,9.057597,3.5692506,7.2316236,11.343322,9.39477,-1.9871175,5.981128,17.113525,4.8463116,18.135786,1.6676627,5.9925394,4.6286154,12.517555,10.584087,4.765203,-4.40615,3.090601,10.532331,-2.3456316,-4.2075467,2.6000187,7.449107,3.42238,3.4695356,9.4756155,7.9163594,8.158829,12.755955,10.163609,13.6592045,13.7572155,2.3618922,18.567684,14.946799,7.4332757,11.767134,12.051139,13.816361,15.116757,20.140068,19.375017,11.770127,12.912841,12.348843,12.399218,12.776613,12.239432,15.555683,10.010049,7.4780226,0.51550394,11.414974,17.120987,18.572445,18.097046,15.522523,9.967674,15.103883,7.208434,15.024093,7.5888844,10.383075,3.0101757,8.437137,13.068809,11.324646,3.918358,8.553282,22.79736,-1.6979983,7.10326,13.808922,18.057863,10.129219,12.673153,16.811333,15.380572,19.088448,2.2159991,-2.7558045,5.94739,7.562724,17.438675,9.051009,9.651191,13.902509,9.96415,15.557491,12.2563925,2.0206678,-3.0614004,1.3613394,-0.964947,-0.20569319,-2.5027952,-2.1692078,0.56290025,-1.5834187,-0.69112134,-6.9946785,-3.257503,-11.327261,-6.853863,-3.3153358,-1.0914125,-6.3507366,-5.8339496,-4.4909306,-0.24223873,-1.2579371,-4.5735416,-5.381399,-4.2971635,-8.477925,-3.9196618,-5.5732846,-6.299222,-6.9287214,1.8715425,1.0435208,6.343666,-7.892382,-15.19731,-4.5361476,-8.216235,-11.072653,-0.53370833,-1.5894448,8.067928,2.106468,-12.403271,-10.54209,-6.8788924,-2.733893,0.5086811,-4.1105375,-11.260645,-8.920453,-11.839739,-1.0905666,-1.1298207,-4.85303,-6.733266,-1.2289728,-16.572403,-4.0355964,-4.5950394,-1.4148045,-4.5124197,-8.0887,0.983447,1.0650885,-1.0518824,0.00093885313,-0.0027444733,0.01752385,0.035343457,-0.025695503,-0.029440096,0.013268032,-0.013427768,-6.332318,-11.742869,-0.87082505,-4.3263435,-6.5141397,-11.783188,-8.585215,4.0505195,-9.946306,-2.0527332,7.5916247,-4.788181,-12.241808,-12.36816,0.56947714,-8.964873,2.869209,-0.679466,4.872751,5.9657683,-0.5440107,-0.48691252,-0.93852645,-7.7356825,2.9833386,-1.4649444,4.2596245,-5.2238636,-5.974596,3.8663332,1.1434592,-2.054431,6.4988956,4.3003945,4.6636076,-6.362309,-1.8446107,0.21693102,-6.2257705,-2.323847,4.92153,1.1783429,-4.996274,8.248827,-4.2217503,-3.780817,2.2728622,-1.2039946,0.008719835,-0.007675903,0.0039753877,0.0056401,-0.016560042,-0.005727896,0.020279644,-0.030361356,19.681143,-4.671657,-6.148548,-2.2842772,-8.062906,-10.9902,-6.3696895,-4.059827,2.5141091,4.9727006,-17.67858,1.0613625,3.158099,4.4491997,-3.078827,-5.3374457,-4.641282,-4.485691,-4.849611,-4.707727,0.20465408,-11.963254,-4.1953006,-21.824703,3.640674,-10.286794,-10.437982,-2.553402,-7.2206206,-7.487669,-2.838624,4.3444524,3.7246685,3.2581043,-3.4957292,-11.956594,-12.519083,6.404118,4.435228,-0.1545487,-3.820694,-4.409874,-1.3124013,-9.72993,1.7194135,-9.905286,-3.2056732,2.9894836,-11.24426,-5.738559,-3.2681432,1.9471447,-9.4424925,-0.21854472,6.7399564,-18.146063,-3.8775473,-1.3799706,-5.4731517,1.9625736,-6.229173,3.1733253,-3.9887726,-1.0653075,4.724826,-5.8976493,2.2698472,-13.060301,4.2745733,-9.15494,2.2677903,-12.689551,-7.190478,-4.691909,-7.203997,6.045252,-15.984862,1.7822598,-2.8810406,-11.358935,-13.693051,-8.10392,-2.4980767,-3.5501068,-1.668557,-2.2062438,-2.025387,-18.936773,4.3962893,-11.7592125,-9.725404,2.9744563,-6.5153646,-13.004723,-1.655232,7.8839517,-18.50624,-3.9132876,-1.4611686,-8.383491,-5.4151053,-2.5402029,5.7945313,-9.849128,2.5546014,-0.79923123,-14.290392,-14.503094,-12.572211,3.1217358,-4.21505,6.7161665,5.1345086,-1.6155314,-17.243866,9.066064,-4.5533624,-3.1536808,-0.18420388,-11.782218,5.0998635,-13.480456,5.7271905,-12.880885,7.257845,-0.5020088,-32.396885,0.60276014,-5.4203925,0.76766396,-4.889213,-4.265904,-7.33562,-11.697693,-0.2136157,-4.535691,-7.0162883,-0.6600466,-2.5823653,-8.377643,-7.187644,-6.0072837,-2.4091458,-7.532586,-9.034348,5.4122915,5.3938727,-1.1822485,4.198307,0.5169402,0.14846069,-1.5017926,-7.492722,-0.6892758,-5.8417964,-2.1743321,-9.040441,-0.9044955,-3.258776,-4.3742633,-10.653644,-9.336184,-8.821807,-8.23464,-7.2182164,-5.5785336,-10.395002,-2.581823,1.8914323,1.056284,-1.805888,-6.3127112,-9.34804,-2.5227144,-0.86045146,-16.694296,13.172932,9.314855,5.1398644,1.181359,-0.62811184,10.772925,5.9881015,1.524807,3.3859081,-2.1982028,-2.0108395,0.9626661,-3.7266843,2.21255,-3.3311343,-3.9223778,-2.6743543,-8.296086,-8.9466715,-19.216955,-7.3696914,-6.54547,-4.902796,-2.7349052,-32.068142,-10.528436,-7.559335,-10.926764,-25.544401,-10.786754,-14.117388,-23.367252,-3.9280548,-4.892866,-12.239252,-28.474386,-4.028856,-17.711308,0.6179374,-7.0893517,-10.9854,-7.4585357,-10.222154,-3.6849365,-11.324339,-13.204123,-13.989625,-5.1484675,-5.416002,-5.379119,-25.331125,-11.412283,-10.459669,-14.487172,-5.612408,-14.618727,-10.08333,-10.969722,-2.4360316,-13.366065,-19.663986,-5.9346704,-7.932703,-19.872635,2.518383,-0.48295683,-9.500103,0.35118106,-2.9434469,-2.467762,-5.694112,-18.635323,-0.070868954,-8.405845,-2.1422112,-4.903804,-5.4688478,5.2687283,-12.925958,-8.515797,9.859295,11.275656,3.5992072,-11.893806,-6.448908,-1.0986278,-2.6263628,0.45375767,-18.215523,-0.62567747,0.82113004,1.4654766,-9.661095,1.9614174,2.6420898,0.5371887,3.1703267,5.673574,7.722694,-2.4292424,-1.8030838,-7.1482525,-6.427743,-0.94519997,1.7238771,-3.434153,-4.769703,2.9405472,0.78724515,-2.4167833,-4.400103,-4.1536937,3.4951367,-7.1655087,-3.0437238,-8.042442,-3.8319933,3.705271,-1.4169358,-5.500318,0.20135142,-4.692273,1.0060798,-0.698497,-4.94689,-2.688044,-4.161425,-5.7999883,-6.160093,3.0679045,-0.35386252,10.547993,2.1261482,-0.9631172,-2.9874456,-9.806248,-9.119392,-0.017650567,-3.4134774,0.17486043,-6.8585353,-3.0559423,-11.283636,-6.1851516,-0.009848273,-0.029659435,-0.006321572,0.027950281,-0.0019288566,0.009773017,0.014653541,-0.032338016,1.2737279,0.66618294,-0.27636972,-23.071573,1.2396861,1.2728956,1.3797511,0.46712306,1.9675003,3.5079372,0.09091464,-17.110464,-4.1295843,3.4467933,0.07202114,1.6502342,0.46933803,0.3785597,-2.4963396,-30.589724,-2.0095475,1.8528513,3.2543175,-0.15817755,1.2468941,6.6436286,4.728559,-12.74233,1.2435583,3.0288384,4.1195097,1.9206936,1.631945,2.629063,6.9508896,-14.910333,4.713007,2.5371006,1.9900743,0.0052669155,0.026313944,-3.118504,1.2165475,-22.404188,-8.799681,1.1623774,1.5619158,-2.9361787,-0.0050596218,-0.003957497,-0.0041117608,0.009322201,0.0099425465,0.0012981825,-0.018414792,-0.0014068881,8.449848,1.8340247,0.06904911,2.7316597,0.2684738,3.5488377,1.4301684,-3.0603547,7.852846,-1.2553833,1.965926,-5.237848,0.1409738,1.0180131,1.950558,1.1652272,0.19787385,2.2191525,0.89636666,-8.6652975,-0.5446094,0.58982325,7.492245,9.4653845,-2.5300555,0.15111607,2.72979,-28.887932,4.5430293,4.296879,3.761223,5.5459127,3.1076367,2.270412,6.304583,-20.584671,3.3090358,2.959118,0.3762681,-1.4426,4.7824655,2.8767653,6.128334,-7.384152,11.51927,6.6999726,0.19404908,1.4003878,-5.630368,1.8946363,-0.46792588,5.282242,-4.157738,-4.2155023,0.0793359,2.0499713,2.4225047,2.5270984,3.7253168,-1.3988329,-0.78513986,8.265763,1.5322235,-2.3408072,8.688519,4.046053,3.1682749,2.0591278,1.2614223,3.1400528,11.9848995,-3.9977493,4.139246,3.751166,2.8561828,-1.1719278,3.4696097,5.4681334,3.9041927,0.71765506,6.2064867,2.6793962,10.109933,-6.157068,2.5246253,2.6987224,4.6814246,4.4905677,1.3017298,3.6299288,3.81426,-15.237204,6.2871647,3.6398673,2.6079218,4.1604624,5.076096,3.3470104,5.503875,-14.57002,3.5125687,6.2706523,2.4377441,0.6488343,6.7338905,4.2970924,3.0872998,-11.929033,6.0566993,2.923846,1.3973813,1.1025871,6.915448,3.1048484,-1.5147402,3.3831613,4.2773867,4.5103173,-0.14945358,-1.4722971,-0.71992695,0.77275145,2.3434494,0.5562414,-1.9866344,1.4005592,-12.709829,4.041677,3.0231843,5.083975,4.318606,19.587496,5.134271,4.0651584,-1.3750659,6.071014,6.140117,6.226392,7.988265,19.884897,7.9630923,8.939436,-1.8307248,2.0361395,4.291767,4.8646955,8.996151,20.413631,4.8989058,9.33786,4.819084,6.2732806,6.2330923,3.9929316,8.984861,10.189855,11.327098,5.7635946,6.4556756,5.0967607,7.728997,8.02304,6.908054,8.299412,10.775105,2.23979,11.183583,7.884853,7.193102,1.1592294,6.3766065,5.7122235,4.7464943,3.1104932,0.027016683,5.7356763,7.4637847,6.1849933,5.9154058,7.3188825,2.6371267,4.6713223,3.522901,8.557759,4.8206263,6.5564184,4.1740575,8.03781,2.9038153,8.176376,5.282626,8.88467,12.870921,10.914665,8.119986,14.766596,4.7042155,10.684946,7.215931,6.6836257,6.6527743,7.631504,6.491343,12.616281,7.520368,9.329229,11.035432,18.17682,8.645298,8.984061,11.777261,15.181001,9.512625,10.530231,7.4855494,8.3170185,7.984408,13.291543,11.091912,6.256154,12.227291,10.025857,10.463919,9.657296,7.3964086,6.7459607,14.678431,-0.87862223,8.706934,13.836978,16.915562,10.646553,5.4275846,10.111443,13.434365,12.523136,12.859942,4.6704955,4.266839,10.83629,9.855251,11.568511,8.573199,13.77729,9.483474,14.920494,4.5595365,-22.53447,5.5293264,14.146576,8.441512,11.01868,8.613466,11.22892,21.347782,14.710968,-1.1629801,1.6610479,-2.1669533,5.084923,-2.2324748,-0.16381474,0.0923043,-0.11445255,-1.2177835,-0.47614202,1.442101,-4.632653,1.0630586,-0.9545506,-0.5020518,0.8156425,0.8801354,0.8126624,0.7372463,-7.5970078,-2.9282894,-1.5447001,-3.6206114,-1.0492754,9.532709,1.4285403,3.8635945,-7.8725576,-3.9197161,-1.4206872,4.936676,-2.5243893,2.739518,2.1065843,-2.4810903,-3.9277089,2.0394642,-5.9921937,-0.38911384,-2.1283836,-8.083494,6.6773696,1.7446709,-3.0893345,-3.8012578,1.226257,-5.054018,-5.140239,1.7687414,-0.4068106,-1.6758633,-0.7776825,0.3724057,1.5192698,-3.523048,-4.305415,0.80701625,4.037902,1.7482877,-6.644559,-5.0083323,-2.7898226,-13.9585,2.4774144,-0.0012729235,-0.008130535,0.0031162128,-0.028374419,0.0321301,-0.00053528615,0.0066429526,-0.02222806,0.6425208,-3.517756,-0.5531986,-22.904642,4.765216,3.4765642,10.040545,-4.7384243,0.17936456,0.9924845,3.7109857,-31.692665,5.6996984,-3.2575715,10.750018,5.418646,1.2976714,0.61321205,1.9093784,-45.92975,6.2701774,-3.8578622,1.5541779,-0.7888286,-0.36432958,0.47219333,1.9394614,-52.445225,3.788566,-1.8101466,1.2607707,1.1616915,0.8638507,-0.24608997,1.2501057,-30.957928,4.884147,-3.857492,1.3260698,1.1647904,-0.11997554,-1.4730731,-4.123788,-6.4912705,-0.58468515,-4.271101,1.8345127,0.8686738,0.0029467,0.0008029658,0.021093993,-0.028090166,-0.03347362,-0.016966986,-0.014327893,0.029822586,4.3988614,7.142362,5.121614,3.3843272,-6.628825,-1.0346806,-10.154532,6.5332446,-4.054771,-3.1740658,-3.507157,-0.5366469,3.1232562,0.6374919,6.103411,1.6186357,-1.0165422,0.36683804,6.1895185,-7.0509415,1.234526,-0.1263855,0.27126098,-3.2043686,-2.5381987,1.893834,1.1389632,-21.522583,-1.532511,1.9825932,3.0570073,-0.9196765,-1.3927491,2.928834,-2.647442,-40.251003,0.008891217,-3.3137388,3.5872254,0.7382194,0.8442975,1.3150072,2.4097214,-18.817783,1.255819,-4.498737,-0.33932668,-5.38398,-4.1455216,-1.0652436,-3.1166463,-6.106054,-0.3048705,-5.8353252,5.753296,-1.479501,0.22276121,0.11488291,-4.48498,0.8576955,-0.80433756,-2.9066942,-3.8719687,-8.4400215,-5.1970224,-1.7595474,-8.41254,-2.5417302,-2.072033,-13.526989,-6.055296,3.2813818,5.337199,-7.6930923,-4.002686,-5.2060957,2.3853269,-9.377844,-3.4695861,-3.9029229,-1.83506,-0.9401752,-3.7108986,-10.174291,-2.661438,-8.813785,-3.6187797,-1.49192,-2.7588642,-4.1784286,-2.9625251,-31.930557,-0.8763832,-2.4741228,-1.3478565,-4.65141,2.2007692,-3.0851572,-3.6157296,-24.5469,-1.0384822,-1.3486284,-9.11651,-1.9009076,-0.61838746,-4.7881165,-2.405574,-12.978067,-1.2678415,-2.556709,-0.9265001,0.48202965,-5.7167354,-2.023729,-0.9416835,-0.019936588,-6.289684,-5.217542,-0.33913317,2.7889838,-2.9523711,-12.077866,0.24530338,0.8453264,-2.829026,-4.9329224,-0.07503511,-2.001188,-4.542536,-5.153963,-6.263508,-12.691803,-4.4805555,-7.3105483,-4.09384,-7.383165,-2.7727118,-2.3302922,0.56683517,-14.295458,-1.3846605,-3.489332,0.15795815,-5.467416,-6.2060375,-6.261082,-2.8465507,-18.593546,-5.2861204,-2.5680196,-12.205592,-7.3425,-5.8685484,-5.097991,-3.7269652,-31.335348,-0.018411182,-9.372936,-1.9010249,-3.4310985,-7.231318,-7.196563,-7.156671,-33.93772,-5.7971063,-8.776154,-1.3297882,-5.9419155,-3.7825534,-1.3964535,-4.130744,-22.169994,-2.8943462,-4.162364,-1.8261685,0.5975899,-4.988186,-5.2272925,-3.5483415,-33.617702,-4.6093593,-4.135038,-0.18610139,1.4862318,-8.633793,-7.0892277,-6.2364025,-23.15025,-4.687178,-8.494535,-7.505147,-4.772027,-11.902308,-11.094881,-6.0827065,-22.354069,-1.7416773,-15.469575,-11.491371,-4.3074684,-9.753938,-8.388723,-6.853184,-22.225689,-15.776768,-12.923031,-13.475405,-6.159685,-13.433323,-6.1845527,-12.251688,-19.668022,-13.9427805,-8.3217535,-14.632196,-9.606556,-8.233056,-5.773976,-13.180964,-17.498013,-6.203216,-5.6079144,-9.364456,-9.878125,-4.4320464,-7.426647,-12.447699,-38.487244,-10.697663,-1.7506336,-7.938305,-9.615551,-7.8854327,-9.196476,-8.75813,-22.902863,-8.135856,-7.1541395,-8.223162,-7.266226,-10.72054,-7.9861274,-10.172238,-22.46651,-9.474178,-6.7386656,-4.8483987,-10.745585,-13.287345,-7.2947865,-9.672803,-18.00449,-11.37771,-12.601689,-3.3470287,-5.1136184,5.2912316,5.3529286,4.554934,-9.020214,-12.181165,-17.252512,-8.425615,-11.105306,1.9480292,0.11118627,2.2171617,-3.035837,-8.011755,-10.221036,-2.941841,-9.444658,-9.845306,-3.3594673,-1.7364687,-6.6771307,-9.759839,-6.789881,-7.68018,-7.8875446,-6.1143713,-4.588056,-1.4204391,-18.295004,-7.5451317,-7.0654693,-9.968559,-20.97196,2.4171169,-5.229248,-2.0458863,-9.746168,-5.6665077,1.027063,-6.472933,-5.83458,-3.811989,-3.1061127,3.2780392,-5.1613455,-1.6393661,-1.0127505,0.6575946,-0.45498124,1.4787133,-2.123889,-2.2664537,0.4652333,3.3409026,3.2196608,1.4543233,1.8467628,4.954824,2.2811856,0.90183026,1.5109702,3.7301128,1.1253833,2.1545167,1.7617272,0.02139168,0.029075764,-0.019862045,0.016169354,-0.0041711014,0.0042225057,-0.009778957,0.011879619,4.3390236,0.11411531,2.5137646,-1.8954455,-7.99948,-6.994967,-0.43071917,-1.3674015,3.3593545,5.89809,4.242445,2.7000415,-4.2403245,-4.6702833,-5.662908,-4.167494,0.8047522,0.7185744,4.116867,-3.5117269,-3.9054396,-3.4396253,-2.5076966,0.7487467,-1.5450758,2.8824286,-0.3512043,3.3136992,-7.498228,1.2691231,0.9530527,-1.1523709,3.029349,-0.48176557,7.851694,3.156206,1.8710924,1.477375,-0.44669726,-2.800406,-5.853755,-9.504159,-15.450144,6.239398,-1.2601054,-11.968906,-11.823692,-2.3296018,0.009146653,-0.031324234,-0.00888876,-0.020284874,-0.0051636472,0.021953365,-0.005461636,-0.029664688,8.891553,0.12213668,6.0232425,-5.596915,0.36111823,-8.320103,4.8593826,-6.1317863,7.4270563,-3.163276,-4.298636,-1.5781038,-10.801141,-10.778712,6.154905,-4.29678,-5.674153,4.665615,-5.065801,-2.2253454,-4.2846136,0.9878675,-8.155549,-0.9294947,3.151061,-1.0019691,-0.95280504,-4.425888,-6.0989366,-6.8325315,-7.42252,0.28188673,3.9760115,-3.9657195,4.2850585,-4.365403,-7.211923,-8.495354,5.262383,-3.567582,-4.6342373,-7.0748568,-7.573444,-7.8557224,5.933728,-1.0223622,5.2308717,-12.704679,1.801133,5.3870964,2.6923501,2.335661,-10.171439,-3.5228243,-0.154919,9.230518,9.317396,6.6965256,9.120074,-13.070278,-0.20180231,9.254169,-21.029243,-4.122615,-5.122394,-1.9179975,-0.34661844,-8.1203375,-3.5504942,0.5356448,-4.646444,0.07666314,10.136289,-0.6851427,-6.4723544,-3.3331206,-8.289686,-12.393338,-3.9191208,-12.97404,-3.6584074,-3.6480858,-3.8500373,-5.719679,-3.7680538,-7.350876,-8.211011,-1.7530516,4.4605823,2.5723128,1.3853148,-5.03614,-2.856803,-7.9599776,-3.7770805,-3.2558415,-0.1009854,1.4387039,-5.03966,2.6675558,-11.460453,-3.960209,-4.9415894,-3.2269256,2.4307094,-5.7330823,-5.4443817,-7.609141,-3.1180444,-5.0803757,-5.4912496,-2.8976903,3.6748013,-2.2473187,-6.0362015,-1.9874259,0.107627034,-2.380928,-21.407934,0.13730194,-6.047546,-6.16799,1.1521161,-3.3402302,-5.2719803,-0.06695046,-17.926498,-5.1858153,4.5399947,3.2969193,0.66404533,-3.967684,-12.724789,-12.338101,-4.995183,-5.358376,3.295904,-0.110005006,-2.4888446,-2.0450416,-7.6895576,-8.449145,-0.33206502,0.73945546,7.686843,8.005019,6.276007,1.2061745,-1.3491572,-2.3910987,0.049661968,-2.639335,2.0277002,0.45084035,-2.1078756,-2.100613,-9.118864,-5.3668365,-5.865974,-5.442383,-0.30688193,-0.012895839,-1.2478784,-0.23256643,0.6230776,-2.3955126,-3.3149247,1.9315658,-2.922709,-1.6424024,-4.704036,-1.9562246,-2.36013,-1.145195,-1.4042968,-4.503223,-1.3503802,3.6056468,-3.6009195,-1.04662,-4.656834,-3.4203858,-3.1138966,-15.646226,-1.9223318,-1.7758996,-1.0731844,2.587018,-0.46515337,-3.2365127,-3.2157097,1.1641113,-1.8699538,-6.748346,-8.808999,-15.189971,-19.723099,-15.654001,-17.368425,-5.2704372,-1.983599,-13.8635435,-12.937889,-15.098963,-17.367989,-19.595379,-11.148108,-17.980526,-3.1472342,-9.8374815,-6.5742593,-11.855051,-10.787075,-12.503881,-10.496728,-11.037253,-5.7764087,-5.3273745,-16.99315,-12.731243,-16.419579,-16.61892,-13.811012,-12.811073,-7.307129,-10.158315,-15.862707,-12.356987,-16.626629,-14.436588,-14.103145,-15.237067,-8.38219,-9.628568,-15.541829,-12.723552,-14.779431,-46.328873,-12.117784,-12.995335,-15.373337,-11.146953,-7.997786,-6.7502875,-10.68736,-14.228354,-15.195286,-16.343483,-19.598711,-10.501338,-9.611446,-15.283847,-17.417181,-12.906882,-11.511329,-11.688491,3.1600668,-4.922176,-1.7032399,-0.52789813,-1.2334616,2.449802,-1.1390053,-2.89574,4.7489495,5.3954897,-3.017589,-0.8991578,-1.9948939,-2.3974571,-1.0946697,-2.8823285,-2.617743,6.907429,3.2310975,3.0993643,-2.2947915,-2.4897003,-0.8989629,-2.9534554,7.5254536,-4.0074,1.8588815,-3.7582188,-6.285698,-8.158966,0.3548548,-1.8254164,4.1468124,-2.3546586,0.8809331,-2.750061,-14.334378,-3.4231348,-10.994597,0.045512933,9.225779,7.197772,2.9092531,2.8786871,-11.234992,-3.3628411,-15.668391,-6.8049436,7.8200645,10.103684,2.9250088,-3.7597442,-4.0971594,-2.2037144,-6.675245,-4.1728225,-1.543948,2.0500546,-3.7506492,-1.4958699,-6.02517,-10.041839,-4.348841,-5.625997,-0.016022658,0.015388606,-0.03586596,0.032297216,0.019123333,-0.031492185,-0.014178727,-0.009057747,11.541221,2.8812919,-6.08525,0.3226291,-8.458313,-12.134446,-4.542437,6.9738226,1.1261479,5.783947,3.1861763,0.4882803,4.754134,3.8138034,-0.68744403,-5.37481,7.182325,-0.8010326,5.0409255,0.87471133,2.2004251,-2.5728993,0.7502421,-2.654434,0.6543394,-3.899148,-2.7273881,2.0386348,-4.8003488,-1.3867265,1.9856049,-2.8147833,0.005582244,1.5055368,-2.571925,3.6513848,-0.42111358,-2.1067564,-1.5818962,1.057798,-0.3697086,0.9913709,-1.0904343,1.4523304,-1.3265917,0.35144624,-2.8920925,-1.0298446,0.0018097669,-0.029114487,0.007976193,0.0056884633,0.018484237,-0.016463222,-0.012587442,-0.015101376,11.99488,-0.4337123,9.106485,-5.6543617,7.703935,11.922461,4.602015,-5.655841,3.3008873,-0.6070518,6.958634,5.165237,6.1192856,13.239151,12.719007,0.79012454,0.97482854,12.6086445,3.7757556,11.986731,5.9491878,8.5548525,8.0526,15.663375,15.431576,3.2667656,10.642586,3.852454,9.924414,6.9655223,10.490689,1.8885078,-4.4399543,2.3648915,5.7649217,10.31343,3.7653944,5.090012,-3.7780519,9.832346,5.904749,1.9919883,3.5693045,0.4528169,4.5784883,7.1655903,7.8737235,8.743513,13.242297,14.67519,3.7673838,8.64552,3.2865965,-1.3987014,9.566998,3.4127326,10.513228,0.9016317,8.347108,-4.163571,10.5699835,-0.17172784,0.35457546,11.148203,-0.98953795,11.842324,6.440295,9.73021,5.274107,7.7750683,8.975486,7.840605,-27.625906,12.622119,5.861512,4.824934,1.9697905,8.298115,7.167925,12.289381,13.107439,4.0188513,9.314931,8.353281,10.211033,10.66316,12.222482,4.5616446,10.998964,7.663468,7.348195,6.374672,6.4681935,9.270966,6.133605,8.230216,0.41294834,0.09096035,4.5276785,7.254538,6.722847,7.345913,10.187781,7.6164703,2.786641,8.200843,1.717226,9.949233,1.7427833,7.1078777,7.274654,6.0462456,10.785761,5.4491763,7.5836496,5.0511127,6.413959,1.0833374,8.007334,-0.45846304,8.007495,1.8425864,0.6910911,4.247213,2.8176668,2.8022115,1.7566851,7.9718385,2.407782,7.1911316,8.583813,9.088817,7.3180146,7.3851624,6.1196814,3.3762035,5.4842134,10.4373455,7.725904,10.3744545,4.7013674,5.3029795,13.032072,18.939875,-5.5497766,7.660801,8.639382,4.719478,5.35148,12.236937,6.2139926,10.459747,-3.1895692,3.9728246,8.447863,4.199098,7.1154685,9.988149,13.343988,10.273428,-3.9290948,1.7863004,5.4302945,5.8294616,1.3954911,5.601345,12.858296,4.920546,0.5238894,4.9211287,-0.0500869,0.7468178,9.378839,1.8211476,0.062144488,9.42061,-3.3464816,2.8544936,1.1059333,-0.5018775,6.225046,0.93147224,-1.7330815,7.446583,1.7018994,3.1134036,5.273248,2.647831,7.617723,4.2355437,8.103176,2.6096704,15.782703,24.242395,18.967426,24.017153,20.42593,30.026197,15.891905,12.94012,17.483269,17.879017,21.417236,18.110687,18.93253,20.663567,26.153551,29.222301,-3.472157,0.67411906,18.183128,14.290708,22.007843,20.143864,28.769657,12.919235,17.55962,13.372121,15.811094,17.129002,11.878178,11.418938,20.007902,15.250054,14.579381,9.959996,15.104805,15.898782,18.958971,16.981817,19.429934,12.355852,10.769564,12.877066,13.103632,15.893013,13.04081,16.707415,18.106188,21.346409,15.464761,12.734556,13.425515,15.970514,12.573361,13.599467,14.57471,25.88458,12.646197,12.185711,16.525835,12.201305,17.703749,10.386947,5.6112766,22.889416,2.5672271,-6.312176,0.38898283,-1.0773743,1.5287615,0.60353607,1.0477538,1.7895304,-0.59750205,8.29367,-2.226657,5.3068256,-5.1699905,-2.2135956,5.289548,-10.879327,3.6378925,1.1447711,4.162574,-1.0889865,-1.5290109,1.0765021,0.25410527,-10.421945,-7.5254707,-6.422444,-1.8613695,-1.3747078,-4.463311,-0.7752185,-0.08463074,-12.622752,-4.482066,-7.28771,-5.9706326,-10.080219,-1.7282946,1.2500237,6.151387,-2.1459296,-2.5567906,-5.9566617,-7.494202,-2.1880076,-4.878428,-4.4576545,-4.289237,-5.839764,-1.2306291,-0.7642144,-2.2502928,-2.1813462,-1.5403903,-3.6059408,0.60084105,-0.8560282,3.5547826,-1.026031,-0.09476492,-3.9631734,-1.2996676,-1.3915603,1.3737707,2.3709028,-0.011559137,0.03464714,-0.0043218336,-0.019743687,-0.017436905,0.01706963,0.018771905,0.023672927,2.6830318,3.6400588,1.4354192,-11.153278,4.306633,1.6122305,1.3626304,2.822539,3.0939267,3.2979662,4.635807,3.5959675,1.3013797,2.4680684,1.6377983,2.1852264,3.2053242,5.1797104,5.040787,3.8706372,5.632781,2.1435573,3.3691182,2.261446,3.7795017,3.8227475,1.3132291,3.9815032,1.821775,2.637565,5.0469894,5.1923013,3.2605221,1.4932778,9.233681,2.3768008,-7.133709,2.9890752,-0.6127417,3.068121,8.284522,6.7012916,7.3119946,8.215137,1.417775,7.978745,10.406592,5.8530703,-0.02162231,0.008584542,0.020258816,-0.0050428067,0.009625928,-0.029093573,0.031635057,-0.0067974012,-13.427806,11.037504,4.820282,4.974494,0.62143654,5.062325,6.0193815,-1.2356902,2.3328378,-2.8882449,-1.1347357,-0.95252013,3.1774719,5.4983654,-1.5978147,6.160453,2.9301336,0.4568528,1.9503218,1.2109585,3.20402,3.5707827,4.44769,0.6604519,1.9893187,-0.7559259,-1.7731072,1.7937751,1.3278894,3.0227604,3.8405752,6.331733,0.76544154,-1.5382934,2.5959818,1.630979,1.6407552,0.31295675,4.886101,2.490332,-0.47354546,-0.5933848,4.023975,-2.2838392,-0.9167998,-1.462182,-2.9929338,-3.9881294,0.6162748,2.5462112,4.1808486,0.05838455,2.3304198,1.2177025,-1.4793028,-0.8616287,12.1889715,2.8972275,0.2531781,-1.5817263,-1.623023,-1.6819928,-0.771765,6.315406,-1.2631731,-2.366411,-1.835231,-0.026946291,-3.4793909,1.7079915,-1.84774,7.202815,-0.16666387,-2.0046294,-3.092166,-4.291195,-4.525395,-5.3026123,-3.2867696,-4.6025586,-1.1123005,-6.09592,-5.801787,-6.133043,-4.2132015,-6.951622,-2.8652072,1.0373095,-4.644096,-3.4681711,-4.3070793,-2.9485357,-1.9059298,-4.2180743,-5.2801576,-4.2974887,-1.3649138,-3.8678446,-5.3128695,-8.377536,-4.2692223,-4.2031913,-5.421831,1.62036,-3.4442375,-0.950725,-1.4522016,-6.038649,-10.711522,-4.049867,-9.43912,-4.3148775,-0.50846255,-1.7214588,-0.88769937,-2.595707,-4.957948,-6.760587,-2.7571676,-4.2716284,-6.047398,-2.3524425,-1.906251,-1.5724725,-0.77996683,-2.1488233,-8.924582,-1.9561028,6.2532115,5.525311,7.3291264,8.315182,8.573347,6.6473823,7.664559,4.4992447,10.171612,5.307773,5.730659,4.49195,5.661375,6.654365,7.723091,12.027639,5.748404,5.9218774,6.753783,6.8261075,7.3229795,3.9114482,7.8909516,6.0799966,8.900524,7.4721584,9.832728,5.766847,9.767333,7.704115,6.97732,7.747809,10.250662,8.235332,8.187121,7.304507,8.1003685,9.388552,7.3785524,10.134162,6.9712877,6.3271313,8.216311,6.910986,10.472543,6.7852035,6.763549,7.393568,6.8601923,4.8352757,5.6063623,5.676913,6.6837845,3.665866,2.691279,5.439445,4.6905103,7.004431,6.3064275,4.043433,6.7298837,4.894812,1.3711984,7.451933,0.7883933,2.298288,4.133647,5.0351033,0.64449424,5.1400566,9.1998415,3.9056108,-3.0165298,3.1072478,3.7615464,2.7225654,2.2927082,2.7396755,2.5375218,2.2281144,1.4464583,4.9825583,4.4063835,4.3633027,3.7951093,2.8638458,7.014302,5.534986,2.3669798,2.7495856,2.8182187,5.651537,-0.38630617,3.7777443,4.651787,6.628674,5.403009,3.4098473,4.2540784,7.6111193,4.046558,6.1072955,3.107782,7.09889,6.20515,5.70189,3.8255,4.3288126,4.18701,3.8027997,2.5321393,1.9137437,2.7461863,6.8113837,1.5194929,1.8585941,1.3938574,0.8202962,3.2626321,-1.7399476,2.4074216,0.20192702,2.6867106,2.4767246,-0.9833948,5.903484,2.7298205,-0.7921766,2.3838658,5.3791533,7.7151527,9.65722,7.2016563,6.713402,4.9266605,3.0493112,0.9086111,6.792773,4.0552855,6.9502053,6.203852,7.2407093,3.7494326,2.7634585,11.161287,6.186432,7.984508,7.6388354,7.064429,6.6543794,6.29237,5.101153,8.423664,6.7535105,10.349781,9.572493,9.831056,4.638619,6.8483763,5.559309,12.163366,4.5507646,7.7140985,8.736383,6.273885,4.759311,7.029881,9.584545,9.393326,10.395406,8.369646,7.56463,6.3643503,11.097794,6.581782,7.316277,9.271815,11.62603,4.9542055,8.485756,9.0965805,7.889849,6.4978275,11.103054,12.58108,8.149254,10.983982,8.189778,8.315783,4.5390124,13.570902,7.741922,-0.019313622,0.01669769,-0.017881788,0.008702544,0.0258628,0.020753443,0.01832774,0.022333892,-1.4712589,-2.3521597,-8.215233,-10.030273,-2.478347,-4.924621,-18.177876,-5.5844398,-2.8954327,-3.0056686,-10.533983,-5.6729937,-5.6727557,-6.7136765,-7.5308,-1.2851149,-4.0203605,-2.6660542,-0.5571058,-5.84945,-2.025196,-1.039495,-6.500526,-1.9028946,-3.8725717,-1.4999602,-0.8388394,-3.4278023,-3.2051523,0.42289665,-4.1793118,-4.2167044,-3.8067493,-2.7045126,-2.095886,-2.936368,-1.0667915,-2.1002624,-1.864592,-3.0630715,-2.9588964,-2.192164,-1.1046499,-6.2207265,-1.617205,0.3075743,-1.0051552,-3.6377542,-0.01745474,-0.026185974,-0.019526022,-0.002882077,-0.0076572686,0.0016135583,-0.017786672,-0.008684047,2.9254339,1.3849704,-5.9145846,-2.0679538,-7.186808,-9.078534,-4.2455473,0.42846432,-6.462933,-9.970886,-6.2502246,-5.083093,-7.229859,-7.9734836,-11.573374,-4.111254,-9.388613,-4.757711,-5.4319425,-3.7464073,-9.09095,-9.01487,-5.5700912,-5.579158,-3.7041936,-3.9967422,-9.644157,-3.7729979,-4.406109,-7.4404454,-7.6603627,-8.336487,-6.94842,-2.977796,-4.1556277,-6.8127613,-5.9024906,-5.257568,-3.422462,-8.188114,-5.9660373,-6.6161795,-7.1218805,-2.014679,-7.356847,-6.0214806,-9.462641,-8.826069,-6.012249,-9.325873,-4.1562057,-3.6477191,-3.0586367,-4.710363,-10.1302595,-10.167058,-7.9570947,-8.870923,-6.7644033,-5.3715053,-7.88419,-5.9068704,-7.817451,-11.194683,-7.2466836,-3.619363,-10.916436,-4.8731837,-10.866403,-4.4883456,-6.731584,-2.3854153,-8.635233,-9.129356,-2.4649642,-6.961078,-8.012189,-5.4783163,0.31485933,-10.527708,-7.4490933,-3.7368417,-6.964598,-4.887043,-9.016617,0.2547824,-6.877928,-6.2061095,-4.7448134,-6.341014,-3.0257325,-5.451086,-0.0045645842,-8.89558,-4.4141507,-4.7453594,-7.6096807,-4.578211,-4.356986,-1.1914918,-8.185196,-1.0965408,-8.194059,-3.6876059,-0.21202913,-8.512836,-3.5210664,-6.085324,-4.42254,-4.3520536,-1.5636764,-7.3853707,-9.479248,-4.8793135,-7.7132826,-5.483081,-3.9264207,-2.6596205,-4.4911065,-4.131776,-4.091919,-10.720956,-6.870689,-5.7661915,-1.0944821,-2.3433537,-4.448687,-8.08145,-16.90712,-19.05827,-19.118055,-21.582808,-17.98441,-18.683784,-20.340776,-17.612442,-18.531315,-20.524334,-21.335262,-22.549274,-20.79158,-18.235676,-26.043869,-17.881046,-20.15504,-20.250767,-17.842306,-20.584766,-18.477875,-16.384575,-20.592844,-15.527602,-17.315365,-17.795391,-17.573378,-16.665035,-13.813921,-14.885033,-11.518516,-21.253448,-20.087389,-15.034515,-17.369644,-20.22267,-16.700365,-13.746087,-17.851252,-19.317797,-17.51225,-17.169739,-16.209223,-13.09792,-15.523052,-16.31249,-17.643286,-16.846024,-16.474571,-17.214687,-17.148027,-18.321278,-14.486506,-14.310774,-15.79419,-16.364983,-17.227541,-16.164785,-14.308829,-14.079403,-14.6202,-14.373077,-13.382556,-17.3965,-9.991047,-9.545502,-13.016484,-14.526193,-15.394018,-17.669762,-13.699169,-14.547046,-10.199622,-17.9314,-13.093061,-16.33844,-16.756296,-13.864505,-3.4080098,-14.36675,-11.187614,-13.590964,-13.407576,-14.286976,-12.62063,-10.058726,-14.059032,-12.49758,-11.833881,-8.609684,-11.459875,-8.11453,-9.055339,-10.800427,-8.767235,-10.699122,-13.604458,-8.060985,-6.7100077,-10.219593,-10.863816,-8.031316,-7.801342,-13.118184,-7.920095,-7.5713105,-7.0421863,-8.21265,-7.804535,-10.352556,-5.772555,-12.180564,-11.600688,-8.789537,-7.988347,-6.629521,-7.2614293,-5.299687,-0.85614395,-5.206823,-8.216133,-10.131091,-7.785136,-9.577702,-2.4170325,0.6687219,-9.503152,-8.117807,6.682643,5.713067,1.3766445,4.7941866,3.8487675,-0.4027038,-0.08374381,8.336988,1.9876394,5.5852923,3.5255744,5.323398,2.8041966,4.822938,1.556797,5.2483573,6.3727202,1.5064712,2.1447089,4.140732,4.372292,5.917318,3.5043044,6.1981235,3.30091,3.6567717,7.6112576,7.5843863,7.022719,5.879296,3.666614,11.657116,2.1162555,4.5640807,6.1253924,7.6995935,4.7455235,8.394569,8.4262295,7.3196626,3.9858482,5.7669544,5.519294,7.9623446,7.3099394,6.938509,7.7382064,8.098357,12.51283,4.9619074,6.0814075,7.9203987,7.4048724,7.710322,9.04768,8.345944,6.523964,8.558591,8.349435,7.9166,7.12813,9.171223,9.687985,10.097819,-0.0042370535,0.009578059,0.03396266,-0.023640648,-0.011625262,-0.026808325,-0.009412182,0.026606508,-5.0392194,-4.713351,-11.893855,-2.9961975,-1.3700688,1.5495114,-0.14074756,-9.103459,-4.459568,-10.075684,-7.9619117,-1.8677593,-3.3948162,-0.62476414,-0.25738388,-4.457367,-6.198609,-0.8813161,-11.471411,-5.431807,0.80145305,-0.8357654,0.679495,-2.8300717,-4.8997955,-4.952523,-14.73586,-9.172734,-5.3269677,-5.307347,-3.7665787,-6.0326686,-8.604916,-23.196657,-21.568054,-7.105004,4.459371,-4.391059,-6.494978,-6.0655384,-14.13495,-13.074408,-3.6852536,-7.4349732,-9.7431555,-11.140293,-2.0488467,-5.7215214,0.0025807847,0.0072951047,0.033901684,0.018272955,-0.005128959,-0.0067232247,0.01827178,-0.02776758,23.563847,3.199686,4.0084476,1.759408,7.4599905,15.134552,-8.514506,-1.3928169,6.3301673,-16.941263,-0.060714487,4.638548,9.096266,5.1320744,9.419262,0.85167444,-1.9260654,0.14085115,-3.0184097,0.6905223,8.858697,2.7935781,10.743999,12.496045,-6.2821884,8.325893,-5.2121334,5.791226,5.615151,13.634044,5.6389995,11.251259,4.979015,3.2400978,3.1694012,7.283179,3.513908,8.82091,9.076223,0.6339478,-5.699242,1.4906982,8.178876,3.9853148,1.7224777,6.782611,-7.7231765,11.852304,-0.5810529,0.71693575,3.8927648,-0.864853,7.4430842,4.9507613,5.8038745,-14.13148,15.610547,9.019195,10.149069,-9.518403,3.8473623,6.9315834,8.477421,8.059446,13.251372,7.746868,4.4952083,5.5843086,2.664927,-5.113595,-4.9413767,9.344577,20.581892,8.319766,3.5051973,8.221456,6.3034725,8.955432,1.1918234,-2.158477,0.29722682,6.442835,8.836174,3.9289012,4.427991,5.501458,-1.5061424,4.5843787,6.4561806,6.6209784,5.9446154,4.2808,10.584744,5.517051,6.509561,3.2286928,3.7399356,3.8980014,4.3575296,9.246242,8.059989,9.074635,6.84373,4.6186485,8.529541,2.4774065,7.1576138,7.775616,5.531562,5.313123,8.741577,3.9851146,10.331079,14.151159,3.9351742,7.1764994,4.345333,4.118371,11.173364,7.4335914,-1.9427413,5.528843,6.0300527,2.5965917,5.251801,10.13582,4.589799,9.794763,6.4510727,7.154903,12.079431,6.7364388,9.199973,4.3007345,7.8790936,20.0588,15.049218,7.460814,9.400839,8.087981,9.177531,8.021426,6.8613305,15.96057,12.900416,11.318722,14.768236,11.531376,11.6993475,10.639151,7.890307,17.139706,4.4346547,6.8691096,4.224369,6.4666243,8.360731,3.5369623,6.8319583,19.649622,4.2392683,4.076977,9.8666525,4.608664,4.660774,2.5353777,11.908472,8.849827,8.797185,6.425647,8.986347,4.5006685,7.029884,9.268483,8.918274,19.121998,12.245082,7.0716243,8.375858,8.86648,6.1981244,6.228195,2.8847654,7.4529886,11.565872,4.0981474,5.1435084,5.1509037,8.247949,3.8866513,10.587774,7.463819,18.099798,14.3646,15.266835,15.543457,12.338524,17.610962,19.639252,12.578978,18.236145,16.205582,14.806151,15.778913,15.315344,15.212374,9.187325,-1.4628384,10.747168,11.961409,6.665929,13.445417,14.570167,14.218022,9.050565,11.249512,5.2202067,6.7093415,2.2813797,6.900312,13.114891,11.368083,12.951619,3.0719802,4.962345,8.767896,4.402944,13.07672,4.7826834,10.544353,8.116396,12.913613,5.9763794,10.2630005,9.280609,7.3355875,14.888053,3.5906582,18.192997,11.659118,13.214073,16.293272,7.73521,11.209621,3.7142537,4.5020375,20.693668,15.1547365,17.650482,9.073901,13.624305,16.490993,6.5687776,14.898728,20.06609,10.363397,3.5312638,4.563297,-4.425168,-1.24214,-2.3005214,-1.3496114,0.67698675,3.0883317,1.1571879,-4.0551686,-3.1189044,0.5656537,2.291116,5.264594,4.286584,-0.35258722,-0.32242498,3.752847,-4.986706,-2.0394864,0.89589196,1.2949364,2.2639174,2.9915328,0.24032785,3.0783265,-2.7709298,0.21397711,1.1930084,1.7407262,-2.0863252,2.9019544,-1.0435321,1.8208969,0.713683,-1.5066506,-0.6477496,0.7526636,-1.5411605,-11.815368,0.311946,2.3255146,-5.6334333,-6.898474,-0.02164646,2.070721,-2.93263,3.0261664,-9.069623,5.183326,1.6812074,0.66330504,-7.5493355,-3.896325,3.033693,1.1970202,-3.8980064,-7.639545,-3.382698,1.7936435,2.3168201,-4.3105145,3.6357167,-1.517083,-0.02204055,-0.019411586,-0.012621162,-0.008081006,-0.021803884,0.014296646,-0.0021385076,-0.009845163,6.9774194,3.9844263,-12.099638,-3.2110713,-5.078918,-2.7687786,0.5552317,-7.646202,-6.2639856,-9.269282,-17.42078,6.0565395,1.8932972,-5.7921376,8.173352,-19.822893,-7.4410477,3.1425989,-9.491646,3.2815735,-0.6614074,-10.682391,6.8444214,-11.125509,0.2983838,4.4705915,-2.8336105,6.167736,3.4107275,3.6518092,6.9287286,-0.511726,3.9200976,3.40034,2.3587303,7.726058,2.376834,2.968361,2.4628296,1.0628967,5.147146,0.1968935,6.706622,-0.2889678,3.5574799,0.73845047,2.9747152,-1.6613055,0.00044893162,0.022183066,-0.03203841,-0.013122841,0.013092927,-0.025800224,0.03134596,-0.028311685,-3.1678386,-4.4754252,-6.051327,-8.802425,-22.246525,-8.144402,-16.746222,-3.2737126,0.7149799,-14.434404,-12.790638,-0.96097857,-13.091983,-11.546272,-1.272281,-24.365774,-20.55983,-10.225397,-18.455856,-7.691283,-5.3696265,-10.867966,-4.1845727,-4.640666,-13.824721,-1.7680014,-6.2862663,-3.325707,-3.565331,-8.544894,-8.650811,-18.711464,-6.2921476,-8.7194395,-8.647904,-6.9922385,-4.238914,-3.7656066,-2.3040516,-17.998394,-4.838618,-11.55685,-8.139242,-7.072408,-13.131894,-5.4783273,-10.650978,-0.64804846,3.8742821,8.6137085,-8.397403,-4.980029,-6.3457007,-2.59621,-3.1800075,-7.2837815,-19.680027,-2.579173,-5.9095216,-5.747042,-9.149017,-7.2036853,-12.014007,-30.107864,-11.442443,-4.7344065,-7.6446004,-3.1644843,-1.7527778,-8.852221,2.666528,0.65548676,-11.144159,-5.6476808,-5.4850693,-7.678906,-13.072408,1.2174275,-2.968954,-3.1482785,-1.5604801,3.812858,-5.4105806,-5.073701,-6.908261,-0.9160741,-3.0142477,-7.425302,-2.395576,-4.586478,-6.50057,-1.8489717,-3.2471073,-6.3756304,-3.9803376,-3.0214128,-16.142069,-4.97917,-2.3017576,-3.0180788,-4.585165,-2.420519,-4.9754276,-6.6992097,-12.953976,-3.6619544,-2.0494118,-7.8990574,-3.1229017,-3.5957925,-1.0898998,-0.81997466,-4.758077,-7.484898,-8.137179,-7.7686024,-2.0896895,-3.7808678,-1.7149107,-3.0876272,-1.2169619,-8.983873,-5.1022477,-1.3255588,-7.922637,-6.352764,-6.977547,-1.7586304,-1.4642314,-2.0419743,-0.9005322,3.1140566,4.710683,-2.192454,1.3889254,-2.0033667,-4.324021,2.324212,4.428446,1.717479,7.010127,1.4037018,5.1464887,-1.6157573,-7.133553,2.5988479,-0.17182812,0.8278239,3.746229,-1.5181668,5.472954,-9.297825,-3.3430603,-3.1834095,-5.178851,-1.9258008,-1.4066142,-3.6124525,3.0216308,-2.1808395,-3.060122,3.3322215,-10.429882,-0.60693336,-1.20792,-6.1017494,6.946433,0.9772885,-6.5748897,-0.28977868,-9.342574,-1.6919115,0.27338818,-2.6837368,0.92962617,-1.1360495,-1.7957237,-3.8196433,-8.067319,-1.1967977,-3.306759,-4.510866,-2.6738842,-7.7136927,-1.2150662,-2.2164218,-3.7089648,-0.46724367,-2.8292437,-3.0947616,0.041543316,-8.969899,-8.916138,-8.138089,-9.875014,-8.807947,-13.194062,-10.653328,-3.8336117,-27.959478,-9.987345,-15.592189,-3.3530407,-1.6921272,-1.0918407,-1.1748351,3.8166337,-5.040959,-13.353179,-7.9831758,-12.578937,-0.49244282,-1.6117276,-5.687464,-15.643708,-13.617521,-12.297906,-10.308839,-7.7627096,-2.93211,-3.599683,-4.1155005,-5.264288,-14.216537,-10.782509,-16.547844,-9.660542,-9.911578,-7.8746514,-4.2522726,-3.9337096,-4.5533123,-17.466179,-10.913786,-14.379921,-11.05371,-7.023952,-9.206408,-6.232729,-3.3050046,-14.42551,-13.721825,-17.14848,-13.3353405,-13.111834,-8.705748,-19.1797,-15.666954,-11.631377,-12.020737,-5.9942303,-12.733685,-8.51731,-10.518043,-4.715492,-16.226162,1.4738209,8.196566,-1.9738992,-7.542103,2.2027886,0.09478516,-11.846901,4.628665,-0.18764736,-4.149659,5.132956,4.2752147,-0.78164,5.8567715,3.4644804,-1.70302,1.5651428,6.5351973,2.6379402,5.181536,7.8919697,9.335501,6.8374977,-8.775063,-1.1875905,7.581859,2.2796621,1.9985484,-0.026253944,4.6789875,0.72039855,-11.396321,-6.6427245,-0.8925619,2.611299,3.840445,3.706981,4.8673778,-0.50958145,-1.7409207,-1.9542768,0.74868625,-1.3309913,1.7263014,4.2970634,2.113935,-0.2075412,-0.6462582,-1.0065603,-1.1085192,-0.8516307,0.94257957,-1.2313948,-1.5364913,0.04416332,-3.0345998,-7.0042186,-3.0601232,1.7929375,1.4474012,-4.5176444,2.1839628,-2.5331686,-5.223426,-0.00093094254,0.0049559274,0.007595734,-0.0024755334,0.02851081,0.0049098833,-0.031601444,0.020765549,-1.106519,0.284089,-3.8932643,-3.1238902,-4.6557493,-2.5798094,-0.15762205,-0.5422639,5.816759,-2.66727,7.8238845,-6.903111,1.8012378,-0.9133722,-0.7665846,0.38548458,-2.3979096,1.1896757,-2.886997,-2.371696,-2.381221,0.33129585,-1.2294482,-0.9914582,-3.8753538,0.4323175,-4.040284,0.57829285,-3.4285488,0.48759845,-0.41609263,-2.6169372,-2.455738,3.875407,2.2278197,4.5660615,-12.468446,0.9861859,2.1210313,-0.7470065,-0.86009145,4.17627,-2.0884955,-0.68031883,-12.534349,-7.468521,0.32299766,-2.824615,-0.01895092,0.030349625,-0.028999906,0.010686141,0.028952567,0.01941678,-0.009206703,0.030519415,0.3511881,-4.071113,0.37248972,0.76920056,-5.085851,-0.029262165,-1.8980386,-1.2406751,2.0590715,-2.8364708,-4.0817194,-4.549036,-4.1773896,-5.401477,-6.5854764,-1.4028277,-2.481725,-4.355678,-5.5524693,-2.9591951,-6.415021,-6.0511284,-4.74251,-9.434159,-6.9908276,-2.987567,-8.050399,-6.0894084,-7.182977,-2.5354009,-3.5297906,-8.839906,-3.023087,-6.5222263,-0.7338298,-2.1596394,-8.510279,-4.866389,-4.7230587,-7.213613,-6.445612,-3.0634818,-5.7332563,-7.1236467,-0.5467681,-5.3018217,-8.341456,-2.840772,-5.5399942,-5.8675056,-3.884631,-4.928647,-4.1995106,-9.300926,-9.380453,-11.904906,-6.4193254,-6.9930167,-5.397555,-4.2955885,-3.452587,-3.1054697,-5.2262692,-2.3801947,-1.1039162,-6.3281426,-3.3505406,-5.0481825,-4.9099965,-5.1923738,-1.9292061,-3.350139,-0.8187854,-4.287393,-7.3546906,-6.0922313,-4.2096868,-6.7184954,-1.6613464,-5.3452387,-4.919431,-5.97562,-3.698342,-5.295126,-5.928444,-3.466626,-6.4746666,0.09763961,-9.981611,-7.8975487,-4.8735623,-6.238671,-5.029012,-6.8884463,-5.6055894,-7.6784773,-3.3834531,-6.530208,-3.4926794,-5.1592426,-6.918524,-3.6346755,-5.976754,-1.950937,-3.822992,-3.0003486,-3.4164042,-3.6742053,-0.6099967,-5.006279,-5.6411304,-3.8703818,0.3430419,-2.8331554,-7.8399286,-3.9429083,-6.9176598,-6.2395735,-6.808945,-4.678545,-1.2115346,-5.3753552,-5.310506,-8.278098,-1.9376825,-11.224226,-8.070527,-2.6588917,-7.108886,-6.303297,-7.7978935,-8.952386,-8.317381,-7.3610845,-4.4130588,-5.9026003,-8.011844,-5.545578,-6.8124237,-8.379938,-8.130874,-5.914263,-6.496156,-0.8508979,-8.118143,-3.2464008,-8.85829,-4.0791016,-6.349111,-3.6873553,-5.4853334,-5.445987,-6.799847,-5.0943966,-6.9208274,-7.100143,-8.459939,-4.4189324,-5.945875,-4.8151927,-5.652972,-4.1114016,-4.823948,-7.2067695,-6.09567,-7.762515,-4.098924,-0.5277917,-8.220188,-6.57012,-6.1728954,-6.369534,-8.399925,-1.4633683,-3.4185176,-1.8594866,-9.919211,-5.076885,-7.548131,-9.873571,-6.8494964,-5.650911,-4.43305,-6.1103053,-8.017661,-7.1517963,-8.256099,-6.271163,-8.0829,-10.752084,-6.254593,-8.26315,-12.946204,-17.203863,-12.807041,-16.602222,-16.727432,-13.044487,-9.6488495,-18.965355,-13.7374,-15.71288,-16.161827,-14.221795,-16.257439,-14.526238,-13.6020975,-11.654418,-13.888504,-15.588184,-15.517527,-15.349245,-15.531128,-13.364348,-15.368845,-14.416354,-18.859982,-14.816492,-14.887425,-14.702749,-14.694506,-17.7969,-15.267735,-17.652876,-15.781259,-16.220392,-9.486836,-15.249048,-13.140476,-10.532964,-15.778249,-13.838985,-15.711778,-12.93155,-14.539447,-13.443658,-11.220237,-13.171252,-11.805589,-16.921232,-12.547848,-14.746467,-14.690628,-14.760051,-15.980901,-10.282892,-13.270165,-13.761657,-15.285677,-13.787338,-13.252254,-14.8136425,-10.961811,-10.578411,-12.023602,-7.396377,8.993992,1.2742945,3.3250966,4.4450226,2.9942853,5.334229,3.4488902,3.340307,6.962147,5.0018067,3.9063854,6.993276,5.039294,5.641226,5.097209,3.954007,1.1379776,-0.82480395,3.5828562,5.540928,7.1292095,4.9707813,5.3155265,3.8190403,3.5804229,2.9193246,6.8832994,5.416932,5.664857,4.3523784,5.1682262,2.8497882,5.436922,6.15433,6.0761456,6.2011514,8.068529,4.455429,4.6731515,4.6930346,-6.93393,8.839475,6.5926843,9.180965,5.1955147,4.6283355,9.258172,6.453985,6.7643814,6.3934073,9.050387,9.885799,7.137426,10.3322525,4.257415,10.35278,1.4140673,7.0541477,4.3312025,7.987412,1.3997009,6.84211,9.338072,4.8957076,-0.022050448,0.03282696,-0.025029995,-0.016261589,0.00902232,0.0009343924,0.018112725,0.029767793,6.9950953,11.044924,9.752279,9.0482855,5.827828,-0.6269776,6.691641,2.2126637,1.8965881,1.3719345,0.17581828,4.5357027,5.7564855,9.20992,3.8162947,-0.83988786,0.10282061,4.287953,1.5488907,1.739072,-0.9712972,3.3565636,4.568103,1.4205225,-0.07831444,2.100982,0.051879864,-1.2198347,1.0674812,1.5331509,-0.34356222,1.3830024,0.8959347,2.1421785,-2.0434525,-0.5534574,2.782693,-1.0168087,1.4915051,-0.5762993,-0.581011,1.4278411,0.040744077,-1.5216676,-3.8109293,0.62473446,1.6486502,0.40459856,-0.020789754,0.009449511,0.01119179,0.0069508264,-0.022617815,-0.0014213372,-0.018819932,0.024874387,7.3736334,6.0896683,3.64354,8.725159,7.2191596,0.7769387,10.432438,6.143684,-6.800871,8.553822,0.6794123,9.028413,4.9222775,9.104863,-3.8080034,6.7337112,3.153487,1.2295811,6.94683,6.762886,14.025121,7.172071,2.5260963,3.3696613,4.3214884,1.633406,6.2401814,3.13851,5.190618,7.617731,7.215841,9.827605,2.422727,0.51719624,7.0432863,4.6081266,9.969883,4.472544,8.207985,8.227396,-8.677756,7.314072,-7.9992666,9.26464,0.70930326,4.936983,5.1401196,2.7008407,3.250809,3.2005074,-0.07523896,6.6478567,0.8238581,8.58094,4.480987,3.2596486,2.9284253,-0.8973831,4.5289054,-2.712471,2.0752852,5.908416,4.0164685,8.797028,-0.22427408,7.5138516,8.738533,6.3872495,5.598363,9.304332,10.509428,6.8096485,9.018381,5.45352,3.329372,9.817756,11.886827,5.027559,9.855798,5.974288,4.3964562,9.71704,8.438817,8.161925,12.5221,7.8863363,10.108032,2.5599341,9.9484,6.2842927,6.079964,6.5311675,9.257763,10.636188,6.899431,9.578669,9.444829,11.059101,4.245801,9.865005,6.272983,11.228441,9.171757,6.2496896,6.405292,5.2086496,7.399152,7.277068,6.031428,5.360216,9.915602,5.2545333,2.9963915,5.6595874,9.155408,5.8623967,5.184906,6.0024967,5.4255443,9.18886,4.4319286,3.6338391,1.6036206,7.9750695,7.10072,6.8624506,3.095108,2.7370691,11.172845,6.329568,6.99567,9.816787,6.429787,8.713053,6.7102613,7.9541526,8.299496,10.1597595,12.482375,13.840398,4.7253184,8.642365,7.553149,8.971864,12.664302,4.5649323,12.318019,10.020959,10.22681,10.978339,10.54192,10.282811,2.812389,5.987239,4.471342,9.491672,4.5628333,10.783986,11.254212,6.8652053,8.18806,4.5689573,7.5489693,9.286951,6.7530313,7.010689,8.579505,3.9913313,7.142601,6.494186,3.0331824,7.2965207,9.212099,8.021506,6.6510944,8.425233,6.9065647,3.9359643,6.3171387,8.959256,7.6682224,7.0255857,7.7522745,6.184301,5.8894143,3.535066,6.704367,4.48469,6.203513,6.1630607,6.798713,7.1156545,14.915076,15.501043,20.05433,17.700771,19.878939,23.068432,23.522326,10.2815,20.422697,16.660336,22.826122,15.427464,22.117409,19.387653,19.171803,14.598157,12.732844,10.78999,23.834442,20.025986,16.81736,19.693392,18.844425,14.145041,12.20297,10.907017,11.283857,17.125635,22.922129,16.44749,18.170128,15.612216,12.953846,11.2110405,15.1006,15.16501,15.571233,22.272305,15.599076,15.246343,17.03089,13.3700905,13.540711,13.295846,16.431807,14.386148,17.503763,17.450615,15.956807,14.745199,13.793259,14.351471,13.353066,16.364405,14.9323,18.866745,15.714133,12.976423,12.82465,14.2161,15.1134,12.296711,16.940533,20.196066,4.249803,3.8003786,4.798965,7.88762,7.2928376,5.705917,0.8600035,6.436203,7.4604635,4.8265195,6.301704,9.016542,5.704551,7.4745255,5.1082315,3.5183876,2.5689263,4.338165,8.429963,4.3140593,9.749972,7.582836,5.1498094,4.942599,5.576094,5.876263,5.1461143,3.0736635,3.953395,5.370259,5.35933,3.341605,5.0154,5.7586904,4.9428134,5.963332,5.10483,7.0311303,1.5027322,5.5153623,5.2224107,5.19059,3.1700597,3.3994095,3.8527403,3.5770144,3.2418923,3.6198936,5.6792507,9.871606,5.1814632,4.003977,4.0071163,3.9753292,4.15667,6.1363883,11.281039,6.450153,7.32364,4.9479246,3.024331,2.945477,4.535291,6.101149,0.0100550335,-0.008003629,0.028503653,-0.01897646,-0.020871243,-0.034414012,0.028098688,-0.011910552,4.0116587,-1.3280153,0.39723387,2.980274,5.505617,-2.071434,0.23122674,2.4555047,1.768957,-5.1464453,-10.869709,-2.8346982,-6.0899553,-9.194961,4.472671,-4.6390457,-2.9476452,-2.7266,9.98165,-5.2812867,2.431683,-5.41642,-4.7945657,1.6753337,-0.62477237,9.966579,-2.6386971,-2.1995938,4.8159037,1.6427199,-1.7283907,-2.297891,1.645415,1.5776584,-6.9091487,-3.3216004,0.7789807,-5.4204655,-9.295643,2.3558373,0.8777524,2.108968,-3.9705653,-1.9587914,2.111685,-7.0278783,7.956577,11.277772,0.008994209,-0.020488452,-0.022835352,-0.018275807,-0.005583014,-0.0037723996,0.013658196,-0.0028281093,-10.572669,5.2707715,2.6843195,-10.621887,2.2660894,12.876949,11.467902,-9.209723,-6.0585938,-19.853376,4.4639554,3.5685346,6.3418145,-8.912844,-23.00373,15.356479,0.47251052,13.5237875,4.090414,5.7870507,0.95941657,3.3114686,7.520126,4.5362897,10.657464,3.247876,13.094799,4.176549,13.517559,2.600003,-11.047632,6.766611,6.64866,1.7000757,-1.4375656,3.185359,5.1823616,7.339224,9.835554,-4.9822397,8.366196,6.843264,14.170773,4.9265428,13.881889,12.122139,0.884149,5.327228,-6.1436496,13.1980095,-3.3765657,2.5305064,7.9602823,13.643131,0.28255415,9.613908,18.92588,4.0333066,8.0340395,0.36271983,-2.1284082,-0.558672,1.9549156,12.9648285,20.167927,6.799505,5.40868,4.1240835,-1.3026428,4.2048883,2.919631,2.9650512,1.0180835,4.795821,5.9520154,2.8578963,4.2202315,3.8774621,1.6052054,-1.0176691,1.0487077,-2.2371643,3.8497322,3.786976,0.074670136,5.4760966,1.0149761,6.9227123,2.8468075,-12.072071,3.0291164,1.0876662,5.154895,1.6310685,11.257029,-13.662337,1.7772422,1.7957388,1.5866259,-1.5057151,6.299096,1.8502579,-2.4244297,10.594102,-15.585719,3.3894997,5.6173205,-3.7860868,3.9447513,0.36344442,-1.818562,-9.698529,8.010064,-7.6046185,1.0105873,5.4555616,-5.476184,5.6161385,-5.350578,-1.8033633,-7.531236,1.738996,8.980052,10.760596,2.265682,-17.068098,11.007473,8.001724,5.145068,0.3000584,3.073635,5.5363927,0.660549,5.0237007,4.1809473,-2.267896,-3.4816885,-0.1294805,-3.619946,8.133712,-0.18697646,8.066078,3.0439296,7.208564,0.09072785,8.083456,1.8546666,6.739578,0.48160186,0.9868591,13.646163,-1.7739923,5.2082767,5.833722,4.0680904,4.6528673,3.0008562,-10.40084,4.766651,8.186417,-2.054895,12.453631,3.1934977,8.427463,7.367475,-3.2374647,6.9777575,-2.1036148,-3.1126432,-0.94938046,4.840171,8.491374,9.689985,5.2153325,8.777357,8.119721,5.6264844,-0.38106003,3.8555503,7.633226,-0.0013076102,3.545835,16.507795,8.503123,-0.26417282,1.0977377,8.850291,5.2507505,7.257745,6.2796926,11.535932,0.0020859183,10.818986,-3.887958,12.968457,14.926905,5.2279353,7.3848495,21.508835,8.404017,10.736673,10.723077,13.133656,15.310581,15.341435,11.351104,13.130626,13.612629,15.704965,15.5989065,5.1761394,13.90042,22.042028,16.127302,17.634993,13.266639,2.4720757,14.038791,10.658048,12.628947,27.977764,11.97394,23.700562,9.709071,12.841876,9.462184,15.489057,13.388222,14.636958,19.147242,23.682434,15.032162,12.872257,11.797391,14.708611,21.833637,17.71477,18.274555,16.708628,20.288328,19.83664,18.957348,6.7287626,13.462592,12.083849,11.889568,18.313484,17.173683,13.752061,13.15428,6.3052444,18.370104,21.142763,18.826754,19.025175,20.62667,-4.8618116,-3.2085922,-2.1829326,3.5396376,0.7687252,-1.6616305,-0.82103944,-1.0395252,-0.760113,-1.6492387,-0.21351124,-5.087424,-4.2206645,-4.580908,-5.654243,-3.7888784,-2.7082314,-2.076215,-1.6588893,-8.945235,-3.6325707,-14.127031,-10.531129,-0.33816123,-4.9029603,-3.196853,-6.0782127,-5.4509735,-2.290687,-3.3226607,-22.24696,5.733717,-5.537939,-6.6743393,-10.820139,-0.021812167,-2.8688369,-2.2966535,-1.9162277,-4.5765476,-11.223482,-1.08538,8.031516,-0.5234677,-4.1639395,-0.82731277,2.5370433,-16.328598,-24.718225,5.3114944,-3.4890754,0.34940663,-12.314143,-5.431294,-13.0132265,-4.2922115,-4.8162656,-5.6357284,-9.028089,-16.588387,-1.2246401,5.275001,2.8966422,-2.6674776,-0.019899633,-0.007809829,0.032392845,0.0007064982,-0.03474986,-0.004528078,0.03307475,0.005776306,-4.142284,5.636043,-8.488611,-4.1861453,-4.046939,-7.0662055,-3.487349,8.476898,-1.1381673,4.632407,-5.3068647,-2.4951537,-1.0199538,-2.0676448,-4.5759864,1.4249017,-1.7793081,-5.0619955,1.727548,-3.9644744,-0.85942686,0.5579982,-7.5184846,1.1599787,4.776248,-5.8925595,-1.4748487,1.990584,-4.971298,-2.6623814,0.6938205,1.1990663,5.7545776,-13.160555,4.3343267,0.16699299,-7.150823,-4.125654,-10.406401,-0.7946292,-2.8128688,-6.1533866,-7.3752956,-1.1822232,-5.2031693,-1.7991632,-4.979639,-1.4243263,-0.024703266,-0.024223626,0.028941654,0.0058860225,0.0028414484,0.032671988,0.03236183,0.004542299,-1.8783635,0.9645144,6.4589896,-3.7723968,3.4931219,-2.2815888,-6.489258,10.127041,6.2312384,13.604305,-1.7081126,-6.543279,0.20895606,-5.8995733,-9.495656,-0.44030118,-4.6340027,-4.0668,-5.989967,-8.756584,-6.350257,-5.87381,4.3592057,-4.8039355,6.0974584,2.8696299,-3.0497205,1.0721625,-3.458357,0.06642539,-14.495741,-6.574448,-3.940567,-7.639562,2.3392136,6.7109103,-7.786182,-4.2592793,-11.510816,-2.4582753,1.578263,2.2900488,-4.3870606,-0.8202145,1.8204888,-11.566741,-3.1980884,-12.15435,3.2908337,-2.2972448,11.853897,-4.1706176,-4.2353992,-6.6935973,-3.5029922,-7.434677,8.7027855,-1.8883976,-0.39234,3.0187445,2.4212492,-2.0353823,-4.360387,12.105242,-21.516771,2.614369,0.664503,-4.3339443,1.0443288,-18.369158,2.9491599,-10.277005,0.21570942,4.6096773,8.608288,3.6795738,-11.630421,-5.064227,-15.350182,-1.6723568,-0.36479533,4.26498,-2.4873643,-9.689984,-9.338174,-8.979521,5.557695,-6.3094854,5.0842047,-0.55119234,0.9363467,-10.313241,1.9158795,3.3986478,-8.49577,3.9218807,-12.731243,4.4982014,-2.919566,4.185359,-2.4118142,-9.528858,-0.12116036,-12.354472,-6.1789613,-7.201015,3.2407844,1.7722286,-3.861224,0.36422184,-8.271857,-7.3234973,-20.723606,0.010067685,-6.7807374,-4.703963,-1.2328334,-0.75101787,-7.668994,-1.4020344,1.0766573,-1.5223168,-2.2335804,-4.651386,-1.7481662,-5.293671,8.502698,-13.185671,4.1988096,0.676836,-2.684924,5.81093,5.320154,5.2851048,-10.54078,9.4235115,-2.3772802,-6.092433,-4.1054564,-1.0272251,-4.7934494,-2.5173142,5.553313,0.14482601,-1.260426,-2.6991823,-6.5859623,-1.6119046,0.34172222,-8.170191,-7.4252586,-2.5421216,-3.080666,1.8561627,-1.2367797,-4.871317,-15.742648,-8.0057,-0.20667243,-3.4547582,3.0409667,2.530694,0.69138837,5.889909,7.0252185,4.945122,-27.397877,-7.9828496,-1.3767722,2.6148014,3.9048154,0.04640374,4.1511145,6.1833735,-0.70041,-5.4520226,-0.7500764,-7.8736506,1.3956206,3.4058871,-4.1249714,-0.67321026,-13.682643,-1.8540955,4.2266455,-1.8001212,3.9753044,-0.30082217,-2.2723835,1.5641989,-6.9127626,1.3102247,-7.3023486,-21.312729,-3.602383,-11.991612,-2.6891053,1.2649432,-3.1331768,-2.749464,2.9452062,-6.3855014,-4.5317554,0.030534059,-8.86418,-2.0279558,-8.0094385,-0.27015433,-12.463907,-2.6140337,-4.3585634,-8.48214,-6.340126,-4.301529,-8.94914,-7.764255,-5.9224358,-7.747497,-8.595891,-2.5418613,-8.828037,-7.0420647,-8.890436,-9.953074,-8.187221,-7.114662,-6.035596,-5.4518695,-4.489364,-6.1282015,-4.865286,-10.167536,-1.0612497,-4.2396917,0.24985021,-0.8308307,-8.549389,-3.9326868,-11.139357,-7.1882524,-7.278222,-4.646126,-6.220379,-4.5102882,-6.280112,-7.2747912,-11.837407,-20.560408,-0.22618102,0.06943726,-3.895131,-9.043525,-6.418413,1.2192022,7.963941,-9.0152445,-18.627867,5.421949,-13.931238,-10.7925205,-4.672152,2.5022588,-16.162706,-12.114229,-0.48879138,-9.045979,0.34342638,4.608773,-8.691651,-8.329822,1.721481,-2.086134,-9.810277,-8.224982,-1.9940088,-2.0834773,-11.0556135,-7.083974,-9.643602,-16.079395,-3.9013014,-2.9984143,-5.0938025,-6.717576,-8.533634,-11.146017,-12.814837,1.3786931,-10.306484,-3.4018643,-7.9424667,0.3219707,0.5163187,-1.3139536,-0.40255794,-8.363722,-1.6250209,-3.3051038,9.57319,-0.65878445,3.2715282,5.911286,-11.225353,-8.026516,-1.4937122,7.8661804,-4.777298,3.5509198,-2.123089,4.0634665,-7.143796,-1.0602703,-7.701182,-0.3096914,-0.627391,-7.3152256,-5.8914623,1.6339982,-6.3687606,-9.611998,0.016961847,-0.0017986903,0.03127661,-0.021857774,0.033683185,-0.016489234,-0.0072132926,-0.015006212,-1.0268916,-2.5115063,-1.2361052,-7.023297,-1.8183755,-2.029432,-0.7128576,0.57470405,-1.5727819,-1.9954551,-3.8304932,-3.201869,-1.999632,-1.138545,-0.29040682,0.6193092,-2.5931063,-2.4211822,-4.520647,-1.8375747,-3.3791595,-1.2235934,-0.7750679,0.18907543,-2.7883017,-2.2135382,-4.259922,-2.7341888,-0.6728023,0.6388397,1.4160148,1.2975386,-4.7637153,-8.080588,-2.7864532,-0.8023332,3.9789217,3.8357642,3.5762944,0.19176482,-0.90004,-4.3261294,-1.332358,-1.6378514,-0.04673444,-4.673726,-1.3280528,-1.5717846,0.030335857,0.009698005,0.033271447,-0.0059965993,0.018531373,0.011960571,-0.0017753412,0.011247818,-5.945724,-6.4308004,-5.466209,-3.3463116,-4.3157563,-2.357115,-5.778538,3.3665736,-3.8171957,-3.6251192,-5.5682635,-6.389702,-5.534442,-7.0241632,-5.79177,-1.4865175,-4.515571,-6.407345,-4.9387507,-6.655888,-6.917196,-6.5943666,-5.1372004,-5.6632648,-3.5130103,-8.684429,-6.008119,-9.033637,-3.358464,-8.665734,-5.786226,-8.603628,-8.040014,-5.543032,-9.172515,-5.9665294,-10.109011,-4.767022,-6.189414,-2.4496675,-3.8759198,-5.8841367,-6.856047,-6.0864058,-7.74445,-3.4433093,-2.7798095,-5.582457,-10.432459,-9.736999,-9.512816,-5.966477,-9.038669,-2.487024,-1.1923517,-1.5658315,-6.075986,-10.492103,-4.9699044,-6.9340024,-6.2617826,-4.602041,-1.9357636,-11.658945,-4.5800877,-3.2812328,-2.8334177,-3.8580523,-5.2861924,-5.4550166,-5.7267485,-4.805992,-4.0601087,-5.6177974,-4.32646,-3.6395614,-7.193187,-4.052965,-5.08988,-3.3960266,-4.5440955,-5.3248477,-4.746739,-6.413324,-4.540673,-4.4710846,-5.4052386,-5.9976096,-5.2072186,-5.8378797,-6.735166,-6.850697,-8.169128,-4.122511,-7.0184293,-5.0771227,-7.2945986,-8.810507,-7.583801,-8.144489,-8.467978,-4.9927363,-4.9247932,-3.86489,-5.999162,-8.973494,-6.308815,-6.2185044,-3.9256217,-4.8315816,-2.8793542,-6.212252,-3.5299697,-10.09641,-5.0741487,-1.8309838,-3.8635428,-6.2137537,-7.5393677,-2.8385854,-1.4063104,-11.068974,-1.3339645,-7.1807323,-3.0677361,-4.80345,-3.0536687,-6.4615664,-10.248591,-9.954328,-9.382027,-9.453629,-8.602097,-8.9180975,-9.662626,-6.8180666,-10.107819,-8.799445,-9.549996,-8.895198,-9.223396,-7.6140723,-9.312334,-5.012351,-8.945244,-6.653701,-7.81536,-5.4899964,-7.2933626,-6.1906867,-5.844332,-4.1020074,-7.5697885,-6.531755,-4.50363,-7.103863,-6.8640327,-5.298613,-3.3949332,0.4378327,-9.664701,-8.571778,-12.386208,-7.647468,-9.826233,-4.4555407,-6.3696365,-4.4280434,-9.8835745,-12.98541,-5.176807,-11.124568,-3.4304535,-2.5940502,-1.2991781,-3.074979,-12.927355,-6.9503617,-5.79745,-6.830775,-5.481182,-5.1256757,-6.3165684,-2.1492014,-8.137258,-7.9389877,-8.844224,-9.580912,-8.640291,-5.2429643,-6.156469,-2.709207,-15.872479,-14.83577,-11.049802,-13.496975,-13.930538,-17.138752,-15.319272,-12.752328,-12.721949,-15.255797,-14.007878,-13.689676,-15.337421,-13.173153,-12.444043,-12.768192,-16.375416,-13.106993,-13.053947,-14.734747,-12.142285,-14.230933,-14.228334,-12.138968,-16.7398,-14.640206,-17.925098,-16.592844,-14.667177,-11.829759,-13.563271,-10.796293,-14.801418,-16.895262,-15.474053,-17.67539,-14.937689,-13.009529,-16.725615,-13.014376,-17.957071,-19.115917,-14.524392,-15.732789,-12.991169,-9.540682,-8.525682,-11.106126,-21.309462,-15.995877,-14.120945,-18.3348,-15.3597555,-12.738289,-11.693752,-14.47864,-15.624393,-10.972002,-13.59734,-11.891408,-13.999655,-12.0486145,-9.075859,-16.178913,3.4252644,3.792698,1.2721907,6.039358,4.9758935,5.917871,6.0607004,7.292555,2.7096703,6.31506,6.2008452,5.0441074,4.8502483,6.5547667,7.175371,6.9585805,6.3559904,7.462643,6.277919,5.1630597,6.228536,6.9598804,8.156615,8.718876,5.1608434,5.39347,7.457617,4.4823008,5.359703,5.3158183,4.356924,7.0851455,0.30640772,3.6494298,6.9198737,5.9311004,5.1653447,6.0330997,9.066067,3.1936576,2.663404,9.42133,7.6378155,6.0615144,2.9814413,6.936463,9.24687,3.5422585,4.5732946,3.8907917,5.7142315,3.976471,8.869433,5.163881,5.3947573,7.5248885,3.7725306,6.8208942,5.675725,3.197645,0.16224983,4.510349,3.8630793,5.9079857,-0.029415233,0.0041330107,-0.030652247,0.010563353,0.0048343255,0.011270208,-0.029262776,0.018740233,8.004404,13.197323,8.910989,10.645506,3.9429002,10.13531,4.0394406,7.769791,2.2143178,-0.3219003,4.0433416,9.351481,-0.4245432,1.7971236,8.172307,4.7487197,0.2892123,0.9756764,1.8337344,4.4298882,-0.27998275,2.3802743,1.4909176,2.1650765,2.2131422,-0.7637086,2.4703598,-0.5680327,-0.01674294,1.5323063,1.3317562,1.8899329,0.18572597,-1.1185979,0.6709577,-0.12743379,-1.1299118,1.094257,1.5451317,1.5093769,2.531482,-4.427526,1.3107951,-0.7312261,2.3507733,1.6025901,1.7272713,1.849994,-0.019742483,-0.006448176,-0.015761288,-0.031556025,0.025898809,-0.009432085,-0.008407462,0.02599759,-6.1633463,-1.520258,0.9408541,8.881427,5.874275,7.039049,0.86532104,9.248021,7.8660393,3.0519228,10.3404045,7.5301776,9.807851,11.064227,6.5230384,7.3603463,7.1106057,4.4046307,9.141511,6.9498568,12.314412,6.0152802,10.385482,6.835218,7.674291,2.7192032,8.795562,6.2701178,6.7256093,4.085695,5.092902,2.7792168,-1.4838272,6.976087,1.7894999,5.869551,3.3108,6.031767,2.6399834,2.8014364,3.5719416,5.4230056,4.1940975,3.198524,4.4980936,4.893472,1.1797403,2.427675,6.237208,-5.0062575,4.74329,2.05554,2.6005294,5.749341,4.349874,5.927589,0.30522984,2.510248,3.6308103,-0.15389568,4.7818007,2.3077643,4.22972,0.2793297,5.6945896,9.396074,5.2610917,4.8719463,7.5180273,4.773997,8.758583,6.9724717,2.1383846,9.930284,8.594466,5.52597,6.9418244,6.33781,4.3829055,5.327611,6.223246,5.4724994,6.6530695,6.347511,6.9742227,8.311098,9.513408,3.4674163,4.798949,8.153748,5.839581,5.7015276,7.9639916,5.1121907,8.801315,6.900961,4.3258743,5.6009564,7.963764,3.6588542,9.067958,5.6155596,7.7257013,6.394284,4.810901,6.2199125,8.601004,5.072802,4.4700136,6.667439,5.4439,7.03158,4.9211216,2.7192502,4.1009345,4.33477,5.16879,2.9614458,4.2511687,-0.07509136,10.47639,6.28119,5.743775,5.0804467,4.3237367,4.2158065,3.627634,4.8941555,7.2228146,10.136375,9.078123,11.238494,10.899921,10.223071,12.129425,8.557706,7.1663136,11.405426,10.450638,11.69035,11.190595,9.599181,9.207816,10.527956,7.6428127,10.445701,9.707343,6.092992,11.786955,7.091086,5.975659,5.0867033,8.319868,12.285575,9.433768,7.349101,7.5944924,4.665307,7.8844733,10.654901,6.5520387,7.6599975,8.244521,9.896632,6.3982525,6.279532,4.849038,4.9196014,5.9818597,9.738182,6.871605,7.4533916,6.134707,4.698752,6.5021157,3.1182392,11.306274,12.010118,7.9730625,6.718693,6.8237348,6.075811,3.4320095,7.662681,5.8939486,10.026278,6.83078,7.375974,6.146092,5.6846533,6.4318967,5.53493,17.061275,14.729294,19.312225,19.334166,22.556557,20.196535,22.786074,18.390781,21.07125,13.245227,14.356613,16.641865,20.0627,19.740034,12.028319,13.016319,14.076062,13.896111,17.09359,16.457989,19.733538,19.98313,20.665611,15.08805,17.512863,14.296213,14.647522,17.200827,16.504358,14.740351,13.962946,13.732892,15.798575,17.950087,16.317747,16.942923,16.972189,14.479525,13.538983,14.076237,16.169033,15.747127,16.92197,14.254971,13.448301,15.340308,14.430947,10.783605,19.315083,12.374965,15.018819,13.112195,14.489296,13.373533,13.544922,7.5101852,15.085606,16.375471,13.71008,12.592172,12.671947,13.262063,18.007994,14.266182,6.0613284,6.1309013,1.2730924,5.214111,5.0579643,0.76725084,3.3502798,5.8883314,6.0619063,6.8986726,9.018822,7.593089,7.3766203,2.2185338,2.00738,1.1974088,2.6541915,7.4343157,9.035324,9.224178,9.057985,9.214405,0.9703292,5.5822034,1.5780418,2.7322667,6.968915,4.8328238,7.029978,4.6890407,1.2118449,1.5692726,5.3687983,4.464199,5.0129023,3.9579473,4.7893763,7.6531906,5.159336,3.9939282,6.8498917,4.597499,9.086252,4.3877115,4.8278184,8.662422,5.268684,6.935254,8.8258295,5.0901313,8.65808,5.592113,8.05012,8.698295,5.9638987,7.1875443,6.568336,6.0999837,6.3754725,7.882173,5.199263,6.5458684,5.0064473,5.292276,-0.013818701,-0.020925201,0.019521587,-0.002145403,-0.0275053,0.019134173,0.0074323122,0.03005648,-0.38915306,0.94846565,0.5104653,-10.170123,-0.25021067,1.7296833,2.3423407,2.5598977,0.673696,1.3704212,1.0574281,-7.848091,1.877399,1.5351996,0.9660654,2.6593068,-0.61947775,0.2866529,1.281623,-0.55844814,0.1402052,1.5298578,0.69381833,0.55904555,0.016339116,0.56562334,0.30501646,4.643298,1.1700852,2.55773,-0.9531337,0.93255115,1.0270001,0.7404984,1.9231656,35.133564,0.39667097,0.9370547,5.9028378,2.1024768,6.9570594,4.1056633,3.8825872,8.53171,7.3990436,6.2283583,-1.3537045,2.2246635,0.0058951206,0.01275098,0.032453325,0.030780382,0.0070969816,0.034922816,-0.031181658,0.02111365,2.204856,2.7001536,3.102764,4.6860847,3.6971986,6.9169188,2.0347946,5.118392,2.9406633,3.5424726,4.2140303,7.412339,4.7238283,6.742074,3.304163,3.2790496,6.233173,4.861437,5.083463,4.3014746,6.467738,4.4639635,7.520127,1.3129063,4.6697106,3.395142,5.716195,2.4581616,5.707707,7.2190475,4.358529,6.311561,8.939021,3.937588,8.83003,8.241822,7.3432283,6.314485,6.2406154,5.3663564,6.7562313,5.2898555,4.8829293,8.308058,1.7238336,5.20288,2.2919116,3.3616338,2.1929846,5.2439313,0.9014863,4.9683986,7.057334,9.515814,7.839929,0.1673105,-2.0323913,8.377907,0.021129537,11.521575,2.2120914,3.9516246,2.37115,6.4993434,5.986052,5.2365046,4.2871113,8.136379,5.4390764,4.3371463,5.5515213,6.375145,7.6052814,5.6086674,5.6607985,3.7143989,6.0506954,6.821182,5.9377146,3.9707694,5.892292,7.4312606,5.1788554,6.601179,5.8178654,6.9791045,6.5804477,6.3907747,5.243629,8.382866,7.4075494,6.8419194,6.765917,6.7776337,5.543295,5.4151945,2.5740418,5.7834435,3.104093,6.7332153,7.8631897,7.2961316,3.659829,8.663943,2.6714945,0.24929264,8.7455225,6.365602,8.645189,9.924468,5.5068684,6.3797398,4.4520674,5.5775447,5.2322774,5.162019,5.27496,9.952383,5.0555015,4.157252,10.787575,7.4692984,5.8854065,6.7583485,1.8239646,5.626453,7.7235665,4.995064,5.558095,5.3469925,5.649453,6.956562,6.2261195,5.425487,7.278898,4.5033264,6.1728177,6.333348,6.7842603,7.2500653,5.8706217,6.208014,8.178889,4.69534,7.176021,7.93633,4.321487,6.2785397,6.548227,5.801004,5.244568,5.973447,6.9424205,10.933833,7.947552,9.772133,6.1517034,6.3022585,6.4825654,5.446239,5.181509,6.1875362,6.5245175,8.114281,7.4186764,6.5690055,9.652237,6.0554705,8.415749,7.1190653,7.3054957,6.1818104,7.4115863,10.394545,8.709081,11.073119,8.805484,6.5744667,8.033274,5.783294,8.854387,8.6570835,7.9887037,5.5590024,7.8211613,6.83882,6.883651,6.1810155,5.8458714,7.786614,7.1398253,9.7758,12.773951,11.504352,13.609213,12.193476,11.173613,11.795207,9.883166,12.310307,14.497939,11.774908,13.239171,13.448895,13.68084,13.867672,16.530216,12.718096,13.611058,13.033288,13.025619,14.2337675,15.43011,12.684107,12.939025,12.618349,15.033946,14.905798,13.767628,14.662731,14.76731,14.905281,12.898857,14.802753,13.617214,13.01536,14.9316635,18.500498,18.197357,18.378235,11.863457,14.455396,14.889886,12.542424,15.5939045,13.581429,13.202308,15.096217,16.236975,15.42831,18.447493,18.414944,14.0924,13.014544,19.184607,13.531493,18.414173,12.520623,15.133541,18.4844,21.407877,18.743223,13.035619,16.37976,19.01817,11.684274,5.190726,4.5300326,4.8473396,4.6073685,4.563089,4.328877,5.0900297,5.41305,4.635723,4.4099736,4.449898,4.898627,4.7801156,7.25336,4.5806184,5.042655,-0.78440535,4.781389,7.254948,6.2062798,7.809919,5.983348,5.1865354,3.670942,5.3369007,7.7522254,5.1790743,5.924934,6.1816344,10.272496,4.5894227,4.7639294,3.197024,5.3450427,5.9335437,4.0166364,6.8667006,5.0049353,1.8796726,3.3896747,3.0219336,-0.19688445,8.172418,6.540613,8.267661,5.4330845,5.8466306,-2.1231995,4.749696,4.25719,5.692359,4.947212,9.576023,6.680665,0.22691703,3.6121006,3.6308649,4.3069777,1.1971964,8.850767,2.9010177,5.310823,3.3355086,1.4514791,0.021260666,0.029013779,-0.028251076,0.011580172,0.033594057,0.030313896,-0.013502133,-0.032739196,-1.8975785,3.3531706,2.094465,-18.012114,-1.5566615,-2.3864293,0.70311433,2.3704977,-0.86687726,1.7620696,0.8794862,-19.699747,2.7661853,0.11380637,1.1966282,-1.9306226,-1.0361621,1.2480062,2.509709,-21.381714,1.1110586,1.4295585,-0.01362438,-0.032533295,0.23513736,-1.9680243,2.1979842,-24.934072,2.4175117,-0.8780855,-0.0694275,0.40204522,1.4433308,0.088967994,1.5263245,-23.503761,1.3461028,1.343879,-0.91048056,0.23087525,1.208813,0.5385272,0.29965323,-54.083096,0.9803659,-0.22447132,-0.8063502,-0.27659833,0.019974347,0.024323147,0.033467714,-0.011428567,0.03136395,0.00767109,0.032166366,-0.009791978,2.153384,-3.6334424,-1.6602917,-1.634831,2.284162,-2.2084806,-1.0934283,-11.539337,-5.4924545,-1.2626249,-3.7207725,-2.782451,-2.2126117,-2.587359,-5.014118,-0.768988,-5.5290756,-4.527674,-3.7354515,-4.949449,-1.9036326,-5.1756296,-2.5405393,-3.9116185,-4.092209,-5.2819743,-4.4528823,-6.483667,-3.7006135,-2.9315042,-5.8810053,-4.5884504,-4.671066,-3.6970515,-6.3246465,-5.101582,-4.790725,-3.5766172,-4.0156918,-6.2030835,-6.0317616,-4.631882,-5.2534194,-3.32788,-4.387997,-3.5736847,-7.2593985,-3.585714,-0.36079007,-8.242785,-3.7151284,-3.7257855,-5.1295185,-3.0657122,-4.741798,-4.1201897,-2.3928936,-3.0170524,-2.1667805,-1.276804,-3.4903753,-3.1755557,-4.1735315,-4.570347,-4.769277,-5.2046247,-6.5482435,-4.9394746,-4.9707017,-2.165221,-8.120955,-6.1548414,-3.936311,-8.015065,-1.9617834,-4.4974227,-3.5787528,-4.027558,-6.777027,-1.9336063,-2.15314,-3.228097,-5.141564,-5.3478074,-2.8437526,-4.8707786,-4.2281613,-0.7597599,-4.533554,-4.824823,-5.0713067,-5.843742,-4.63103,-3.8268685,-0.06921076,-5.064096,-4.034091,-5.0415306,-6.1741242,-3.8774137,-4.649743,-4.223894,-3.6076865,-3.0357695,-5.627912,-4.180108,-4.8728976,-6.079259,-4.9671474,-4.3121243,-2.6808372,-4.351645,-7.5985217,-6.446271,-6.536878,-2.0060747,-4.56184,-5.56096,-4.725856,-6.763175,-7.182849,-4.979926,-3.6345625,-5.5710287,-2.0080473,-7.762279,-4.293037,-3.609388,-7.34121,-4.798034,-6.5291085,-15.974501,-5.482661,-4.5474687,-4.9788723,-4.2016373,-5.422301,-3.5893211,-3.1868012,-15.911566,-3.1626956,-5.837839,-6.131704,-6.23438,-3.955796,-4.66752,-6.6561127,-14.524839,-3.374136,-6.4953046,-4.1090693,-2.2613153,-3.7502275,-5.077448,-5.956022,-17.515427,-5.2296305,-1.1172463,-6.9767294,-4.9831443,-6.5002403,-4.197973,-7.886565,-17.674713,-5.996018,-6.5694747,-5.6403236,-7.1719937,-6.7608285,-4.290619,-6.0980487,-18.537037,-2.8260806,-4.769585,-5.9067254,-6.17359,-7.4944744,-6.216324,-5.6590033,-19.172644,-5.075665,-4.686789,-4.95362,-4.83889,-6.0838175,-5.8444324,-7.1971903,-20.461317,-6.3760543,-6.731522,-7.7674747,-7.284755,-12.052448,-12.578751,-12.194821,-13.093228,-12.591133,-12.259836,-11.331138,-12.567737,-12.538517,-10.6610365,-13.743835,-14.3762455,-13.102611,-11.672119,-14.8085165,-15.121489,-14.620605,-13.860836,-11.715905,-14.313218,-10.285156,-13.20958,-15.662245,-8.633862,-12.687036,-13.587468,-12.098283,-14.837101,-12.342914,-11.743829,-11.7689,-13.504005,-14.980736,-15.312173,-14.533023,-13.769972,-12.083116,-12.120351,-12.907999,-12.918126,-14.107816,-15.488542,-14.556124,-15.00727,-13.4421,-10.333614,-13.401177,-12.468723,-13.454035,-15.202087,-14.487769,-14.752715,-13.092296,-12.198988,-14.808944,-11.075025,-12.337851,-14.560767,-11.9751005,-15.055251,-14.336159,-13.1332855,-12.9142275,-10.144941,5.4305468,6.4526362,4.2031417,6.5326624,6.6494575,4.4151673,6.2986774,3.618435,0.038358822,7.1932745,6.232518,0.7564306,9.243867,7.143437,7.1935744,6.0833616,6.3987203,4.9669724,4.7640877,5.0534153,6.9995866,6.924386,8.343784,4.234525,7.4869823,7.02653,5.946685,4.8455825,6.651137,5.728981,4.082586,9.695072,4.8149877,5.536016,4.092351,4.952714,8.4843025,6.718031,5.7542653,5.496702,6.717013,3.5813131,6.110256,2.0075595,5.490114,6.2922163,5.598418,4.6461987,2.759194,3.875267,4.51045,5.8127847,5.613358,7.0865984,4.104082,4.090673,5.4819703,5.0396023,3.74602,5.7242436,6.3457274,5.1034584,4.669914,3.983475,-0.005962152,0.028476143,-0.035899375,0.005239252,-0.020211572,0.0244559,0.024109242,-0.01867927,-0.5248827,2.303784,2.9792874,-19.005295,-3.144163,4.554132,-2.0214283,3.7064188,-2.8453085,2.4318302,-6.605169,-1.8094237,-2.623766,-1.7714685,-4.91733,2.0570712,-2.5141764,-0.26656294,-2.9291053,2.126863,1.60395,-0.29562312,4.5781813,-5.6908307,6.478601,3.3767242,5.2176304,10.395314,12.719789,-0.80180645,-3.3302572,3.4019787,5.5528755,2.41518,-17.376333,-3.323576,6.309053,4.858275,-1.3043516,7.3812056,-6.540498,2.6090577,5.023961,0.50657266,9.24204,13.428709,2.6179612,12.787666,0.022151943,-0.023650546,0.008143607,0.03485527,0.0073846206,-0.0039540473,0.029490257,0.014957655,11.871324,5.943308,1.5607266,1.0324227,3.6864846,8.699244,5.6316833,1.7623501,7.5954313,2.3034704,3.6251922,-2.3248422,3.909857,10.73894,2.6987796,-2.1397257,9.600356,2.4798965,0.8494827,3.0615396,1.114904,-2.6059237,-8.479399,-1.8271744,8.852775,-0.9277689,4.225404,11.505145,4.1162014,4.8346353,8.848335,0.7761869,7.685777,7.0360637,6.8441205,1.943027,1.6888411,8.177488,10.197837,4.754208,3.0366638,9.220858,6.9399323,9.881203,3.6747854,8.213803,0.2622542,14.164033,12.614056,7.223807,8.568141,10.912351,3.922258,6.8704524,11.437408,1.5891399,-2.6255672,3.7700326,2.1708453,17.712234,7.3304095,19.380165,3.3398368,-1.6991038,4.96376,4.60043,14.580811,2.8607495,8.70057,8.721863,8.756527,7.6204414,-2.7367024,-1.9114553,7.7662754,6.284006,8.629588,0.5256808,3.7928922,8.582593,9.093474,0.21960288,2.4598923,7.182474,-2.2566411,-0.3292283,-1.412671,1.1860975,-1.458023,13.304063,0.012223027,8.114058,11.308114,1.515402,2.172886,2.742273,4.9111767,5.6579576,6.416106,8.45066,5.5332,7.038651,3.2682066,5.1342,10.71872,4.1996155,-0.9931836,-4.677845,6.436338,-7.926903,-4.791851,4.1656914,-1.0119594,5.7512293,2.2729313,3.3000355,9.575003,4.135647,6.9679947,7.631083,-14.134465,3.6756928,5.8919396,1.8818493,7.61038,6.1675534,4.4620967,-16.76559,1.110498,-0.5559954,10.615111,1.4202327,-1.6643542,5.054058,3.1011682,-0.27566305,6.478309,3.6074347,10.763268,-0.49464488,1.0553625,7.218445,3.7645879,5.719213,4.1977463,6.329908,3.5551524,4.3410473,2.0619755,8.71107,9.732206,13.496095,-0.97434294,2.1937335,4.005459,4.753142,-8.771148,0.43826136,0.39328077,-6.2631707,-1.5492212,1.3375738,6.7946944,9.909813,-16.791893,-1.5948318,-3.295668,-13.253788,6.0740223,12.27687,12.517635,1.33598,3.6870816,4.029812,3.784062,4.279798,3.8130405,4.084501,10.623499,11.649018,2.9241288,7.344814,8.536821,-1.4644337,5.3355317,-2.87754,11.196295,12.393715,10.196268,-3.6012468,3.2825766,7.8384304,8.022148,12.317101,9.830011,13.826493,15.595363,-9.881934,-7.627623,-18.476711,4.711532,1.8632741,5.4180574,7.1105795,14.408642,-3.0428436,8.527852,17.29238,10.520424,13.644515,3.1200202,13.683504,8.095266,15.47746,5.4993515,8.108844,8.791597,18.12395,0.5505348,15.925095,11.434504,11.493461,9.460585,8.26476,10.368956,16.430843,9.560311,16.962187,18.363955,16.034662,15.597554,13.919167,6.6464677,3.2806826,12.343653,6.7765336,13.873798,15.452199,17.911718,14.921619,3.4345717,8.259575,6.436598,5.6785192,2.075068,20.045454,18.575165,15.502754,11.268674,5.3991046,18.829391,19.621845,14.736806,18.37513,20.73349,24.284649,-12.334739,-1.8119811,-5.921776,-6.65432,1.3037987,-1.2067695,-1.114456,-1.5519979,-4.368447,-2.6070113,-7.023524,-1.5195037,1.6394984,-0.48023054,-4.962903,-1.387969,-5.3721633,-1.8587445,-5.362265,-1.4889678,-3.1385038,-8.014493,-3.477039,-6.393604,-2.1440616,1.5589602,3.7258973,3.7465467,2.628447,-7.3795133,-0.44374186,-10.972703,-5.959359,-5.4107356,4.205246,2.924392,1.2087264,-1.1207783,-8.134305,-2.6551547,-7.1687326,5.7303753,2.4320953,1.4951315,5.0727763,6.6293807,-8.597547,-4.0809083,-9.871097,-0.46722317,-24.698595,-12.341584,0.2911324,-5.547721,4.1467047,-10.863751,-0.98235035,-6.98827,6.6665463,-0.7907287,1.2806993,-4.846846,-8.499247,-10.121587,-0.00044902627,0.022636745,0.029444704,0.017456817,0.002552476,-0.028353652,0.029173872,-0.01693694,-7.8449497,3.8767338,9.440141,-8.155307,7.3761625,-1.85812,-1.8305157,0.92537785,-3.723227,10.202557,-19.514807,0.27729803,-15.36678,4.988803,-9.353886,1.7829067,-1.7067149,3.4373043,-7.6097946,-3.6268203,-0.56593186,-4.568854,-7.5712028,-2.0525897,0.62196314,3.6609838,0.6182554,0.2057841,4.98821,-0.30822796,0.8506371,0.50080806,-3.959958,-2.0812383,-8.079539,-8.742021,-2.1616356,1.4645133,-0.67745304,-0.9613007,-0.9775729,0.6236975,-2.143515,4.078003,-3.631344,-0.045733,-2.4832342,-0.12211003,0.002134748,0.021994926,-0.015693314,0.00018668921,-0.030028434,-0.027112877,-0.0286444,0.010257153,-3.5554206,6.340193,-1.171616,-3.1101341,-1.6244311,-4.024823,-1.0107603,-17.744375,-2.007661,2.788304,-10.463417,4.502565,-4.651584,2.3028235,1.9607161,0.9572825,5.900447,1.1179981,-3.5944757,-18.73864,0.38046792,-5.007903,-4.709492,-30.755945,-4.676747,1.8137764,-0.010842742,3.33042,-2.6182227,5.3052,0.36745512,-1.5120014,-1.3161991,-6.2512865,-3.3197854,0.5415096,-3.0683923,2.2011077,-5.0004244,-4.1581817,-5.8801317,-0.8824736,-2.2586596,-20.008148,-3.530201,-9.383223,-5.0462728,-7.90555,-4.625667,-6.4088798,-3.3978562,-1.3753035,-1.5494668,-8.885287,8.231853,-5.385984,-5.453662,-6.1504674,1.6884744,-1.2242434,10.715743,-5.317469,-0.55388445,4.208963,5.080084,5.1188827,2.1820407,-9.218272,-0.03425113,-14.515609,-4.636074,-5.4277415,0.5621636,3.1101153,-6.8916945,-1.6926779,-11.766928,-0.7104094,-1.3518685,-1.9158343,0.6018174,-0.55260617,-7.143385,-6.4950643,-5.274942,-7.213578,2.3084633,-2.701958,-7.0211363,-2.282552,-9.13553,1.4753737,-3.2188077,0.81831574,-11.259878,-11.859957,-0.70348835,-10.06316,-1.4065484,-1.5986428,2.8663437,-3.0690722,-4.0035663,-0.28909925,-9.698641,2.05609,-9.774895,-1.7355865,0.86635584,-1.1599579,0.42345557,3.5674937,6.9736104,-0.9422997,-9.449495,-6.250729,-2.777828,3.7323437,2.8474588,-11.626354,-0.76893437,-4.463556,-2.340139,-5.0758595,-0.80979913,-7.6252837,-1.6427329,10.152861,-4.5737576,-2.162259,-10.678847,-9.915763,-8.940652,-9.324125,-6.06979,-25.70657,-3.3184395,1.6591127,-9.910905,-3.2890034,-22.114595,-6.2360544,-3.5462244,-5.089999,-3.5429165,-1.4786303,-5.5409765,-11.003342,-11.755216,-9.727483,-7.8054953,-12.607521,-3.967957,-3.978153,-7.6441727,-4.989953,-7.649233,0.7611097,-7.0887833,-5.35222,-3.3484006,-10.872054,-8.52176,-5.8792,-7.2630434,-8.535733,-3.0071082,-12.713688,2.075584,-1.1248493,-6.4421096,-4.5558815,-1.2827884,-3.8062615,-1.455405,-10.21398,-5.010097,-1.210301,-5.374618,-5.3722124,-2.7883644,-2.8103163,-4.016805,-1.8275651,-4.0915523,-2.6330519,-8.382378,-2.1562884,2.7545695,-1.7103657,0.9040009,-3.445291,-19.50229,-9.6283455,-23.685862,-6.199918,-13.40412,-14.633917,-14.169838,-23.550146,-18.967455,-9.240556,-12.102074,-17.36966,-14.321691,-21.436255,-12.113417,-18.324703,-10.745982,-5.676282,-21.08813,-19.346912,-23.053661,-14.16132,-18.819597,-12.955649,-8.330804,-13.233244,-18.334953,-18.102453,-16.526634,-23.177372,-27.089102,-8.038091,-9.217767,-7.9549317,-16.632658,-10.5578165,-11.860848,-13.008444,-10.2488985,-13.516342,-11.926204,-12.8729725,-17.38386,-13.932825,-5.0260706,-15.26501,-5.33496,-20.534285,-14.384542,-12.716649,-12.030413,-11.509785,-15.667519,-7.5153522,-8.316363,-6.149115,-2.156808,-6.461311,-14.449413,-16.541506,-3.1366858,2.8505592,-1.0799111,-10.287803,-0.83364165,-8.870659,-13.371554,-6.9065943,2.6624718,-6.0589333,5.361654,-18.501665,-12.745756,6.2227373,1.3509543,3.2796772,-5.5063095,-0.33279476,-0.600696,0.74139744,-1.5128999,1.8388268,-3.9813588,-3.6122062,-3.067933,-5.3854356,-12.010853,0.16275123,2.187175,-14.995066,-1.5129528,-7.2839603,-6.704162,-2.2114139,-2.047881,-2.2181203,-6.90479,-12.568211,-11.420496,-7.6705966,-9.437794,-7.5525513,-7.792996,-2.297766,2.835707,-4.808919,-8.262236,-6.7732606,-2.909023,-2.0071228,-0.6406561,0.72047263,-3.016695,1.4794679,1.9506884,-0.36456645,1.6759807,6.1416335,0.48005024,0.2342389,-4.3427577,-1.4467684,0.43131295,-1.7179095,-3.2538974,-0.6245023,-3.3014,-3.920101,-0.021591406,-0.014036361,-0.023877284,-0.014259115,0.0099949185,-0.02226893,0.005866566,0.018696817,-2.279102,-1.7917325,-4.8918376,3.2828374,-3.2839687,-2.8392785,-1.7065687,-4.239835,-1.7963105,-2.8901405,-3.7189598,-2.74919,-2.765023,-1.5837764,-2.8840048,-3.5933795,-1.7453071,-2.287207,-2.4716787,-3.0803175,-0.90259796,-1.8015033,-0.2387223,-3.3597085,-1.618686,-4.477425,-0.316514,-2.2469354,-0.68275946,-0.36621895,-0.6177161,-2.9923818,-1.4246639,-3.0229971,0.9667351,0.0033912088,1.970873,3.0643313,2.6893044,1.5259628,-3.3595128,-0.8622778,0.23499112,-0.043946672,5.2448688,2.0069737,-1.2995437,-6.8974013,0.030950679,-0.030575197,-0.030673135,-0.020265324,0.02465348,0.015628068,-0.0030413694,0.0006015221,-4.761393,-6.40085,-3.7376215,-6.101584,-7.603967,-7.7966704,-5.4541078,-5.1529737,-4.914525,-4.913231,-6.465665,-6.4766946,-5.2980785,-5.322374,-8.685711,-7.2028155,-3.0899804,-5.8978734,-5.6846776,-6.118047,-4.2850585,-5.511193,-5.8834934,-1.5870688,-5.190545,-4.0826797,-5.7253656,-5.26632,-5.5027432,-4.025791,-1.1138462,-5.420354,-5.460642,-5.6008134,-5.080373,-6.027171,-4.3381023,-2.7715337,-3.9396815,-2.2018464,-7.2307143,-3.9244244,-5.5116615,-3.4447684,-1.755061,-1.0200114,0.32075617,-2.3903463,-6.2340345,-5.9993944,-2.4661863,-4.9495215,3.2363656,0.15737663,-1.2097033,-1.6918725,-0.65261906,-4.3412714,-4.0905795,-2.8378475,0.31361118,-5.2917924,-3.387141,-3.6634521,-6.4670105,-2.2061908,-5.2608614,-5.8759356,-8.235036,-5.713668,-9.0064,-6.5649114,-6.0301795,-5.8538847,-4.966659,-7.846058,-6.394185,-7.3521776,-4.438218,-11.392707,-4.3583484,-4.819751,-7.1309776,-5.559571,-6.566305,-5.616473,-6.572648,-3.702331,-8.627729,-7.2418227,-4.781933,-6.616392,-5.6908455,-6.230456,-5.2109137,-4.745539,-6.887094,-6.4523463,-5.011883,-3.7900336,-6.117869,-2.781951,-5.3581085,-2.3798323,-3.9460227,-4.518366,-4.8663745,-2.114358,-3.5499883,-2.0489264,-1.9739406,-3.6882546,-8.058722,-5.7499914,-3.5757318,-1.7475783,-3.0120971,-2.824035,-3.7557857,-3.7051854,-4.357665,-6.3357153,-2.6123593,-2.3658369,-0.5498352,-3.7742698,0.46709773,-5.3134336,-10.965507,-10.176866,-12.323755,-12.71646,-11.851147,-12.188846,-11.9017935,-13.184632,-10.419086,-10.979483,-11.553739,-12.988032,-11.695907,-12.378439,-10.374145,-13.121079,-11.867208,-11.477279,-12.394693,-11.534273,-12.958091,-11.638164,-10.755806,-11.692749,-10.367834,-12.249063,-12.213694,-11.498573,-12.126277,-11.239345,-8.380827,-10.819275,-10.727358,-12.485754,-10.594655,-9.7469225,-10.538087,-5.9885764,-5.6710196,-6.844056,-7.7106977,-9.572795,-7.8833003,-9.285612,-7.3841205,-5.8310676,-1.9066335,-8.851688,-6.7868104,-9.728452,-7.408376,-5.5875998,-3.9042425,-4.9010825,-2.0554402,-5.6014094,-6.002012,-7.4932485,-7.8691263,-6.922358,-8.498581,-9.626562,-3.073214,-10.337982,-18.079666,-16.854208,-17.413908,-16.84829,-17.672993,-18.483261,-18.06772,-21.99879,-14.917649,-17.043602,-17.089504,-17.040518,-16.682829,-17.035042,-16.10178,-16.960773,-15.077214,-17.70211,-19.051758,-17.062754,-17.1669,-16.973686,-17.26988,-15.551461,-17.512373,-17.176144,-18.059835,-17.35693,-18.431343,-18.43409,-18.077236,-16.136047,-16.274612,-16.878267,-18.077374,-18.452394,-17.305058,-15.949417,-14.954764,-12.902333,-18.058695,-18.509192,-17.24341,-18.266191,-13.070394,-17.770065,-10.955776,-11.994009,-18.047213,-15.870355,-16.961872,-15.673815,-14.000519,-10.565766,-14.757044,-12.515581,-16.999594,-17.219978,-17.497282,-17.403477,-13.97226,-9.849456,-10.052988,-14.082135,8.105838,10.5441,9.628743,6.056665,11.138882,6.9341607,9.680218,9.726961,8.297634,9.337131,8.388034,7.6336865,6.3399925,8.024373,9.802725,10.212325,5.48489,8.748858,7.8300076,4.9623065,5.3009443,7.7665954,7.8612065,8.798895,5.2191763,2.1296632,5.1988797,2.9862285,4.56823,4.492452,5.514448,5.6446276,2.9771597,5.6988378,5.439662,5.922844,4.2064123,5.42776,4.482053,3.6977248,1.9575906,5.1690583,1.2348632,5.150634,4.3258204,4.77726,2.8281035,4.8350573,1.0482999,4.6217976,2.315931,0.7018863,2.0447898,2.3660772,-4.844766,-0.11026987,0.6497465,5.2640376,7.9531984,-0.5057152,-0.51102394,5.457648,7.5398602,1.6279838,-0.017468074,0.034358364,0.024766032,-0.008105017,0.026748145,-0.010128139,-0.031040734,-0.027221859,4.902158,-1.6872538,-4.7377925,1.4157327,-7.110458,2.221582,-6.6602116,7.70706,1.5054927,3.2179859,3.3180645,-2.8534923,-3.908491,-2.8586175,2.8255577,7.0769415,2.4481559,0.6622971,0.8482293,-0.36154154,-0.017898547,-1.7223985,1.5970485,1.9357295,2.0447533,1.458971,2.3628364,1.5334255,1.2404624,0.6247894,2.4443982,4.37519,2.025411,1.951586,2.8432615,1.5824124,2.4943104,2.6715338,3.3656297,3.831618,2.4783983,2.7982001,3.8167481,2.587525,4.4590497,3.565012,4.1041865,3.8915148,0.024422545,0.028465115,-0.01901298,-0.002963704,0.01739833,-0.019540863,0.009851478,0.03249415,5.8009357,1.5088807,5.9925594,0.5988258,0.58106804,7.589413,8.198367,7.152698,-8.706862,4.7691145,3.7192206,8.179531,5.756455,0.5600734,4.782427,0.91124433,5.9693704,3.1164355,4.9662075,-2.0649185,-1.8402705,-1.0272763,-2.7652895,1.750229,1.1366493,5.293736,0.90877724,4.3977437,2.5375073,2.1083636,2.3776572,0.2251013,5.5371327,-0.5273583,4.1251593,3.4739327,5.309113,3.0815551,4.4011827,3.2465465,6.486939,2.7556932,4.85864,2.1788352,3.5992203,3.0599012,3.9645112,0.5874636,3.389534,2.0105064,3.5247092,3.1697395,2.909523,5.0217304,4.241037,3.5330846,3.3903701,3.191543,0.32060778,3.4737427,1.5780088,1.9111433,0.9674171,-4.6807537,6.8909907,8.338348,