-1.4704506,0.5453765,0.4186021,0.566979,-0.51610774,1.0185571,0.42472565,-0.91814166,0.35740098,-1.2242353,1.2458098,0.35055062,-1.6938145,-0.52942455,0.4026024,0.61239696,0.38364953,-0.6652555,0.31724906,-0.5681369,0.40252608,0.35747448,0.3396774,-0.9312767,0.27044195,-0.80249846,0.70680773,-0.6140687,0.4285414,-0.45753714,0.45901138,0.34377876,0.37423086,0.62740445,0.38916808,0.4226988,0.3852116,0.44544643,0.43616325,-1.1132361,0.46339086,0.3958946,0.5043698,-0.52074736,-1.2063988,0.48056015,0.42512268,0.8730527,-1.4597406,-0.4630901,0.33622482,0.3256491,1.2436886,0.2860361,0.29564005,-1.754696,-0.4954324,-0.7229684,1.2455502,-0.57690144,-0.69155395,0.4660686,0.8123179,-0.5931102,0.41219926,0.4126367,-0.5716878,0.71893907,0.39014918,-0.60393125,0.47151965,0.42245907,0.70077246,0.41832644,-1.5412766,-0.48082006,-0.6900931,0.88483673,0.4853003,-0.6380192,0.71068424,0.367551,0.37630373,-1.41738,-0.5831969,-0.4240158,0.34778258,-0.5144421,-0.90873593,0.6655536,0.30821887,-1.1483041,1.1217239,-0.4425667,0.467916,-1.094489,0.6713688,0.3811056,-0.6003898,-1.6122601,0.70053875,0.42354152,-0.85152894,-0.38797584,0.4535144,-0.41912434,-0.6025408,0.9863942,0.36322248,0.3811508,1.5453742,0.3988143,-4.155841,0.4509771,-0.5667079,-0.70664084,0.47857046,0.46451443,-1.2917143,4.995844,0.31722212,0.38415864,0.36789912,-0.52472144,-0.4899292,0.3993281,0.8485098,-0.4009477,0.3555492,0.40648893,-1.722877,0.3404026,0.30754212,0.4652207,0.37675193,0.6326439,-1.2615235,1.1797093,0.39223886,-1.2834256,0.44186372,0.7496856,0.3818515,0.44746867,-0.44053978,-0.6397165,0.3450207,0.62244093,0.34024075,0.41761905,0.43651178,0.39647806,0.5142594,-0.59161717,0.33796987,-0.5132258,0.4006734,-0.5645213,0.39431962,0.48466864,0.35900602,-0.7054503,0.33934098,1.2740993,0.48082122,0.42448553,0.4301785,0.39873543,0.43463343,0.49587718,0.4917431,0.35950914,0.31105554,-0.47826248,0.3266647,0.56463295,2.893482,0.43052325,0.4379411,0.3981081,-0.6395475,-0.5324111,0.33703944,2.338875,0.3865236,0.3613439,-0.43041334,-0.521567,-1.2399077,0.34128392,-0.48955336,0.3489496,0.28194457,-0.46697262,0.5293405,-2.4671385,0.58633256,1.2539656,1.118062,-0.45568958,0.93834436,0.48152858,-1.3985837,1.6462084,-0.40950847,0.40068784,-0.5840429,-1.3747262,0.4744418,-0.36741823,0.32729375,0.3678847,1.1585459,0.7750505,0.2603412,0.41139042,0.35644427,0.31311023,0.45196834,0.47836855,0.40403166,0.44612768,0.37695828,-0.8749982,0.8426809,0.34959412,0.44069704,0.8865504,0.38531813,0.45201373,0.45546877,1.6804515,0.38235417,-0.49790275,-0.7489243,0.7037871,0.33821982,0.75035274,0.42755702,0.8579074,-1.6242143,-0.64471835,0.3639438,0.6086479,0.46811193,0.55125713,-0.6862701,0.3469606,0.31952095,0.39182323,0.43312186,-1.508607,0.38255143,2.1292927,-1.4042587,0.29219824
