0.014960043,0.0034415983,-0.009017614,-0.032447826,-2.0264812e-05,0.026542263,0.00072630704,0.019569188,0.39854267,0.6887156,0.57223153,0.2706478,0.22196615,0.7503789,1.1998844,0.8281349,0.5104245,0.7616165,0.581159,0.52332044,0.5269629,0.8035273,1.177032,0.8743916,0.57631963,0.8056264,0.6739094,0.7790373,0.83922553,0.9599299,1.1637965,0.78607047,1.002802,1.1591879,1.0274571,1.0424297,1.3699012,1.4012916,1.2991139,0.9598753,1.8492783,1.9525805,1.8652923,2.012995,2.1786573,2.6389866,2.356788,2.197167,3.9849615,4.369947,3.9694614,3.580138,3.7304592,3.5344343,3.5424478,3.1600156,0.010949477,0.026048116,-0.01202882,0.033401683,-0.032538492,-0.007837712,-0.0032374403,-0.035312496,1.6724848,2.1776328,2.4911215,2.2682633,2.1577017,2.2625704,1.997184,0.8754373,1.939202,1.9044565,2.6318345,2.3401067,2.50911,2.4205122,2.3736255,1.7013938,1.9350266,2.428283,2.53195,2.5666997,2.9899702,2.6221907,2.9002151,2.3526566,2.2867424,2.5332115,2.80896,2.779445,2.904854,3.3019812,3.0687978,2.606852,2.4902108,2.835947,3.1567779,3.0764284,3.3237906,3.6135535,3.1144328,3.234613,2.3821063,3.0966918,3.2406316,3.192168,4.3989654,4.686955,3.8110929,3.1783388,2.2373593,2.645168,2.984575,3.2815318,3.886525,3.8043866,2.5828125,2.7175682,1.3583866,3.0444114,2.5117464,3.37405,3.392223,3.5556293,2.8822646,1.5960581,2.9174423,3.032071,2.6474783,2.7890685,2.4114096,2.6980908,2.4585814,2.242232,2.8564944,2.823208,3.1629477,2.7472126,2.9141138,2.9527774,3.1976159,2.7594929,2.748777,2.957469,2.9320645,3.1429935,2.9659483,3.1866562,2.8561053,3.0036602,2.6893952,2.958832,3.2370577,3.3372316,3.509763,3.0659256,3.3234644,3.002825,2.6313329,2.986332,3.4124577,3.877706,3.6597655,3.5423324,2.7969186,3.0871983,2.9032385,3.1090562,3.3432894,3.5855489,3.7065449,4.566338,3.749423,3.225591,2.6399343,3.3211434,2.9242482,3.3457396,3.4293299,3.5956554,3.1435363,2.9137416,2.7947261,3.2382424,3.42108,3.728304,3.4325511,2.75663,3.9295726,3.051153,2.7792692,2.8497918,3.032131,3.0094993,3.0164645,3.0465655,3.1837976,2.7501059,2.495031,2.8927846,2.91239,2.934968,3.0814695,3.1273277,3.2077923,2.9327834,2.7816484,2.9072068,3.1973593,3.2511978,2.999853,3.0648735,3.5549834,3.1661541,2.9915257,3.237411,3.7113342,3.3961575,3.7751076,3.1085386,4.1364207,3.566216,4.0387187,4.1779976,4.322012,4.3929453,4.519639,4.614658,5.0715694,4.5542545,4.4256167,4.8318095,5.0082793,5.0473104,5.954695,5.9960732,5.3070755,5.2687564,4.868994,5.189074,5.290613,5.9938855,5.860739,6.1328287,5.920752,5.932201,5.279954,5.0945077,5.2525835,5.32641,5.9494405,5.668478,5.514948,5.574588,7.1950965,6.980112,7.1797867,7.613028,7.2663045,7.062738,6.6180124,7.4743648,7.3249483,7.3748145,7.4991794,7.4761643,7.7926807,7.53503,7.577648,7.671423,7.4598126,7.495926,7.7418904,7.6141257,7.6017466,7.764446,7.586059,7.7544484,7.587287,7.5141897,7.68001,8.424074,8.282544,7.988824,7.904095,7.8777,7.6873603,7.657074,8.63665,8.377532,9.152093,8.957341,8.239033,7.916562,7.670726,7.966461,8.75872,8.45512,8.875103,10.14363,9.164839,8.459219,7.6388354,7.519078,8.194183,8.696246,9.304068,9.397017,9.232763,8.25162,8.452515,9.869548,9.405593,10.047213,11.023675,11.381895,11.023727,9.793476,1.26194,1.4209752,1.3526003,1.0128884,1.4706167,0.99318725,1.6456835,1.7407168,1.8814781,1.6645159,1.473088,1.6138794,1.4373058,1.5048798,1.8188504,1.9072115,1.7252069,2.1124685,2.2614105,2.2196248,2.1303108,2.0028162,1.8109776,1.6358335,2.0519354,3.2287219,3.7596035,4.153567,3.7110353,3.4149039,2.7875187,2.1581829,2.791142,3.9129353,5.046013,5.080684,5.6469903,5.14025,4.0473795,2.7944098,2.836457,4.715152,5.663814,6.240126,5.9569626,7.072208,5.8889766,3.7456849,3.0770957,4.365487,5.200824,5.256438,5.697428,6.0338783,5.0676684,2.4525185,2.4808934,3.9684353,2.9841309,3.3530033,3.8196995,4.9891706,3.5218465,2.287465,-0.009057425,0.0041088876,0.034545697,-0.019353252,-0.034510333,-0.010470051,-0.025265021,-0.0302643,-2.4358582,-2.4767547,-2.0692375,-1.0925231,-1.937875,-1.376635,-2.0524595,-1.1425071,-0.2925732,-0.5055956,-1.1261146,-1.5228146,-0.81216824,-1.2620628,-0.5118562,-0.39410174,-0.4284113,-0.46255976,-0.5727446,-0.6159079,-0.8353133,-0.74814576,-0.60441643,-0.30468765,-0.29250142,-0.59030616,-0.36233443,-0.7853313,-0.47142604,-0.42882,-0.7324313,-0.091375075,-0.25284156,-0.3486459,-0.23636341,-0.2725788,-0.40877825,-0.24881841,-0.4745024,-0.30635542,-0.3831657,-0.33039168,-0.49775928,-0.38522318,-0.13914089,-0.46907532,-0.7936903,-0.40292078,-0.015484618,0.027683161,-0.012165056,0.00520616,-0.023570197,0.029340273,-0.0022388035,0.013231245,-1.5123185,-2.479061,-2.1787593,-2.7971709,-2.1160564,-2.5814373,-2.7359362,-2.0931668,-2.6803663,-2.3590136,-2.618662,-2.8640864,-2.9659948,-3.2512674,-1.9598182,-2.617011,-2.0865705,-2.952755,-2.6607754,-3.2075372,-3.1769476,-3.426937,-3.4228477,-3.115795,-2.7501616,-2.5726173,-2.729318,-2.809733,-2.668602,-2.8535953,-2.6618834,-2.8901808,-2.0358534,-2.2779353,-2.523307,-2.6149547,-2.7085845,-2.4568589,-2.6959543,-2.3354926,-2.1938024,-2.370206,-2.295631,-2.457117,-2.7287943,-2.4051025,-2.701214,-1.9058412,-1.522888,-1.9147508,-1.9507668,-2.1707559,-2.281135,-2.2182138,-1.7789292,-1.5889547,-1.1580682,-1.9990746,-1.7611463,-2.0259905,-1.8318683,-2.0643241,-2.0130348,-0.9900753,-2.387571,-2.000123,-2.5760076,-2.171952,-2.1047914,-1.9149344,-2.1483176,-2.5838397,-2.3693335,-2.4421873,-2.738263,-2.7849858,-2.7405484,-2.5610504,-2.599121,-2.6240976,-2.778564,-2.8090482,-2.5169187,-2.908637,-2.7362003,-3.2858279,-3.259999,-2.70494,-2.1161702,-2.341239,-2.9077363,-2.7777088,-2.5164988,-2.9506333,-2.508768,-2.4675071,-2.107568,-2.3203185,-2.7101443,-2.7025328,-2.503182,-2.565693,-2.5714998,-2.5030346,-2.383671,-2.4268448,-2.3442414,-2.5951428,-2.5240545,-2.3131495,-2.7124,-2.823357,-2.2641203,-2.4877055,-2.6305568,-2.460788,-2.406243,-2.5583417,-2.757425,-2.5919883,-2.5254142,-2.2748625,-2.3140056,-2.044615,-2.1702387,-2.1956944,-2.139369,-2.145431,-3.5543284,-3.5465212,-3.6129758,-3.9246411,-3.9378731,-3.9410005,-3.6622832,-3.5854878,-3.6385016,-4.0571785,-3.9562662,-4.1795235,-4.21842,-3.9208922,-4.1052556,-4.113651,-3.7540927,-3.9503772,-3.7676558,-4.202774,-4.2058415,-4.2107353,-4.2580404,-4.00563,-3.5455189,-3.8053987,-3.685696,-3.9642954,-4.003528,-4.1166215,-4.165011,-4.190297,-3.4014025,-3.5310678,-3.407232,-3.568273,-3.7784278,-3.4060094,-3.8235567,-3.570748,-3.049885,-3.3488178,-3.3072524,-3.315311,-3.4971926,-3.6685002,-3.8718452,-3.4351513,-3.1435487,-3.374446,-3.4695282,-3.5215592,-3.8864193,-3.3739932,-3.4948068,-3.0690837,-3.4867454,-3.5806115,-3.5498612,-3.7061431,-3.586227,-3.6166914,-3.8374503,-3.651951,-7.0105534,-6.9938493,-6.8383784,-7.147713,-7.29065,-6.8827443,-6.7005115,-7.296864,-7.5881734,-7.182167,-7.5712333,-7.592266,-7.8314967,-8.145841,-8.102366,-7.9257836,-7.09852,-7.107256,-7.634773,-7.3812666,-7.6725993,-7.7506046,-8.391704,-8.265714,-7.228876,-7.190517,-7.4429073,-7.315962,-7.665873,-7.570947,-8.084277,-7.7927957,-7.2091966,-7.410608,-7.610971,-7.338737,-7.557756,-7.974333,-7.6434984,-8.106788,-7.191172,-7.2582436,-7.2927847,-7.8257303,-7.6702294,-7.628368,-7.7099643,-7.461497,-7.2036986,-7.300638,-7.496917,-7.6264615,-7.577828,-7.538496,-7.453327,-7.670102,-6.7698903,-7.1936774,-7.2756133,-7.495909,-7.4429073,-6.654108,-6.583302,-7.0468297,3.3422258,2.925914,3.9020905,4.243906,2.768512,2.9830968,3.4664874,4.537495,3.305702,3.4009738,4.0462418,4.6549826,3.864139,3.4753501,2.6981514,2.7675672,3.224111,3.285943,3.647378,3.721607,4.3793406,3.8776388,3.6278477,2.9380326,3.3427532,3.042423,3.1903124,3.6195412,3.2672517,3.4389887,2.8868768,2.9038138,3.2195926,3.3949974,3.4860265,3.4383743,3.5043836,3.2351625,2.6933405,2.4120524,2.7935827,3.1499944,3.2051694,2.922542,2.883901,2.7728512,2.3762999,2.7012541,3.0483098,3.2123997,2.7723126,2.6765077,2.434592,2.1996863,1.9681851,1.7866281,2.7556,1.9009243,2.1658957,3.0394833,1.8897725,2.5418174,1.5039471,1.6606638,0.01395901,-0.018155685,0.029661616,-0.0032246,0.027742662,-0.00010824102,0.022499727,-0.029068593,0.40843195,0.72001517,0.6079628,0.2394627,0.16777256,0.80241925,1.2670811,0.8628461,0.52056503,0.80961996,0.59818053,0.51098144,0.59226954,0.7779831,1.2268448,0.92406327,0.59732693,0.8513804,0.7188766,0.82970345,0.8937967,0.9999952,1.1747935,0.7966346,1.0103474,1.2225957,1.130948,1.0855241,1.4621288,1.4880393,1.34224,1.0404786,1.8762964,1.9993842,1.8615943,1.9355148,2.2280252,2.6765635,2.421736,2.2666373,4.0383544,4.5074797,4.0606475,3.726988,3.724364,3.531689,3.5153666,3.1901212,-0.028075363,-0.030484524,-0.018668223,0.0021560066,0.030699357,-0.00449773,-0.0057436656,0.028801009,1.6135852,2.115245,2.4855607,2.205255,2.179685,2.2911663,2.0047364,0.897665,1.8704274,1.8880417,2.5328915,2.296425,2.4229228,2.3561542,2.3670886,1.7160902,1.9599422,2.4035072,2.4433606,2.623335,2.9612958,2.6247706,3.0449307,2.3246474,2.2736971,2.5786366,2.8283517,2.7674825,2.9141254,3.283867,3.056504,2.629011,2.5301228,2.8312225,3.1879063,3.1353598,3.330537,3.6492302,3.2344651,3.2441156,2.33408,3.1036,3.3211935,3.2841835,4.455434,4.733477,3.7622027,3.175819,2.244253,2.7400866,2.9884572,3.332546,3.8512652,3.765731,2.5694857,2.8342927,1.3374871,3.0913174,2.556448,3.4155078,3.453482,3.5649757,2.8900192,1.5948801,2.8880908,3.0296352,2.6187017,2.7739835,2.4006236,2.6569157,2.4060638,2.4248624,2.8839152,2.8145695,3.2099202,2.7825599,2.8579395,2.9886785,3.1611733,2.7731316,2.728517,3.0290146,2.9487615,3.1888342,3.0814595,3.249955,2.9355066,2.9537644,2.595679,2.941233,3.1889892,3.4309447,3.4990227,3.129689,3.3510425,3.0261657,2.6805847,3.0023696,3.3782399,3.9086483,3.7246263,3.5560617,2.7503347,3.105498,2.9642663,3.2173378,3.3366933,3.66173,3.794746,4.561184,3.8024497,3.2032669,2.5854175,3.3285236,2.9387186,3.2982378,3.5240688,3.552103,3.1232944,3.0182834,2.6762433,3.2662349,3.4451418,3.6754384,3.4406402,2.7684536,4.021495,3.0218258,2.7661614,2.8684459,3.023007,2.9890044,2.9413066,2.9883807,3.2295952,2.6789987,2.4364452,2.8943071,2.9013748,2.8656194,3.0669343,3.180596,3.2708957,2.968461,2.8462648,2.9626124,3.2048135,3.2425306,2.9899828,3.058349,3.6502712,3.1823945,3.0416462,3.1704388,3.7704186,3.4065313,3.811545,3.1173775,4.1391125,3.5527124,4.094303,4.178609,4.366796,4.435604,4.531736,4.662679,5.1120596,4.556256,4.412106,4.881544,5.019608,5.1401167,5.974654,6.080702,5.2813463,5.2343082,4.9347525,5.273104,5.3763185,6.1489882,5.8864536,6.201613,5.922674,5.993359,5.3410378,5.123488,5.2413073,5.390183,5.9243016,5.7550473,5.4930263,5.6195116,7.2246194,6.9660115,7.175145,7.5883307,7.214302,7.0195303,6.579882,7.5155315,7.3414,7.3786526,7.524676,7.47963,7.759615,7.569548,7.5785356,7.783379,7.397072,7.5499253,7.772289,7.5987,7.5905895,7.781898,7.552156,7.7644114,7.624222,7.5761824,7.6360426,8.4582,8.3260145,8.02996,7.951065,7.955549,7.5571527,7.6775002,8.64621,8.479574,9.127198,8.9984045,8.1749325,7.9526224,7.729132,7.923367,8.747228,8.497512,8.927759,10.181567,9.1675005,8.52649,7.667108,7.53302,8.187024,8.754448,9.351845,9.538946,9.27229,8.313888,8.539191,9.93609,9.413171,10.066279,11.126596,11.408764,11.070045,9.846487,1.2293663,1.4486457,1.3611495,1.0386664,1.4647666,0.97282565,1.6506507,1.7643585,1.8970772,1.6562307,1.5110972,1.6815457,1.4329712,1.4720664,1.8134074,1.8961929,1.6174879,2.095221,2.2604291,2.238604,2.1150305,2.0084107,1.8156875,1.5840753,2.0548897,3.296783,3.837027,4.160903,3.7218432,3.3980494,2.8608544,2.1663644,2.8195684,4.008308,5.1826186,5.148135,5.6708193,5.094915,4.216296,2.8472362,2.8114512,4.805466,5.7556715,6.2984757,6.0232987,7.1030183,5.888605,3.8111029,3.0347588,4.3695264,5.238094,5.2905173,5.744538,6.042415,5.1631002,2.4390655,2.4795284,3.964915,3.0066664,3.4401534,3.7944539,4.9876747,3.4027686,2.2827177,-0.0018603364,0.035525274,0.006516847,0.0067673502,0.0044624056,0.003183619,0.015375176,0.012678628,-2.480726,-2.5349097,-2.1049373,-1.0985655,-1.8991585,-1.2588056,-2.106813,-1.1371335,-0.3817309,-0.47560692,-1.1201172,-1.5485065,-0.84044003,-1.3469975,-0.50232786,-0.42052817,-0.48132885,-0.45842513,-0.5876222,-0.57525194,-0.88667595,-0.84017134,-0.6220819,-0.29468855,-0.29974806,-0.63912296,-0.4062118,-0.75907326,-0.47769505,-0.5029421,-0.741356,-0.096133724,-0.21323384,-0.34820375,-0.25500143,-0.27000692,-0.42190355,-0.21419674,-0.4402501,-0.24892317,-0.36858046,-0.37287894,-0.5505029,-0.39389166,-0.13256468,-0.4802164,-0.81867534,-0.37642527,-0.02613652,-0.025060901,0.0032823188,-0.027262338,-0.017658575,-0.032054372,0.021535847,0.01607998,-1.5127704,-2.4926643,-2.3915687,-2.7157445,-2.1150072,-2.64442,-2.658374,-2.1269243,-2.774383,-2.3551185,-2.6340716,-2.8606658,-2.9587853,-3.2777436,-1.9614117,-2.5891821,-2.078506,-2.932958,-2.698323,-3.262853,-3.2066476,-3.4797096,-3.3821635,-3.0946593,-2.7930348,-2.5436985,-2.6838357,-2.8645315,-2.719301,-2.8522027,-2.6867723,-2.925081,-2.06365,-2.24234,-2.5137732,-2.5832646,-2.7300591,-2.4948232,-2.688012,-2.3146522,-2.1670353,-2.312157,-2.3181796,-2.5182192,-2.678572,-2.3895903,-2.6843781,-1.9416258,-1.5538708,-1.883082,-2.0248652,-2.1810763,-2.2397335,-2.2031903,-1.7186098,-1.6130512,-1.1413962,-2.0059636,-1.7226583,-1.8631685,-1.8619034,-2.0057216,-1.9831957,-0.9182818,-2.3720381,-2.0252504,-2.5443168,-2.2297177,-2.0937655,-1.8230214,-2.172177,-2.580528,-2.3408391,-2.3478534,-2.7347677,-2.7056735,-2.7987342,-2.5676699,-2.6891067,-2.6493423,-2.8428721,-2.79769,-2.5275934,-2.8587112,-2.7731354,-3.2306247,-3.2591674,-2.7190368,-2.1244636,-2.357036,-2.9875882,-2.7946515,-2.544556,-2.951634,-2.492827,-2.6305587,-2.0396755,-2.3248405,-2.737325,-2.7067564,-2.5074322,-2.5942538,-2.5231721,-2.4862244,-2.3555865,-2.4235044,-2.390313,-2.6571984,-2.5163636,-2.2716224,-2.6841803,-2.8070655,-2.3219328,-2.4899144,-2.5421932,-2.4411972,-2.3701773,-2.5839672,-2.7402773,-2.487042,-2.5213792,-2.166113,-2.3257382,-1.9639872,-2.1495254,-2.1928465,-2.1341507,-2.043648,-3.566129,-3.581434,-3.6095462,-3.9121375,-3.987448,-3.9584024,-3.7572465,-3.5399327,-3.6359055,-4.0444226,-3.9445283,-4.170733,-4.1932473,-3.939476,-4.110301,-4.231762,-3.777377,-3.9959483,-3.8598258,-4.2042074,-4.236934,-4.2524557,-4.311385,-4.1784673,-3.56132,-3.8285162,-3.7220707,-3.963404,-3.99994,-4.13603,-4.176616,-4.218773,-3.3533578,-3.4039555,-3.416532,-3.6073515,-3.764275,-3.415053,-3.7857387,-3.541056,-2.9538295,-3.329545,-3.357465,-3.322647,-3.4556975,-3.6609957,-3.8851252,-3.4073253,-3.1606605,-3.397997,-3.4903731,-3.4418995,-3.8622875,-3.3214922,-3.506593,-3.166162,-3.4694965,-3.5485802,-3.562139,-3.6293364,-3.5754812,-3.6381698,-3.8230524,-3.6379027,-7.019007,-7.0186944,-6.817572,-7.103828,-7.286031,-6.921886,-6.7109246,-7.3862896,-7.557318,-7.267463,-7.6350455,-7.6024175,-7.8701825,-8.223419,-8.174877,-8.064051,-7.073521,-7.163088,-7.592986,-7.4001527,-7.6824365,-7.845605,-8.506287,-8.309627,-7.2332754,-7.191668,-7.4850073,-7.364339,-7.698639,-7.555755,-8.0740795,-7.8612423,-7.1858106,-7.460704,-7.626232,-7.391512,-7.596154,-7.9408875,-7.602519,-8.081861,-7.218028,-7.2724156,-7.2854443,-7.830078,-7.689709,-7.5868764,-7.7474566,-7.454455,-7.2095637,-7.273253,-7.494684,-7.5975995,-7.548871,-7.47366,-7.4676633,-7.6673636,-6.8371263,-7.2439804,-7.3220143,-7.605037,-7.4521823,-6.5741477,-6.488915,-7.0791206,3.258211,2.8901398,3.8994546,4.2402062,2.6461992,2.954449,3.499305,4.5328746,3.266983,3.3936887,4.082927,4.6701794,3.7896063,3.3984313,2.6835012,2.684093,2.9598417,3.2421942,3.667937,3.6985557,4.3139343,3.8548849,3.6715245,2.8718174,3.3113515,3.0785038,3.1745777,3.6065063,3.2433407,3.425612,2.9403446,2.8425872,3.1661024,3.3846288,3.528532,3.4432497,3.532251,3.2602088,2.7231047,2.408972,2.9192774,3.1609426,3.251005,2.9847662,2.9312942,2.8386133,2.331544,2.684653,3.0761647,3.2564845,2.8407106,2.719279,2.4468446,2.2039235,1.976276,1.8102188,2.776873,2.0088208,2.2588165,3.019496,1.880083,2.6174786,1.4768686,1.6292968,-0.03063479,-0.02561283,0.020576764,-0.016003584,-0.024813233,0.009385994,0.015424361,0.018666383,0.027091695,-0.08720083,-0.018558308,-0.14567964,0.17163983,0.03833624,-0.10217201,0.11513603,0.3760964,0.10663819,0.2773362,0.114667095,-0.023404129,0.1135615,0.048397996,0.057816282,0.51783353,0.06519937,0.17131111,-0.4205183,-0.16267459,0.30001277,0.14140984,0.47043678,0.28838354,0.025234006,-0.200489,-0.26964638,-0.4927626,0.1113825,0.20912819,0.4804792,0.21401303,-0.1789218,-1.067452,-1.3295428,-0.57689476,-0.59540004,-0.27675322,0.7786014,-1.1497054,-2.028845,-1.5095361,-2.2402506,-1.7311633,-1.0881013,-2.2089589,-1.0000166,-0.036017235,-0.0021746196,-0.01757631,0.023017665,0.00066808064,-0.02084089,0.032801475,-0.035702303,-0.65328723,-1.5908235,-1.1503773,-1.5792793,-1.5502551,-1.9010067,-1.696518,-0.52948344,-1.2649323,-1.2268612,-1.5135411,-2.1355484,-2.0837061,-1.6238099,-1.5881103,-1.816332,-1.3706006,-1.6863154,-1.978641,-1.4850498,-1.7751538,-2.3231947,-2.4939966,-1.8931924,-1.9195551,-2.03651,-1.5263544,-1.8062556,-1.8655349,-1.5751191,-2.178808,-2.0285296,-2.237598,-1.7923931,-1.9113458,-1.7911152,-0.5361326,-1.8447824,-1.9642141,-2.672943,-2.3913014,-2.1185358,-1.9219152,-1.8704978,-2.332004,-2.3713305,-2.632619,-3.0673583,-1.962537,-2.3815262,-1.5497364,-2.753216,-3.0293944,-2.3695226,-2.1513348,-1.9058653,-1.2907726,-2.9167767,-2.464365,-2.2931674,-3.001359,-2.3908236,-2.0687518,-1.4428835,-2.057338,-2.0426283,-1.9504781,-1.1018664,-1.5243121,-1.8268842,-1.5262935,-1.8060526,-1.5064224,-1.8375615,-2.124036,-1.6021469,-1.9157846,-1.6913357,-2.2491424,-1.6562793,-1.9927679,-1.8043771,-1.6871027,-1.5501771,-1.4759667,-1.7758392,-1.7640072,-1.9944544,-1.4434272,-1.1978215,-1.4988124,-1.2242843,-0.9089887,-1.7776484,-2.038234,-1.7343112,-1.5113313,-1.4679413,-1.5867143,-0.675233,-1.7511247,-1.5856225,-1.8577492,-2.2428708,-1.9427804,-1.7801868,-0.9921944,-2.0327666,-2.1141648,-1.751131,-2.3094115,-1.7892836,-1.5444617,-1.8248254,-2.0412583,-2.2721071,-2.247574,-2.1999443,-2.2821226,-1.8031387,-1.6734132,-1.3476174,-2.3725476,-1.623691,-1.9675436,-1.9930936,-2.7959743,-1.734866,-1.8509315,-1.8409797,-2.0031633,-2.1325605,-2.040044,-2.1048467,-2.5059898,-2.048056,-1.8317405,-1.8112108,-2.1808221,-2.100282,-2.192593,-1.9959654,-1.5736939,-1.8806424,-1.8116934,-1.9238912,-2.3057766,-2.298814,-2.4405928,-2.2810838,-2.750914,-1.989416,-1.7956749,-2.4602847,-2.3592565,-1.9316406,-2.8895671,-2.3994284,-2.7419314,-2.6038687,-2.4541903,-2.6772816,-2.538038,-2.644379,-2.8193321,-2.5734344,-2.9639456,-2.8769689,-2.7773492,-2.8211076,-2.502517,-2.8869402,-3.0860555,-2.6516051,-3.0701253,-3.1949563,-2.5243292,-2.3095775,-2.5939648,-3.2846208,-3.4157856,-2.9295034,-2.8418868,-2.9952097,-3.3713694,-3.5966263,-3.0303829,-2.7065067,-3.399027,-3.3029737,-3.16739,-2.6634824,-5.8705688,-6.4512014,-6.3458023,-7.0109005,-6.673085,-6.1260233,-5.332689,-5.836265,-6.826187,-6.89656,-6.837874,-7.000514,-6.938943,-7.403278,-7.2969275,-6.989148,-6.263318,-6.8125215,-6.3852797,-6.79081,-6.7419343,-6.5972514,-6.693172,-7.061844,-6.9247055,-6.2994094,-6.639567,-4.8679795,-5.516945,-6.2837276,-6.4887867,-6.601464,-6.6309624,-5.6659384,-5.2153115,-5.3759866,-4.579102,-4.6533732,-6.438934,-6.73227,-6.5856266,-6.298228,-4.780419,-5.6710324,-5.8616424,-5.0306425,-7.1774993,-6.6248326,-6.705633,-6.5065746,-6.4277716,-6.3673925,-5.9027147,-6.6197467,-6.5300803,-7.6360283,-5.7549176,-5.1866302,-6.2744384,-6.916054,-4.5669394,-3.8835669,-3.655595,-4.872999,0.18675771,0.07481252,0.3671969,1.0645318,-0.044982813,0.8594395,-0.39231834,0.173877,0.10422007,0.3388199,0.6415211,0.7829223,0.5279605,0.5863394,0.1267945,0.20315786,0.39717427,0.23562567,0.2838976,0.39346328,0.6789935,0.54441005,0.29685545,0.23033406,0.99510133,1.1562884,1.3278351,2.0366962,1.4635891,0.7384295,0.6877961,0.13787489,0.7025054,0.56671107,1.965154,2.1210642,2.1882997,1.6718773,1.0948724,0.46270278,0.04143284,2.1106682,2.493182,2.5620804,1.796014,2.424941,2.2005231,0.5280212,0.66916627,0.96448857,1.7852751,1.0709814,1.7344645,1.785396,1.7912309,0.84543633,1.001326,1.2143351,1.0853658,1.1957965,1.1788352,1.5533276,1.1910856,-0.042798843,-0.019232726,0.017844025,-0.012111049,0.0010832405,0.028696097,-0.020744702,-0.004443263,0.032462392,3.2912247,3.4242854,3.72466,2.888692,3.3232229,3.9862669,4.0754957,3.3836958,1.0523378,1.444631,2.2063882,2.3915958,1.854801,3.0059922,3.1271935,2.380321,1.2209582,1.5032159,1.6855234,1.4942021,1.5173837,1.6216013,1.3792526,1.497069,0.97051877,1.2144029,0.98195815,1.322007,1.3524789,1.0792239,1.6492827,1.3027303,1.2774936,0.92796606,1.1135066,1.0797919,1.157533,1.2297587,1.7368593,1.7043259,0.87599015,0.80275226,0.7104383,0.7006932,0.575642,1.1086268,1.4526024,1.1891887,-0.014965183,0.01736944,-0.024160268,0.019112566,0.009753306,-0.003372149,-0.03168134,0.009239365,1.4101999,2.7896526,1.7577115,2.9348223,2.465988,2.8597753,2.8941798,2.037193,2.6673088,2.5604637,3.7555182,3.6549346,3.8279755,3.4863906,3.1287525,2.7864518,2.5517957,3.1006455,3.225117,4.5596604,4.5641875,4.3955903,4.0629063,2.903908,2.8636615,3.096052,3.3034678,3.4604962,3.1978886,3.948046,3.145183,3.467944,2.349636,2.4561272,3.080117,3.2177858,3.267449,3.726373,2.9479153,2.356358,2.6750596,2.5277486,2.893616,2.5296016,3.057615,2.4344637,3.1688879,2.4772265,2.2223482,2.240507,2.919206,2.5365262,2.5866306,2.5538433,2.4725056,2.5818155,2.4982262,2.0408695,2.3156915,2.5278347,2.749522,2.7820835,2.1825786,-0.018228073,3.1614213,3.2544274,3.2465558,2.794422,3.2521527,2.9941633,3.090991,3.37224,3.3412995,3.3555613,4.0455394,3.5950818,3.7574935,3.8173604,4.114789,3.6583278,3.2110493,3.6519651,4.1928587,5.0525403,4.27181,4.495747,3.9608243,3.3267665,2.9333053,3.295776,3.892933,4.4997416,4.1196995,4.489067,3.3275332,3.148502,3.2303605,3.1378944,3.529808,4.335535,4.01437,3.7188005,3.4968903,2.9539282,3.1136634,3.202825,3.3997138,3.7458224,3.0872824,3.6745791,3.3516543,3.7226775,3.1380115,3.0481157,3.6065829,3.1831596,3.0139,3.1854262,3.37761,3.8485744,3.2308793,3.3535554,2.5987241,3.3769052,2.9359393,2.548666,2.844046,2.996106,5.2774234,5.210987,5.0953794,4.995025,5.0252337,4.760872,5.203105,4.569884,4.855385,5.382025,5.37886,4.870994,5.4683585,4.896462,5.376871,5.1927285,4.8889976,4.654416,4.8573003,5.1495466,5.247309,5.5552034,5.378429,4.322843,4.6337314,4.7668295,4.228013,4.4631433,4.539935,4.8931684,4.9551277,4.811306,4.4014945,4.7831755,4.721574,3.9921691,4.3896813,4.239517,4.4406695,4.677545,4.041482,4.1072054,4.2466273,4.253607,4.150882,4.592569,4.8142056,4.263709,3.605195,3.9879932,3.8365827,4.088039,4.183265,4.658993,4.73368,4.011852,3.7462769,4.417828,4.2034774,4.424022,4.335891,3.9183,4.3440185,3.7116957,8.931634,8.398977,8.503011,8.638351,8.948921,9.449429,10.283749,8.770592,7.381848,7.3168745,8.6956,8.388072,9.222193,9.621339,9.577959,8.338297,8.035618,8.182723,8.451285,8.90456,9.28305,9.652336,8.952408,8.621306,8.05825,7.9638476,8.2301445,8.920569,9.114333,8.992019,8.719083,8.323585,7.3514943,7.6460757,8.058062,8.501675,8.089378,8.154621,8.302808,8.066737,7.723274,7.4458137,8.3782835,7.640696,8.139247,8.077326,7.887649,7.95238,7.701774,7.665078,7.567571,7.8178463,7.6746583,7.631521,7.8212256,8.057457,7.3818913,6.719354,7.5269804,7.4261165,7.8228836,7.4587045,7.1969075,8.03337,0.5215102,0.9111252,0.747537,1.5765233,0.91747904,0.72952825,0.993928,2.0123477,1.1765283,1.7021064,2.3002415,2.154996,1.93642,2.2029166,1.7731036,1.2212497,0.62464,1.2377415,2.0717678,2.6620417,2.4294143,2.3672917,1.9975437,0.8429738,1.4457655,1.4538295,1.6457807,1.9217505,1.6631705,1.2383207,1.0901327,0.46123734,-0.2586495,0.9184069,1.7363445,1.5821807,1.2114885,1.1744461,0.7019934,-0.11408899,-0.26735717,0.35892132,0.7079934,0.6888018,0.08170212,0.19025128,0.24508797,-0.3917593,-0.46616364,0.3633462,1.0154959,0.5736396,0.5325128,0.21182765,0.3337108,0.26386225,-0.030747635,0.5184136,0.32421616,0.35911494,-0.036755253,0.08010902,0.15870011,0.46216568,-0.027677875,0.036068115,-0.032620437,0.009764121,0.003230403,-0.035307307,0.022947622,0.035557747,0.469375,0.6764688,0.6059633,0.22041045,0.17280434,0.7839932,1.2926507,0.8573453,0.50832754,0.8370045,0.6064667,0.5297304,0.5895831,0.777564,1.26996,0.98116857,0.6107592,0.8466947,0.72182477,0.7895143,0.91043633,1.018604,1.2299249,0.8188298,1.0396079,1.2072142,1.0942453,1.0928025,1.4717777,1.5026371,1.3501247,0.9800518,1.8922939,2.0455976,1.856386,1.9149243,2.2819154,2.7489452,2.4120853,2.3267245,4.059761,4.5494227,4.020625,3.8109756,3.7888854,3.5694227,3.5299783,3.198029,0.033118352,-0.021382121,0.008860378,-0.036037255,-0.0053100474,0.0078897355,0.005174724,0.0017511963,1.7799883,2.1118224,2.4264839,2.2306263,2.1596117,2.2402334,2.0243313,0.89200795,1.8957694,1.8979526,2.515755,2.2652476,2.4539456,2.3726296,2.3533409,1.703691,1.9549648,2.342643,2.4656823,2.5628011,2.96199,2.594843,2.9205496,2.302016,2.2391536,2.5443244,2.8218102,2.6975627,2.8963194,3.2149014,3.0395896,2.6012495,2.5940368,2.837043,3.2112732,3.1425738,3.3632622,3.6930816,3.1791556,3.2181072,2.3679953,3.1087177,3.3486593,3.2523594,4.4486866,4.76364,3.803093,3.1836998,2.2586997,2.7603734,2.919082,3.2599614,3.8350477,3.8155386,2.5491672,2.7409427,1.3322649,3.063765,2.5222816,3.3745747,3.3675134,3.6063633,2.8211212,1.6435088,2.9131007,3.0941622,2.5931878,2.7652519,2.3377671,2.622979,2.3606477,2.2981098,2.9211838,2.8020608,3.219348,2.773337,2.9187806,2.9927945,3.194199,2.7921274,2.716526,2.988264,3.0093148,3.2161634,3.0778222,3.2431676,2.9282246,2.9319923,2.6081734,3.0052516,3.253788,3.449967,3.5494878,3.072699,3.3638613,3.034295,2.6319551,2.9778082,3.4242687,3.9200666,3.7480412,3.5716686,2.7587883,3.1208808,2.998878,3.1987844,3.364984,3.6345608,3.7987528,4.6250896,3.9895344,3.2026389,2.6122718,3.3534021,2.942882,3.3544078,3.4440289,3.5722232,3.1769588,3.0085895,2.830603,3.3310912,3.4967415,3.6824133,3.3850698,2.7832322,3.9222302,3.023867,2.792847,2.8887084,3.0145028,2.9955513,2.9553113,2.9766436,3.2140489,2.6887608,2.500215,2.928591,2.9551883,2.8660092,3.0868611,3.172142,3.2843125,3.0316978,2.8068306,2.920148,3.2269971,3.215305,3.0681314,3.075039,3.6140542,3.1831827,3.0201533,3.181858,3.7805297,3.4022098,3.8703372,3.098244,4.152593,3.5327053,4.1343656,4.1372967,4.3160334,4.451916,4.5679536,4.603816,5.09703,4.6067758,4.480462,4.9119997,5.014545,5.166675,6.031539,6.1018457,5.347946,5.276934,4.9538903,5.334248,5.3937607,6.1332693,5.93834,6.2391157,6.0395327,6.0131445,5.385607,5.19617,5.3083243,5.4222565,6.014703,5.7884994,5.641524,5.646623,7.235627,6.982241,7.1773777,7.6377993,7.2090983,7.0534525,6.582937,7.515076,7.330115,7.2650437,7.4872646,7.4975414,7.7626333,7.5772357,7.6122913,7.7074523,7.5159483,7.523629,7.7634673,7.6201606,7.6366553,7.8271065,7.6062474,7.74685,7.6232634,7.593111,7.703228,8.465491,8.354135,7.9883537,7.939549,7.8967485,7.5736423,7.7008247,8.669598,8.46942,9.187896,9.031543,8.294671,8.009589,7.7002573,7.9638705,8.755207,8.486218,8.964228,10.271451,9.157667,8.553044,7.678268,7.498265,8.204933,8.728212,9.397615,9.422897,9.336348,8.318462,8.5562935,9.9030905,9.455021,10.096873,11.128827,11.4913225,11.07004,9.874705,1.2327985,1.4871542,1.3407494,1.0286717,1.4374355,0.98407066,1.6425194,1.7733678,1.9958725,1.6427317,1.5013272,1.6636145,1.4407079,1.5132462,1.8607992,1.857387,1.6179365,2.0896444,2.2846441,2.2231236,2.1793342,2.012465,1.8279626,1.5922716,2.1023633,3.2749119,3.8281956,4.1840234,3.725789,3.4394047,2.8510137,2.126527,2.7869856,3.977497,5.2125616,5.1748815,5.6263204,5.135989,4.1034155,2.873818,2.884765,4.789717,5.7386274,6.3052735,5.9917374,7.104693,5.9402394,3.7521987,3.0593734,4.3729815,5.290841,5.33085,5.716804,6.068871,5.102231,2.4282808,2.5149305,3.9502757,2.8482327,3.4263005,3.7612462,5.0064297,3.4548502,2.3195574,0.030236537,-0.008365376,0.023356326,0.019684764,0.011948273,0.029900517,0.01912126,-0.022593854,-2.5172558,-2.6194894,-2.0367477,-1.1149188,-1.9925338,-1.4094694,-2.1598787,-1.2645533,-0.3315363,-0.4883056,-1.0758792,-1.5594112,-0.85698366,-1.3044801,-0.50602925,-0.4740213,-0.42816982,-0.4939366,-0.5762086,-0.5668925,-0.86202866,-0.8146415,-0.6490979,-0.29071146,-0.32266316,-0.61516273,-0.33621228,-0.80208105,-0.47550768,-0.4892847,-0.7306627,-0.1198036,-0.22181599,-0.37534583,-0.21309242,-0.28777754,-0.44146794,-0.24965233,-0.4632296,-0.30944312,-0.38312757,-0.40511242,-0.5757029,-0.40744287,-0.1534327,-0.44600657,-0.7863815,-0.40877903,0.0070469067,0.031208646,0.02795864,-0.008967646,-0.014702937,-0.017501527,-0.027537668,-0.0040459335,-1.4939259,-2.52197,-2.1633227,-2.715528,-2.1173978,-2.6369152,-2.7036948,-2.1008515,-2.737597,-2.378435,-2.676793,-2.8704236,-2.9925966,-3.265306,-1.9527493,-2.6178,-2.1253774,-2.9313092,-2.7227416,-3.2380824,-3.1799521,-3.465627,-3.456504,-3.1191204,-2.8237295,-2.5739772,-2.6943274,-2.815191,-2.6943893,-2.8477836,-2.6531131,-2.9395354,-2.0825791,-2.2818437,-2.4952502,-2.590695,-2.6932552,-2.4390106,-2.64458,-2.3266978,-2.166993,-2.3636973,-2.3439114,-2.5056062,-2.6717906,-2.4400518,-2.7099197,-1.9466906,-1.5817118,-1.9067025,-1.9263245,-2.1520941,-2.2270203,-2.1298048,-1.7253468,-1.6375802,-1.0760286,-2.0005229,-1.7219315,-1.8511539,-1.8048354,-2.0098674,-1.9560075,-0.86323786,-2.3754647,-2.0090349,-2.5436203,-2.173201,-2.1127882,-1.8968165,-2.1769571,-2.5858948,-2.396655,-2.3801804,-2.7050598,-2.7680123,-2.819387,-2.5401213,-2.6016319,-2.5738878,-2.81044,-2.790822,-2.5385919,-2.8788579,-2.7225924,-3.367404,-3.257501,-2.712812,-2.1424673,-2.3085194,-2.9217906,-2.7530358,-2.560926,-2.9366555,-2.4522285,-2.5843647,-2.0164206,-2.3427022,-2.7080898,-2.7091548,-2.4956076,-2.618135,-2.5167205,-2.533615,-2.3338506,-2.3941903,-2.3835292,-2.5705395,-2.4895122,-2.3128693,-2.738607,-2.8219297,-2.3131235,-2.4613764,-2.5990403,-2.451091,-2.3644032,-2.5584497,-2.7470276,-2.5019903,-2.4927566,-2.26285,-2.3201227,-1.9545434,-2.1219587,-2.2177942,-2.1117132,-1.987045,-3.55281,-3.5390306,-3.6100094,-3.9431825,-3.9873822,-4.0056295,-3.720252,-3.5877242,-3.651914,-4.0374513,-3.9327686,-4.1965322,-4.1952987,-3.893574,-4.087733,-4.1883726,-3.7651434,-3.9820824,-3.7955828,-4.2089357,-4.2235518,-4.237959,-4.278995,-4.180722,-3.5647023,-3.8567035,-3.7309496,-3.9013643,-4.0222025,-4.088137,-4.1428947,-4.2842984,-3.3712387,-3.3892074,-3.430072,-3.6657684,-3.7789454,-3.3893821,-3.7888741,-3.5101519,-2.9418654,-3.2958126,-3.3537254,-3.3441935,-3.4887922,-3.684272,-3.873086,-3.3919642,-3.1142035,-3.3552608,-3.488127,-3.4480705,-3.873412,-3.316358,-3.5329971,-3.0305274,-3.446114,-3.5316372,-3.5481577,-3.6762145,-3.5767746,-3.6107368,-3.8535979,-3.6570566,-7.036825,-6.9961925,-6.846919,-7.113506,-7.28438,-6.865293,-6.70722,-7.3544946,-7.547963,-7.2594013,-7.5579486,-7.5872793,-7.893725,-8.199903,-8.139349,-8.047307,-7.090054,-7.1506925,-7.6144605,-7.4032555,-7.742621,-7.793708,-8.490524,-8.28093,-7.2093496,-7.241004,-7.5229163,-7.355834,-7.732362,-7.6128483,-8.064335,-7.8480635,-7.2177186,-7.4143524,-7.6008725,-7.362831,-7.6096473,-7.9471793,-7.6033363,-8.073896,-7.1901307,-7.2185144,-7.3137417,-7.803719,-7.686906,-7.561747,-7.772061,-7.5001855,-7.172713,-7.205259,-7.552366,-7.626188,-7.587476,-7.462869,-7.4735417,-7.676333,-6.8048363,-7.27091,-7.329629,-7.5632815,-7.4851933,-6.5792437,-6.5000186,-7.0665054,3.2796254,2.8724327,3.9385881,4.245276,2.668331,2.960055,3.519388,4.6015415,3.2873278,3.3759313,4.054348,4.637688,3.8551393,3.374298,2.6803617,2.7168632,3.132285,3.262127,3.6111555,3.7485807,4.350847,3.84394,3.6599078,2.955685,3.368694,3.080684,3.1448815,3.5922852,3.1981273,3.4580095,2.9083624,2.7830422,3.2376325,3.390373,3.5152898,3.4557073,3.529415,3.2557328,2.6764133,2.4333084,2.9830227,3.1801815,3.2212608,2.9355764,2.8784118,2.80281,2.3655977,2.7138577,3.0548916,3.2919326,2.8986208,2.7072604,2.4242187,2.2051885,1.914327,1.8200667,2.8427296,1.9896992,2.2509775,3.0976064,1.8912681,2.6286106,1.4634192,1.6711178,0.0012282472,0.028276997,-0.0006074239,0.020711297,0.008442473,0.034830417,-0.0161931,0.0072956295,-2.3322377,-1.8921617,-1.48453,-2.0171804,-2.6390579,-1.5192916,-0.8317597,-1.3005322,-2.1379068,-1.7538966,-1.5758471,-1.9456937,-1.3246512,-1.3759519,-1.1336282,-1.3064737,-2.4894931,-1.6697155,-1.6470382,-1.4929305,-1.2731177,-1.4582257,-1.1277503,-1.6405274,-2.220952,-1.9289429,-1.3841013,-1.772967,-0.8736984,-0.9675864,-1.087697,-1.6128421,-2.533504,-1.9609263,-1.5777183,-1.1803163,-0.42052102,0.3828648,-1.4833529,-1.3093736,-0.5183368,-1.3350505,-0.3052496,0.10627183,0.47199544,-0.89630616,-2.01759,-0.9909712,-0.027646167,0.015560619,-0.016914757,-0.001455152,-0.012802591,0.033217173,-0.035617527,0.011697086,-1.9647812,-1.7234752,-2.979909,-2.7067263,-2.5067685,-2.3105958,-2.0867643,-3.2350378,-2.3829992,-3.2312572,-2.7026925,-2.9118822,-3.0030909,-2.7098293,-2.1264534,-4.115443,-2.4951413,-2.8931184,-2.8622756,-3.3021634,-2.7221732,-2.982249,-2.5898929,-2.6589785,-2.7989736,-3.1472824,-3.3713012,-3.2414112,-3.1447263,-3.2034724,-2.6698813,-3.1211298,-2.4399853,-3.4431074,-3.082684,-3.782743,-3.4490848,-2.773138,-3.2484694,-2.2981734,-2.3664856,-2.6728113,-2.9872236,-2.7966647,-2.1091852,-1.521727,-2.127871,-2.103652,-3.3227217,-3.0534139,-3.0698562,-1.7270274,-1.3539307,-1.2216152,-1.9456077,-2.3471806,-4.529463,-2.9346597,-2.2989902,-1.9005679,-2.3323352,-2.3562005,-2.2453449,-4.0755644,-2.5841897,-2.605359,-3.2211313,-3.0454369,-3.0809433,-2.6156888,-3.3120716,-3.0951297,-2.812722,-3.3543925,-2.587455,-2.9613492,-3.1815143,-2.9888632,-2.7502275,-2.36468,-3.5540502,-2.792638,-3.2814445,-2.6747117,-3.4878397,-2.9698997,-3.0569448,-2.7239177,-3.467952,-3.4491732,-3.1022866,-3.6081948,-3.1028268,-3.1012065,-3.1666048,-3.538476,-3.6452887,-3.488427,-2.8696542,-3.2669837,-3.266917,-2.8413215,-4.144318,-2.700057,-2.8988883,-3.1651542,-3.286545,-2.5076458,-2.2136872,-1.6457415,-1.6574777,-2.9510236,-3.306658,-3.7083015,-3.1431682,-1.4661902,-3.160435,-2.005426,-3.044753,-2.837737,-3.6808357,-2.8271766,-1.8715619,-2.6331043,-2.7110896,-3.0552301,-2.1977642,-4.4185348,-8.608327,-7.87875,-8.050543,-8.082309,-7.9867005,-7.993548,-6.7581234,-7.648589,-7.8139734,-7.410501,-7.40649,-7.4232035,-6.9635434,-7.141321,-6.047764,-6.6855917,-7.706655,-7.0416894,-6.8570414,-7.3428855,-6.796358,-6.713666,-5.586168,-7.1123037,-6.943037,-6.6343436,-6.0211153,-6.6294813,-6.5106378,-6.475448,-5.108121,-6.407335,-5.908551,-5.3617463,-5.2913823,-5.504094,-4.092048,-4.1299143,-3.6387088,-3.9299743,-4.786752,-3.8224468,-4.4524164,-3.8182733,-2.4729173,-2.3351877,-2.9398284,-2.848485,-4.2383475,-4.655787,-4.4794784,-2.7879298,-3.255303,-2.9929461,-3.4814918,-3.0887194,-3.8095589,-4.3174634,-3.735632,-3.6069973,-3.3030531,-3.4347773,-3.905557,-3.7007287,-10.685467,-9.546455,-9.013551,-8.821945,-8.798515,-9.138767,-10.231189,-9.007618,-10.125866,-9.133556,-8.88524,-8.99237,-9.274038,-8.753411,-8.50792,-8.707452,-9.334382,-9.477542,-9.343609,-9.24817,-9.004103,-9.377882,-8.977325,-9.171063,-9.143571,-9.194144,-9.701586,-9.7066,-9.22453,-9.562126,-9.175952,-9.355521,-9.277293,-10.032286,-9.209293,-10.229603,-9.397061,-9.064899,-8.745106,-9.080922,-9.494103,-9.23942,-9.405671,-9.361604,-9.239259,-7.9077954,-7.6504292,-8.742539,-9.33375,-9.937007,-9.640731,-9.169889,-8.099278,-7.4025984,-7.541702,-8.496692,-9.515596,-7.0512743,-7.3325677,-7.125961,-6.576809,-6.1229887,-6.523994,-7.7800746,1.9201523,2.0745633,1.8802737,0.7150882,2.6563747,1.4201577,2.3095508,2.4911833,3.7305045,2.277693,2.8970506,1.3116792,1.5221008,1.7149779,2.04904,2.4697683,2.2282996,2.8345406,2.9336236,2.379573,2.7009916,2.4085424,2.3169982,3.201462,3.5232806,3.682466,3.2247133,3.7291389,3.1559258,2.743376,3.2671125,3.2166936,3.0432317,3.0890431,3.6312091,3.8528647,3.6078792,3.6439123,3.2309353,3.1269693,2.3685982,3.5472312,3.8251007,4.180252,4.0227036,4.3626194,3.4029822,2.5342815,2.1006978,2.856629,3.921885,3.403002,3.9963007,3.7640877,2.5977938,1.426396,1.8972328,2.330288,1.1372752,2.5373423,1.9846076,2.7713485,1.7833906,1.5662633,-0.011172902,0.0055584777,-0.008419739,0.012356799,0.028733013,-0.025687037,-0.033285424,-0.011991246,3.8087459,3.5071132,3.3587692,4.7986083,1.9930003,3.4465659,3.4732258,2.959479,3.4179094,2.9384634,2.7176664,1.9600972,3.4216294,1.6862161,1.9281038,2.8352463,2.5550716,2.2302716,1.7291709,2.193451,1.842767,1.8161199,2.20909,2.421571,2.4177182,2.2524858,1.7379401,1.5047886,2.076584,1.933612,1.6432076,2.2525938,2.1376073,2.5744176,2.0222263,1.6186236,2.257462,2.1257153,2.0137703,1.8485702,2.5229418,2.232637,1.4818252,1.655307,2.3433576,2.3091438,1.9884279,2.1161206,0.009080047,0.021015704,0.019216096,0.012122771,0.011270634,-0.014435738,-0.008093649,-0.008721053,2.1822433,2.6524556,3.215126,3.0539486,3.2711654,2.6030252,2.2453177,2.4702861,2.095874,3.2416162,2.7168372,2.8589933,2.5455983,1.5993413,3.8698323,2.5963874,3.5202186,2.369978,3.2308993,2.2246687,2.6409938,2.5937796,2.2588959,2.1102586,2.9667304,3.184965,3.2462993,3.2751436,3.7751346,3.1650245,3.3602128,2.6110957,2.8336592,3.0932727,3.1274438,3.3233626,3.1377203,3.3519537,3.178134,2.6287413,2.074468,2.980559,2.5653017,3.6806269,3.3166437,2.603911,2.2054424,2.3471594,2.7882366,3.0096817,2.5327203,2.3170679,3.0071328,2.7911053,2.411077,2.90837,2.9089327,1.0949105,2.4276843,2.820181,2.4289076,2.5362802,1.7164942,3.772974,4.100944,4.2114244,2.5796535,4.253294,3.6746488,3.2126958,4.337879,2.6195765,3.2029,3.5425575,2.9555943,3.1236973,2.314103,3.3519473,3.6379826,3.1702058,2.9090788,2.92387,2.951161,2.7320943,2.6763837,1.9654531,2.7028825,2.265851,2.7059429,4.1753807,3.2815707,3.5895107,3.4663966,3.5081506,3.625167,2.783995,3.2826362,2.8130646,3.4181423,3.5623927,3.4017048,3.2355762,3.3366573,3.2698405,2.5784411,3.3217583,3.0924408,3.0533469,3.2104177,3.4548748,3.4582355,2.8913226,3.0936816,3.0846987,2.6786995,2.866302,3.114255,3.3216755,2.9805737,2.9060507,2.9257367,2.098462,2.231667,3.1019135,3.625156,2.7039132,3.3528776,3.2550027,6.1839275,5.8923244,6.465381,5.818304,6.0981083,5.948064,5.7971377,7.0368533,6.1337113,5.4035063,5.684329,6.0671515,5.6392074,5.8480525,5.1387753,5.530193,5.321872,5.68138,6.054008,5.129157,5.029968,5.726894,5.6415725,5.497408,5.1027336,5.0703163,5.230763,5.227786,5.113256,4.671883,5.058245,4.8436995,5.1072583,5.2896323,4.995748,4.8666654,5.3086224,4.8692145,5.097084,4.5381536,4.893452,4.8463173,4.7500367,5.6307607,5.1569786,4.7365766,4.264434,4.499618,4.707313,4.839553,5.2245536,5.1224937,4.5254364,4.520956,4.7160897,4.6495132,4.2749043,4.7921515,4.4988375,4.462983,4.1071453,4.147221,3.6779642,3.2893822,10.621894,11.065382,11.11904,10.657943,11.36412,11.567577,12.442833,10.26878,10.131789,10.792986,10.021469,10.463264,10.319514,9.0288925,10.155692,9.561311,10.545921,9.845543,9.856892,10.103129,10.001213,10.28244,9.849384,9.474001,9.460403,9.6379175,9.899928,10.375277,10.357743,9.728343,9.863943,9.061018,9.282453,9.294582,9.564172,9.945635,9.810687,9.918051,9.168945,9.335748,9.25407,9.297859,9.470901,9.295578,9.357334,9.204108,9.185366,8.518645,9.813332,9.264784,8.758847,8.785677,8.8936,9.034644,8.394673,8.381322,9.974714,9.550754,9.324271,8.562482,8.665009,8.959769,9.07109,8.405307,2.804308,2.988801,3.4704225,3.567314,2.7694392,3.0831823,2.9026344,2.7733479,3.0884192,3.2546706,4.2169256,4.0295753,4.166452,3.3018913,3.0577316,2.427596,2.8705323,3.2407598,4.4407334,4.203226,4.2691207,3.8923953,3.6508353,3.5223405,2.6923132,3.5362062,3.855374,3.4305894,3.6602774,3.6413143,3.334445,2.6174908,3.4225118,3.6528614,3.954469,3.765567,3.7140288,3.031221,3.2332158,2.8392062,2.8389342,3.1703184,3.6330533,3.7872858,3.3673728,3.168012,2.8753781,3.0542817,2.6671727,3.7668138,2.8871295,2.7168045,2.647889,2.4212296,1.6160187,1.5370854,2.1062243,1.5597098,1.4463662,2.5748832,0.9132864,2.6790092,1.2915052,0.97242373,0.010247814,-0.013087529,0.025114601,-0.027640568,0.018677907,-0.0046265284,0.0053850845,0.017638452,0.3918892,0.65923464,0.5762304,0.32482192,0.19933195,0.740532,1.2017437,0.79959303,0.5310174,0.7676159,0.53828955,0.5463111,0.57447934,0.7555947,1.1831181,0.9202503,0.5712821,0.7773472,0.6615832,0.76913244,0.8369253,0.9419345,1.1777123,0.74306047,0.97635585,1.1484064,1.0112062,0.98931205,1.3580263,1.3635437,1.2593806,0.9573644,1.8328304,1.9925085,1.7219397,1.9785733,2.1910398,2.6084762,2.3397753,2.1504524,3.9279816,4.3417144,3.8739235,3.538664,3.671464,3.4762182,3.4691813,3.2254324,-0.030313173,0.0051255394,0.031054808,-0.030836184,0.035514437,-0.015704783,0.024084706,0.00465602,1.7113216,2.153576,2.467631,2.2265458,2.200428,2.24079,2.043481,0.9323818,1.8907787,1.8986651,2.456873,2.309614,2.505455,2.3682477,2.3403132,1.6991274,1.958074,2.3631585,2.4724197,2.5556393,2.9780571,2.6505928,2.9874158,2.2926009,2.2308855,2.5499802,2.8069577,2.6960647,2.917601,3.1375058,3.0068464,2.6417973,2.5322578,2.8386514,3.1661842,3.1164575,3.2557087,3.592348,3.138428,3.2070417,2.3464901,3.101385,3.292561,3.2505472,4.422344,4.65612,3.846697,3.1448483,2.2621522,2.6406448,2.9270713,3.322269,3.8884733,3.7254112,2.539364,2.7723835,1.3936111,3.0300922,2.5229814,3.3501954,3.4762836,3.5526707,2.727025,1.5821295,2.9372482,3.0479534,2.6228604,2.703109,2.4025133,2.6801143,2.4110358,2.3329866,2.9460769,2.790652,3.1780477,2.8028753,2.8897223,2.9599473,3.1640418,2.7073348,2.7183201,2.9610496,2.9296148,3.132192,3.0231352,3.1901474,2.8479,2.9893765,2.6756318,2.8840318,3.1959977,3.3826494,3.5109181,3.0008101,3.2974434,2.9189465,2.5933764,2.9694657,3.320778,3.781111,3.6832392,3.5297892,2.8195655,3.0201082,2.90409,3.1449676,3.3449814,3.6523578,3.748765,4.5062113,3.8528845,3.2023447,2.6244676,3.3863947,2.8820016,3.3368134,3.4216404,3.5334396,3.1479251,2.9562829,2.6615047,3.2538073,3.4250617,3.641485,3.444743,2.7073262,3.9816058,3.0425398,2.7886448,2.8283336,3.0523489,3.0011969,2.9504688,3.0424106,3.2068934,2.7257555,2.4242172,2.9453452,2.9080672,2.8515818,3.1046214,3.1767013,3.266428,3.0055888,2.8141253,2.885734,3.1793358,3.2516007,3.0669396,3.0672739,3.55799,3.1373844,3.0544105,3.1247225,3.7241282,3.3822963,3.7758892,3.07238,4.1062293,3.4536874,4.0322623,4.1454186,4.2412214,4.388103,4.4360404,4.561753,5.115686,4.5924892,4.4463234,4.842771,5.0051556,4.9986563,5.942557,5.984215,5.2599807,5.1916766,4.8323545,5.202308,5.2912855,5.9844685,5.837981,6.0795617,5.827115,5.902236,5.3213954,5.1004972,5.197806,5.229726,5.9023614,5.6893635,5.4421053,5.550466,7.18893,7.0027075,7.1880565,7.5938916,7.202786,6.969167,6.6507254,7.434002,7.3018885,7.3570175,7.5109477,7.462514,7.7465,7.522548,7.614068,7.716524,7.4384756,7.548443,7.810722,7.595722,7.518255,7.796787,7.560817,7.7634873,7.603656,7.5147448,7.611829,8.365141,8.255216,7.937671,7.8841085,7.859608,7.5695853,7.614779,8.607257,8.3123865,9.021083,8.929911,8.182815,7.9305215,7.658326,7.888703,8.687295,8.361794,8.772245,10.151532,9.170719,8.433108,7.535344,7.501623,8.170986,8.697032,9.262106,9.329685,9.220745,8.221122,8.442343,9.815454,9.435808,10.027407,11.034456,11.374859,11.024065,9.751699,1.2743852,1.4288958,1.3349442,1.0478467,1.4847326,0.98197,1.6190666,1.7809055,1.9661033,1.6059717,1.4987189,1.6194166,1.4271088,1.4865574,1.8112366,1.8723317,1.6217092,2.0890155,2.2694268,2.236713,2.118491,1.9433038,1.828167,1.6444072,2.1052928,3.227925,3.809857,4.1542473,3.6489296,3.3716085,2.7833235,2.099235,2.8104658,3.9510396,5.082617,5.0341835,5.586192,5.0896316,4.1488733,2.7995481,2.8780293,4.7106957,5.677445,6.200559,5.915561,7.011318,5.8324504,3.66109,3.0186756,4.3324785,5.21939,5.183074,5.665602,6.041889,5.0467763,2.3971703,2.4628112,3.957654,2.907495,3.3614655,3.7688572,4.916879,3.4837167,2.2835827,0.025742497,-0.028101742,0.014030193,0.029643867,-0.0084186895,0.031989772,0.018576454,0.033797815,-2.4435062,-2.4908957,-2.1505375,-0.9834502,-1.891909,-1.4035447,-2.0130348,-1.0945892,-0.23670238,-0.45648968,-1.0810474,-1.5849849,-0.78715765,-1.2618647,-0.45961687,-0.50868624,-0.47641507,-0.49722803,-0.53447783,-0.58567554,-0.8193914,-0.82536083,-0.6040362,-0.34927142,-0.28992632,-0.61157054,-0.31543645,-0.7282791,-0.48651135,-0.47879288,-0.7505403,-0.09377114,-0.25786677,-0.38534048,-0.27191412,-0.24957122,-0.43013942,-0.24387528,-0.41909093,-0.25863954,-0.33586267,-0.3231395,-0.5130305,-0.38289204,-0.14054538,-0.44866103,-0.7582386,-0.36545938,-0.030099949,-0.02372342,0.007724395,0.017953247,-0.03331965,0.027356021,-0.031499445,0.0003512123,-1.5257626,-2.4144518,-2.2391982,-2.6735048,-2.1430156,-2.5981467,-2.638269,-2.0910866,-2.763188,-2.3559668,-2.7226083,-2.8058805,-3.0206614,-3.206485,-1.9565389,-2.619193,-2.0054157,-2.9399185,-2.5781746,-3.197487,-3.1823692,-3.4065356,-3.426416,-3.0840874,-2.777147,-2.552353,-2.649912,-2.826897,-2.6469688,-2.8384597,-2.618577,-2.894918,-2.0700614,-2.2247071,-2.4750357,-2.605332,-2.7100317,-2.4439523,-2.6729424,-2.3031309,-2.2068763,-2.3556488,-2.2952807,-2.4433103,-2.6817281,-2.4013474,-2.7171488,-1.9995375,-1.6286961,-1.9191471,-2.0144155,-2.241767,-2.2372057,-2.2318757,-1.8034188,-1.6482279,-1.1355554,-2.0032012,-1.7635049,-2.0269008,-1.8888748,-2.0866537,-2.0397804,-0.95743006,-2.3566349,-1.9965355,-2.5407782,-2.1502151,-2.1389961,-1.8791897,-2.1255243,-2.631417,-2.373355,-2.3909032,-2.7510831,-2.7354767,-2.7730434,-2.5596807,-2.5848546,-2.593182,-2.835018,-2.8069844,-2.538232,-2.826629,-2.7322,-3.2998688,-3.2432146,-2.7182739,-2.0816588,-2.3233218,-2.9451554,-2.7755644,-2.4567692,-2.9177146,-2.4192557,-2.4902875,-2.1108377,-2.3598378,-2.6946876,-2.7056248,-2.5329301,-2.5360131,-2.5338924,-2.5207322,-2.3142083,-2.402306,-2.387201,-2.6220663,-2.4776533,-2.2755344,-2.653758,-2.7711673,-2.340472,-2.4732242,-2.530142,-2.4141908,-2.39802,-2.566246,-2.722245,-2.5177138,-2.537709,-2.175328,-2.3228652,-2.0109534,-2.160304,-2.2647417,-2.2030218,-2.0478246,-3.5706646,-3.5312216,-3.6348884,-3.9033864,-3.9199378,-3.9761674,-3.7277741,-3.6536815,-3.5944579,-4.022424,-3.9873424,-4.1917043,-4.14359,-3.924628,-4.068714,-4.1352944,-3.7258189,-3.943189,-3.7806451,-4.1988564,-4.234114,-4.1836734,-4.227103,-4.1458535,-3.5203955,-3.924848,-3.712461,-3.9025555,-4.002876,-4.028464,-4.1005645,-4.1745863,-3.4116085,-3.422194,-3.414004,-3.601589,-3.747621,-3.4193988,-3.7835112,-3.5262446,-3.0334132,-3.3474574,-3.3911974,-3.330643,-3.4553647,-3.6592925,-3.8415327,-3.4680152,-3.1361408,-3.4201307,-3.5219393,-3.4907923,-3.848158,-3.3338113,-3.522193,-3.044202,-3.4819565,-3.565723,-3.588776,-3.6735773,-3.5386353,-3.6318536,-3.837665,-3.613073,-6.964664,-6.959778,-6.8158646,-7.193364,-7.2476225,-6.8278313,-6.638639,-7.263675,-7.5782213,-7.147706,-7.6005273,-7.598734,-7.8022223,-8.18161,-8.110397,-8.029845,-7.0795636,-7.160654,-7.542446,-7.3489857,-7.67863,-7.750989,-8.396586,-8.238479,-7.208262,-7.2338905,-7.524306,-7.3121767,-7.6266265,-7.575233,-8.033465,-7.7648664,-7.1914344,-7.3984165,-7.583093,-7.3692107,-7.526481,-7.905104,-7.6377754,-8.036028,-7.19156,-7.180584,-7.3406253,-7.7966456,-7.699065,-7.579474,-7.6693335,-7.438695,-7.17994,-7.2866707,-7.5032496,-7.6049447,-7.5418534,-7.5000324,-7.463393,-7.660079,-6.769325,-7.227092,-7.2871437,-7.53987,-7.417471,-6.6663394,-6.6069098,-7.08523,3.3680966,2.9505074,3.9182444,4.2865434,2.7731915,2.918325,3.4035878,4.414812,3.3375516,3.4153922,4.0092673,4.639679,3.8418431,3.3610687,2.7053185,2.7690651,2.9480653,3.2601273,3.6449964,3.7058985,4.3386297,3.850531,3.6413722,2.918182,3.4582372,3.1437364,3.171857,3.5854716,3.2170088,3.4522557,2.8391933,2.776853,3.1853895,3.3933406,3.5288596,3.4456477,3.5214856,3.272066,2.7042894,2.433759,2.8418584,3.1872594,3.2329056,2.8957698,2.8873491,2.7907908,2.3461585,2.6348073,2.976878,3.2217927,2.7509637,2.7271821,2.4137256,2.171952,1.9288591,1.7848899,2.799448,1.937352,2.187999,2.9888802,1.8390671,2.5235689,1.4435148,1.5960046,0.009705154,0.011931002,0.019036151,-0.012912888,0.035777465,0.020201497,0.03386539,0.034785606,0.428108,0.67186487,0.60582536,0.30033436,0.2158108,0.7600501,1.2554517,0.8785106,0.50231165,0.81745046,0.5908345,0.52505463,0.5559805,0.749122,1.2204808,0.9154443,0.5640888,0.8212545,0.7156627,0.750633,0.8329497,0.98035514,1.1912855,0.73463243,0.9944878,1.1848818,1.0744741,1.0603493,1.3867629,1.4400352,1.2952591,0.99026126,1.8864889,1.998628,1.8170995,1.9348346,2.241659,2.6444435,2.3861575,2.2678657,3.989173,4.4281416,4.0051775,3.6759267,3.7376451,3.5210342,3.453487,3.1410637,0.018625487,-0.018901318,-0.03363778,0.028650254,0.013311534,-0.010695824,0.023850648,0.0079826545,1.6764272,2.1562486,2.4232156,2.1997285,2.1441245,2.2529523,2.0231848,0.9578945,1.8404038,1.9232014,2.5273874,2.3349187,2.5286968,2.3913257,2.3488288,1.6881822,1.933166,2.3586261,2.531119,2.5664587,3.022256,2.6520925,2.901082,2.3254342,2.2900145,2.5695243,2.7844574,2.6972709,2.8985689,3.1848884,3.0033798,2.668431,2.4921267,2.8362274,3.1884627,3.083786,3.286056,3.6205077,3.2090771,3.2635326,2.3805437,3.0599618,3.3622968,3.3134055,4.409705,4.6613235,3.7667997,3.1807885,2.2786088,2.7242286,2.9207215,3.250089,3.8842335,3.8108578,2.5676608,2.7856054,1.3602965,3.0574877,2.5519617,3.3976924,3.4212046,3.5729353,2.8083398,1.5987786,2.9031916,3.0169318,2.6524367,2.8325906,2.325295,2.6761332,2.39377,2.2948172,2.904108,2.80199,3.2303882,2.734611,2.8708725,2.984775,3.2109225,2.72665,2.7562938,3.0045283,2.9619207,3.164906,3.0401838,3.2184465,2.891555,2.9917214,2.6645343,2.958238,3.2526522,3.4156425,3.571506,3.103304,3.326837,3.0301704,2.6371036,3.000924,3.3174098,3.8799984,3.7247849,3.5655258,2.8001454,3.0406013,2.950398,3.1267579,3.332833,3.642905,3.7907333,4.523983,3.862285,3.1488125,2.6460059,3.2891614,2.8999147,3.3384926,3.397129,3.5878873,3.2257361,2.9471319,2.8081841,3.254501,3.4395323,3.7249207,3.386264,2.724493,3.9495785,3.052082,2.7824938,2.8877525,3.0571706,3.0470867,2.9725904,2.9849074,3.1998744,2.76936,2.4773042,2.9364355,2.9308424,2.8994093,3.1089518,3.16329,3.2689831,3.0166662,2.8438015,2.9375706,3.1838493,3.2222514,3.0004976,3.0597117,3.5629294,3.171695,3.0607018,3.1602175,3.7372983,3.4329338,3.8192453,3.0582376,4.142666,3.4714532,4.1231413,4.156972,4.354832,4.418118,4.498172,4.6619577,5.1429176,4.614265,4.4593515,4.8820586,5.017387,5.062564,5.953637,6.0516596,5.307778,5.2853327,4.8871174,5.267178,5.284869,6.07514,5.9014215,6.1397066,5.9391456,5.9265313,5.349716,5.1376553,5.242424,5.387795,5.9901,5.7074685,5.4729595,5.617935,7.1653743,7.0040174,7.197028,7.6596475,7.22613,7.007157,6.592608,7.399084,7.299714,7.287963,7.4857607,7.475911,7.7332044,7.5716085,7.635284,7.726478,7.477164,7.536153,7.746485,7.6185837,7.603156,7.826967,7.609791,7.764155,7.6462545,7.5393615,7.627794,8.379313,8.171021,8.034476,7.9286675,7.8834305,7.6916456,7.7173305,8.671362,8.339011,9.143553,9.0145,8.248848,8.0379,7.7178807,7.863397,8.777972,8.392941,8.894744,10.206937,9.170775,8.530916,7.6435137,7.531765,8.165362,8.705669,9.333784,9.5183935,9.291507,8.32152,8.49607,9.843355,9.468892,10.045258,11.079365,11.345043,11.007927,9.786422,1.2812184,1.4561502,1.3539711,1.028229,1.5078821,0.984815,1.668701,1.7873482,1.936074,1.6683207,1.4966891,1.652468,1.3956184,1.5272596,1.8175153,1.8663622,1.5843353,2.1225827,2.2904842,2.1862593,2.1506846,2.006418,1.8489219,1.6134481,2.0580397,3.20137,3.8540144,4.1699834,3.7253575,3.4118006,2.8472006,2.1474082,2.775476,3.9425373,5.160079,5.099032,5.6381354,5.148028,4.107324,2.8129168,2.8696692,4.7203827,5.7014704,6.2390246,5.9276505,7.086115,5.980174,3.716593,3.0725935,4.3383026,5.25678,5.2221074,5.6901355,6.0186615,5.1242657,2.4321642,2.443575,3.9756167,2.9713314,3.469794,3.7125058,5.022553,3.4687982,2.269437,0.019750282,0.0359645,-0.023832116,0.02594212,0.033739146,-0.00045040276,-0.0024148636,-0.0037328936,-2.4237912,-2.5088449,-2.1206574,-1.1296911,-1.9652313,-1.4064579,-2.0892365,-1.2251648,-0.33052298,-0.4334833,-1.0850571,-1.5677623,-0.86409146,-1.2795666,-0.4539277,-0.4778041,-0.4394158,-0.47230375,-0.5695632,-0.6618363,-0.83438337,-0.79625326,-0.6244609,-0.31409493,-0.31224862,-0.6023114,-0.333243,-0.7454221,-0.42991763,-0.42844477,-0.7343569,-0.10824452,-0.24063788,-0.3903931,-0.2337964,-0.27547053,-0.40066832,-0.2227107,-0.4317128,-0.30181563,-0.3781908,-0.32617056,-0.53279567,-0.41494304,-0.103894964,-0.46098685,-0.79205257,-0.3969031,0.0139723625,0.0014842395,-0.010704591,0.026957517,-0.03416853,-0.023272768,-0.02366731,-0.007039779,-1.5342621,-2.4965005,-2.2518137,-2.71829,-2.1595876,-2.6489217,-2.6932504,-2.1084852,-2.7254727,-2.3798044,-2.6791234,-2.85134,-2.9828112,-3.2598708,-1.9785988,-2.6072226,-2.0182796,-2.9216926,-2.6729052,-3.223845,-3.1916792,-3.4744833,-3.432583,-3.086869,-2.793592,-2.56885,-2.6988943,-2.796242,-2.7383254,-2.848409,-2.6733,-2.9239824,-2.1109438,-2.2527454,-2.4920924,-2.6126635,-2.7069702,-2.470309,-2.7373216,-2.3501272,-2.1744988,-2.330787,-2.333451,-2.4753458,-2.723328,-2.386521,-2.7056673,-1.9370378,-1.5839218,-1.9590081,-1.9376043,-2.2128296,-2.2498226,-2.2404873,-1.8045689,-1.6352936,-1.1285342,-1.9894185,-1.7319931,-1.9556417,-1.8274226,-2.0945976,-1.9936235,-0.9439534,-2.3820732,-2.036225,-2.5588994,-2.2827666,-2.144901,-1.8546287,-2.1687331,-2.6444004,-2.3424459,-2.4344196,-2.7030783,-2.7455738,-2.8235776,-2.5583694,-2.6012328,-2.648397,-2.81216,-2.78336,-2.5275252,-2.862156,-2.7047694,-3.2995546,-3.2943192,-2.7090855,-2.082711,-2.303192,-2.9425182,-2.7742772,-2.542555,-2.9190907,-2.46004,-2.5254922,-2.0476048,-2.3086698,-2.7041483,-2.714345,-2.5040886,-2.596417,-2.5248306,-2.5213492,-2.3333595,-2.41015,-2.371485,-2.5791252,-2.5028093,-2.3138642,-2.7033236,-2.7839506,-2.3274977,-2.4330132,-2.597522,-2.4916158,-2.391069,-2.5507212,-2.7632601,-2.5805087,-2.5018494,-2.184839,-2.3147902,-1.9726377,-2.1313848,-2.1868594,-2.168845,-2.052375,-3.5579503,-3.5736063,-3.6389704,-3.9210706,-3.9634848,-3.8989005,-3.7262144,-3.592993,-3.6489644,-4.07708,-3.9542344,-4.2093043,-4.186351,-3.972352,-4.1255608,-4.179784,-3.81597,-4.0223517,-3.8033626,-4.233704,-4.202595,-4.218093,-4.262934,-4.1004963,-3.5898118,-3.8068864,-3.7598763,-3.9550202,-4.023319,-4.072526,-4.1468186,-4.1930375,-3.3959804,-3.4272015,-3.4557023,-3.6415348,-3.7493703,-3.4319272,-3.8568025,-3.5405543,-2.9642718,-3.3041596,-3.347854,-3.3317544,-3.483033,-3.6861577,-3.8374941,-3.430972,-3.1164477,-3.3672945,-3.493694,-3.5006025,-3.8825216,-3.3652234,-3.5140448,-3.131207,-3.452279,-3.543167,-3.5510352,-3.631643,-3.5417497,-3.6635613,-3.8070881,-3.6554651,-6.9944024,-7.0068583,-6.8388977,-7.1397996,-7.314193,-6.857965,-6.6925077,-7.3462543,-7.604014,-7.185095,-7.6344976,-7.6014423,-7.8446035,-8.236051,-8.112707,-8.022997,-7.1073446,-7.1490912,-7.670019,-7.388684,-7.717431,-7.805807,-8.435946,-8.280191,-7.235798,-7.247752,-7.51301,-7.327973,-7.683084,-7.593883,-8.063416,-7.864757,-7.202751,-7.4408126,-7.552635,-7.3649764,-7.586396,-8.007851,-7.651317,-8.083686,-7.178899,-7.2805514,-7.361676,-7.826766,-7.7580123,-7.58229,-7.7717204,-7.479624,-7.26997,-7.2832246,-7.4920797,-7.6163387,-7.562044,-7.4810667,-7.470024,-7.693239,-6.828207,-7.20198,-7.3375363,-7.5418916,-7.4904985,-6.5758524,-6.5291862,-7.103254,3.2822323,2.8624544,3.8865047,4.2252703,2.7543616,2.9442887,3.5132623,4.53847,3.298174,3.4338925,4.0060387,4.694962,3.801467,3.4222832,2.7051709,2.7444901,3.1145735,3.2967982,3.6336591,3.7104423,4.334028,3.8711603,3.6503162,2.927364,3.324671,3.0766637,3.207623,3.6369188,3.2340384,3.4678268,2.8626926,2.8445578,3.1639233,3.3712544,3.5006065,3.4271286,3.5121882,3.2777069,2.7063997,2.4604533,2.8272724,3.1877794,3.202245,2.919186,2.9084587,2.8120801,2.2988503,2.6632118,3.0591087,3.280091,2.830655,2.767326,2.456895,2.1910179,1.9216052,1.8068714,2.7677996,1.9504275,2.2258747,3.0557992,1.864464,2.5787382,1.4597857,1.6377639,-0.016977685,0.017955303,-0.03085261,0.026369447,0.0049676537,0.0032879626,0.0070685223,0.008751994,0.38355744,0.6447617,0.58864295,0.32970592,0.20081964,0.7418977,1.2148651,0.85792434,0.51204354,0.8060745,0.55816394,0.5445668,0.5472343,0.79904234,1.1760515,0.95281214,0.58622056,0.81595516,0.67359126,0.7617215,0.8560234,0.9956614,1.1243954,0.7681658,1.0138853,1.20633,1.027602,0.9792694,1.3439473,1.4340042,1.2909349,0.9592213,1.8181918,2.0033116,1.7426262,1.9454244,2.2591493,2.6749723,2.3670716,2.1824436,3.9882038,4.3667564,3.930662,3.5157464,3.7542875,3.5237179,3.541162,3.2077377,0.02779078,0.0033155917,0.0140452655,0.0066715195,0.011704893,0.0054662987,0.019333938,0.0013889548,1.6537112,2.176838,2.442737,2.2153728,2.1397257,2.2568913,2.0059476,0.9455266,1.8567109,1.8768102,2.5623446,2.3237288,2.4287665,2.3793268,2.35642,1.7067118,1.9313365,2.3442206,2.470556,2.5900507,2.9710376,2.6446924,3.0138617,2.3583474,2.2452028,2.545817,2.8212802,2.7531013,2.9059415,3.2170987,2.9999063,2.6068647,2.524753,2.8234003,3.2203813,3.1643608,3.2715309,3.667119,3.2205842,3.1966336,2.3245585,3.1235352,3.3464217,3.22682,4.427073,4.7237277,3.7958858,3.199598,2.2797396,2.7224572,2.9386568,3.218278,3.8661437,3.6970625,2.5843785,2.8146582,1.3984575,3.1011062,2.519821,3.3917336,3.425422,3.5567372,2.8317962,1.6360884,2.9072475,3.0481691,2.63323,2.7374713,2.396931,2.7027001,2.4372482,2.40095,2.8705587,2.7770607,3.1742234,2.760838,2.8799963,2.9556792,3.1993303,2.7958262,2.678133,2.9779313,2.9402413,3.1496658,2.9849327,3.1995263,2.920979,2.9674656,2.6259916,2.9747484,3.2153819,3.388742,3.531685,3.0571942,3.346345,3.0131545,2.6108723,3.010158,3.3654087,3.8185017,3.6774693,3.4984272,2.8124702,3.0876942,2.9206834,3.159794,3.3801627,3.5639558,3.7354228,4.484715,3.8733299,3.1543741,2.6376674,3.3341508,2.874388,3.3506985,3.4270544,3.5868337,3.1283405,3.0063002,2.8198774,3.2746894,3.4720848,3.694638,3.4240665,2.7286882,3.986116,3.0425155,2.736735,2.821432,3.0439374,3.0372748,2.9410045,3.0623176,3.2152164,2.769218,2.4701324,2.9026601,2.957636,2.8877435,3.0533788,3.1766417,3.2527065,3.026064,2.8106546,2.924451,3.1609886,3.23701,3.029407,3.0070088,3.569434,3.143403,3.0099397,3.190696,3.7135413,3.3562772,3.7807448,3.0961225,4.1403546,3.5053508,4.01147,4.1537876,4.3007436,4.4352174,4.5378795,4.592084,5.115582,4.569893,4.4024534,4.8724394,5.0549927,5.0859427,5.949367,6.008131,5.246992,5.232286,4.8711643,5.1737566,5.32311,6.0264177,5.8248563,6.1085453,5.8695273,5.904933,5.324542,5.135276,5.238887,5.337549,5.908008,5.7080417,5.5091405,5.5849347,7.15464,6.9615855,7.129913,7.6054926,7.2394223,7.033303,6.6318326,7.4399486,7.3019123,7.367944,7.530713,7.486268,7.786147,7.55768,7.6130137,7.6587954,7.394114,7.5812736,7.840438,7.612073,7.5512815,7.7614746,7.5482345,7.745816,7.636984,7.565737,7.693131,8.370303,8.219996,7.976334,7.9105363,7.886317,7.548876,7.6945887,8.628569,8.332707,9.165428,8.948667,8.230598,7.9888854,7.656724,7.928914,8.73724,8.479979,8.83672,10.210372,9.224385,8.471494,7.5510416,7.526239,8.181972,8.719922,9.209433,9.352206,9.208213,8.241837,8.490658,9.880093,9.41516,10.039755,11.030461,11.286673,11.019048,9.811729,1.2775203,1.4481616,1.3369324,1.0609362,1.5013644,1.0085405,1.6526281,1.7569058,1.92854,1.6364768,1.5066036,1.6414273,1.4738538,1.4976146,1.8193985,1.8798649,1.6304725,2.1035786,2.2819679,2.2529736,2.1155972,1.9845626,1.8086828,1.596042,2.0629687,3.2399294,3.754939,4.1365194,3.6715703,3.4007154,2.8210833,2.116397,2.7991598,4.01171,5.1169605,5.067949,5.603774,5.117881,4.142382,2.7401996,2.7926838,4.7589006,5.7345605,6.276268,5.9113646,7.0407667,5.868983,3.7095804,3.0367486,4.3280535,5.2426605,5.2581906,5.6835713,6.0196576,5.1330075,2.4577572,2.5093648,3.9868243,3.0146646,3.4668477,3.7979138,4.9719977,3.4525254,2.2782416,-0.0017976235,-0.01014861,0.02819987,0.027981164,0.0033037968,0.015572095,-0.032884557,0.014559771,-2.3649082,-2.5411267,-2.0719218,-1.0467001,-1.9174945,-1.3127799,-2.0541244,-1.1656702,-0.31964922,-0.36948353,-1.1505253,-1.5534304,-0.7421142,-1.2819914,-0.46433455,-0.49270195,-0.46437848,-0.4822966,-0.55555105,-0.60985976,-0.85420007,-0.8020794,-0.57563215,-0.3206369,-0.32423532,-0.59738654,-0.34705812,-0.7729276,-0.48438135,-0.47168225,-0.73724055,-0.107693136,-0.2646741,-0.38160685,-0.23234944,-0.28808546,-0.38152888,-0.18811262,-0.42851952,-0.3174666,-0.35533634,-0.31129646,-0.5026259,-0.39764893,-0.12706871,-0.43670228,-0.803012,-0.36725217,0.021700818,-0.010107844,-0.0029710685,0.020868387,0.0010485782,0.016846003,-0.02999551,-0.018029545,-1.4901364,-2.5053096,-2.1707308,-2.7101543,-2.1520574,-2.609229,-2.6816103,-2.074791,-2.7484882,-2.3666692,-2.7024636,-2.829456,-2.949779,-3.2276764,-1.961418,-2.5996552,-2.0405629,-2.9516885,-2.6544979,-3.1840358,-3.1744456,-3.4297264,-3.3859098,-3.1404316,-2.7639852,-2.493452,-2.6837022,-2.836442,-2.6544883,-2.8229284,-2.6682532,-2.9197357,-2.0510294,-2.2764752,-2.4847472,-2.5722744,-2.725926,-2.4758906,-2.727696,-2.371997,-2.1656585,-2.3952947,-2.3104868,-2.4275074,-2.6654456,-2.3855622,-2.726127,-1.9300697,-1.6233722,-1.8515071,-1.9267495,-2.1694863,-2.2654374,-2.1964478,-1.8156105,-1.6034622,-1.1088713,-1.9775448,-1.7859778,-1.9753978,-1.8858745,-2.0952485,-2.063013,-0.9310553,-2.4100928,-2.0271654,-2.5531776,-2.195391,-2.097814,-1.9303023,-2.1368802,-2.5783572,-2.4154062,-2.4522922,-2.7088737,-2.7779965,-2.8405678,-2.5297446,-2.640388,-2.593457,-2.7869081,-2.832417,-2.552998,-2.846248,-2.7536354,-3.2762597,-3.2663147,-2.6933537,-2.0766382,-2.3080852,-2.9139838,-2.7414782,-2.4857037,-2.9263358,-2.4738493,-2.5343733,-2.0959172,-2.3088753,-2.7185893,-2.7100646,-2.5004323,-2.5498943,-2.5428264,-2.5271058,-2.3188841,-2.4506717,-2.4234004,-2.6072483,-2.526872,-2.354073,-2.6907408,-2.7854128,-2.3572698,-2.44414,-2.6104853,-2.463529,-2.3868964,-2.5907488,-2.7240896,-2.5278375,-2.5075707,-2.2031167,-2.3428552,-2.0175197,-2.1431603,-2.1898258,-2.1163204,-2.0522666,-3.6021419,-3.5266247,-3.6277514,-3.9264297,-3.9351513,-3.948785,-3.7044268,-3.5935564,-3.6483371,-4.0280423,-3.9810855,-4.2550597,-4.1770234,-3.9279115,-4.073022,-4.1380696,-3.8205967,-3.9225955,-3.8194232,-4.184041,-4.2185607,-4.228949,-4.305055,-4.0695267,-3.5812316,-3.8553052,-3.686558,-3.9393108,-3.9709969,-4.070575,-4.189302,-4.21345,-3.4068186,-3.447128,-3.474937,-3.5897186,-3.8204167,-3.3577645,-3.7838418,-3.537713,-3.0376132,-3.34943,-3.4015634,-3.3015041,-3.495736,-3.64269,-3.844133,-3.4830382,-3.1469276,-3.392739,-3.5015073,-3.440082,-3.8629713,-3.3644364,-3.5406888,-3.0804596,-3.4764888,-3.5266607,-3.5938861,-3.6693084,-3.5814567,-3.6554706,-3.8005662,-3.603994,-7.0053368,-6.977276,-6.8040123,-7.1281896,-7.2748632,-6.876166,-6.6637454,-7.298093,-7.6096883,-7.253616,-7.602002,-7.5591416,-7.8586745,-8.101286,-8.101001,-8.0162525,-7.1645217,-7.1529384,-7.610639,-7.4218893,-7.6819925,-7.8263493,-8.430199,-8.250753,-7.166835,-7.2302175,-7.6149344,-7.3481474,-7.6655927,-7.6588798,-8.0764475,-7.8342566,-7.164151,-7.3669395,-7.56048,-7.410441,-7.574114,-7.938855,-7.6197085,-8.035015,-7.189886,-7.22191,-7.2990746,-7.843077,-7.711501,-7.5480576,-7.71411,-7.4407425,-7.222856,-7.2820234,-7.516113,-7.5893826,-7.5329733,-7.4933596,-7.4560504,-7.687947,-6.7950315,-7.222796,-7.3230042,-7.551321,-7.449641,-6.583392,-6.553547,-7.042072,3.196711,2.891665,3.9274678,4.261345,2.784919,2.9868753,3.4623837,4.5610948,3.318647,3.4148405,4.0375867,4.702489,3.854544,3.4253888,2.6915216,2.7921438,3.1643035,3.2512095,3.6408436,3.7232277,4.36939,3.862593,3.6798847,2.9256358,3.3035636,3.1496937,3.189954,3.610199,3.2569387,3.4475455,2.9085224,2.812841,3.215125,3.4155495,3.5347612,3.3986151,3.5382545,3.2738497,2.7231054,2.4313025,2.9128687,3.157209,3.2118936,2.9375358,2.8712468,2.7759778,2.336906,2.6282148,3.0507216,3.1694837,2.7721317,2.7321177,2.4244552,2.1679385,1.9807881,1.7385055,2.7898502,1.9511791,2.1967263,2.987248,1.8567294,2.5793688,1.476235,1.6224222,0.008210957,-0.0019742383,0.015510733,0.026088031,0.010298185,0.035540935,0.0033616144,0.025981456,0.4172565,0.6879998,0.57274127,0.29158974,0.17712909,0.7574284,1.2551682,0.87288076,0.48269904,0.77986324,0.5859034,0.47116914,0.5419752,0.762593,1.1775751,0.8886452,0.6261665,0.823415,0.66443413,0.7908928,0.87244034,1.0125705,1.1718365,0.82876664,0.9756637,1.1826121,1.0447985,1.053646,1.3677852,1.4009368,1.3063747,0.9677524,1.8176123,2.012558,1.775515,1.9460609,2.2492177,2.6422083,2.298418,2.2176187,3.973301,4.3928623,3.9536378,3.6268656,3.6852796,3.5242274,3.4763753,3.194061,0.013485581,0.029062985,0.003049852,-0.0019909157,0.013579308,-0.030970363,-0.03247477,0.025630428,1.69622,2.1318572,2.4242501,2.2047408,2.1574776,2.2480493,2.012215,0.9269178,1.9297618,1.9002546,2.5464652,2.2998357,2.5631747,2.4114711,2.3916945,1.6830246,1.8872185,2.3929691,2.5246863,2.6323586,3.0181284,2.6229,2.9445808,2.3136861,2.2366204,2.5282109,2.8157368,2.7311363,2.9673905,3.1956594,3.0446146,2.6721845,2.5745978,2.8352885,3.1701617,3.1583755,3.2922473,3.6643007,3.1469707,3.2457588,2.4189448,3.0835783,3.3148665,3.267748,4.436558,4.688907,3.8458571,3.1844447,2.289433,2.6270516,2.9586525,3.3649595,3.8726277,3.7092557,2.577954,2.743717,1.353004,3.0760665,2.5264533,3.3926399,3.4345162,3.6709664,2.792492,1.6188551,2.9559162,3.0049691,2.605436,2.766259,2.3468711,2.7148786,2.4458773,2.4497752,2.845165,2.8312337,3.1985,2.7960896,2.9204657,2.9963346,3.170477,2.7644393,2.7303987,2.977571,2.9810376,3.1943169,3.0064828,3.2569945,2.8301806,2.943657,2.667586,2.938584,3.2600713,3.4516814,3.4992032,3.0267928,3.3100014,2.9956076,2.6102114,3.031877,3.3914647,3.8598022,3.6913488,3.5535796,2.7752032,3.0056684,2.9169657,3.1530583,3.3531518,3.6034873,3.7988327,4.54293,3.8218234,3.203477,2.6010315,3.3884747,2.8778725,3.3775237,3.449179,3.5651536,3.2093549,2.9749444,2.6987524,3.2648256,3.4931467,3.6861014,3.466117,2.746073,4.0484104,3.0110857,2.7599993,2.795798,3.0832503,2.9977455,2.9387946,3.0514565,3.162269,2.7355952,2.5285652,2.9037032,2.9548542,2.8792138,3.0916395,3.14464,3.2674265,3.0366597,2.8890417,2.9684842,3.1917503,3.2381577,2.9989643,3.0845459,3.6538072,3.1445498,3.0384417,3.1903586,3.7216702,3.420244,3.7854905,3.1525855,4.1844225,3.4670062,4.025023,4.180796,4.261281,4.4165063,4.527935,4.6218905,5.076073,4.579944,4.4132504,4.8718185,5.054953,5.0466795,5.9859004,6.028213,5.3031054,5.184891,4.9009967,5.219017,5.2863693,6.0192423,5.82073,6.1682086,5.879365,5.906406,5.3270464,5.077807,5.2390513,5.362445,5.9802547,5.759616,5.5102324,5.5885096,7.157918,6.976241,7.250733,7.6467204,7.239404,7.0591874,6.650972,7.5169153,7.2969217,7.3864727,7.4944563,7.5042367,7.7077456,7.542239,7.6267214,7.73063,7.4644694,7.5402584,7.779962,7.5696917,7.6246047,7.829735,7.5487194,7.7723846,7.603516,7.567513,7.7371087,8.451737,8.208494,7.969682,7.896981,7.904687,7.624295,7.7121525,8.634243,8.335895,9.096342,8.95239,8.280747,8.006898,7.705043,7.944723,8.6614275,8.441216,8.873191,10.181068,9.1827545,8.468173,7.631218,7.5327196,8.214942,8.702267,9.26883,9.338729,9.269982,8.3207,8.453268,9.868054,9.414807,10.0314665,11.100376,11.326362,11.040761,9.751045,1.2049325,1.4187694,1.3577687,1.0522563,1.4564546,1.0167243,1.6307209,1.7854139,1.9029804,1.6484292,1.4864805,1.6318425,1.4329027,1.507681,1.8049728,1.8623633,1.7073376,2.1483653,2.2778828,2.2463515,2.1305158,1.9782456,1.8311046,1.6379251,2.080778,3.2171154,3.839903,4.186396,3.719836,3.3782463,2.8346002,2.152698,2.7928536,3.924388,5.1305785,5.0993347,5.6427402,5.1446114,4.0827446,2.7911656,2.8271596,4.752295,5.6717157,6.2581315,5.9198136,7.044569,5.8318205,3.719154,3.0238695,4.3387933,5.2356987,5.2678604,5.7589154,6.0374293,5.1774516,2.428905,2.4585876,3.9388525,2.9862978,3.3652856,3.7665668,4.9833493,3.471654,2.2462032,-0.01792872,0.023746636,-0.027059104,-0.027120939,-0.010096931,0.023623442,-0.008653725,-0.009758254,-2.4609127,-2.4844294,-2.1533904,-1.1089388,-1.9226342,-1.2940232,-2.0613961,-1.0838066,-0.33045658,-0.42809695,-1.1200278,-1.5091381,-0.7877263,-1.2730926,-0.523581,-0.49586344,-0.43670854,-0.50638294,-0.5941159,-0.59311634,-0.7990097,-0.8127169,-0.60113895,-0.30173317,-0.32658878,-0.6322831,-0.38527477,-0.7773232,-0.486261,-0.44827896,-0.7333252,-0.11499571,-0.23489903,-0.38137898,-0.22986916,-0.24766041,-0.4209374,-0.20989147,-0.44840935,-0.23542269,-0.3695602,-0.34109792,-0.571874,-0.4176114,-0.11477964,-0.49682546,-0.8411939,-0.3912469,-0.012049434,-0.0027202982,-0.034008462,0.015541257,0.025082301,-0.010221845,0.026572064,0.016562276,-1.5525866,-2.4430952,-2.2238715,-2.7324955,-2.078853,-2.5666108,-2.649826,-2.1354957,-2.7049248,-2.3646245,-2.6789527,-2.8773153,-3.0295687,-3.2505004,-1.9536421,-2.591692,-2.0577347,-2.9588394,-2.6982656,-3.2088578,-3.150795,-3.4505584,-3.3901289,-3.0870757,-2.755364,-2.5398307,-2.711027,-2.8182383,-2.7186632,-2.8613405,-2.6531754,-2.9229307,-2.135099,-2.2912817,-2.5006223,-2.5775654,-2.7389643,-2.462118,-2.6471212,-2.304311,-2.2003806,-2.3507404,-2.3393438,-2.4550858,-2.673258,-2.4145668,-2.7529767,-1.9416618,-1.5654956,-1.9162905,-1.9340287,-2.1670704,-2.2736928,-2.194749,-1.8105879,-1.5827543,-1.1424398,-1.9672104,-1.7398612,-1.9401153,-1.8892925,-2.0803928,-2.0607305,-0.908099,-2.3839319,-2.0573165,-2.5189228,-2.2218966,-2.1225476,-1.8942355,-2.194688,-2.6258247,-2.3554718,-2.3878722,-2.7081819,-2.7575111,-2.7375643,-2.5189617,-2.5453353,-2.6470823,-2.8124762,-2.8126402,-2.5350764,-2.8808942,-2.7209516,-3.2270799,-3.2840385,-2.6999345,-2.1434336,-2.2940485,-2.911107,-2.7958014,-2.5013049,-2.8782434,-2.5066688,-2.5718157,-2.1014893,-2.333513,-2.7023401,-2.7298403,-2.507959,-2.5707338,-2.547348,-2.5007951,-2.345203,-2.4223971,-2.363243,-2.5876863,-2.5335255,-2.317508,-2.6788998,-2.8140802,-2.3135374,-2.4804018,-2.5438328,-2.4497054,-2.4202566,-2.5468006,-2.7680454,-2.5002997,-2.5537896,-2.1930113,-2.325793,-2.038132,-2.196155,-2.2343552,-2.0969057,-2.090516,-3.522853,-3.5233917,-3.6209831,-3.9257498,-3.936967,-3.9516292,-3.7320795,-3.5861816,-3.6356833,-4.0314903,-3.9877684,-4.2011275,-4.184377,-3.9654417,-4.1361685,-4.1991186,-3.7967896,-3.9404173,-3.8200707,-4.1544175,-4.2703648,-4.220768,-4.2724576,-4.132792,-3.5792055,-3.8276665,-3.7032714,-3.936495,-4.019554,-4.06126,-4.1844153,-4.1993427,-3.4111078,-3.4185848,-3.43236,-3.5869179,-3.7685657,-3.4188006,-3.7588756,-3.4430687,-3.0127685,-3.367568,-3.3693686,-3.3460386,-3.4446023,-3.6422248,-3.89029,-3.488599,-3.1409168,-3.3509924,-3.4848685,-3.452525,-3.916462,-3.3893404,-3.5062625,-3.0736904,-3.489915,-3.5219975,-3.57485,-3.6489604,-3.5878167,-3.618121,-3.85556,-3.628993,-7.0249977,-6.9588084,-6.8433814,-7.124959,-7.3015914,-6.893747,-6.7049217,-7.324609,-7.577465,-7.228479,-7.592097,-7.605258,-7.819783,-8.256029,-8.147993,-8.016099,-7.111086,-7.1281734,-7.6057267,-7.398141,-7.724245,-7.7914085,-8.458831,-8.300464,-7.2338653,-7.241283,-7.4251957,-7.318333,-7.6608276,-7.5455256,-8.056254,-7.838786,-7.224812,-7.473184,-7.5764174,-7.4001355,-7.567718,-7.9383264,-7.642465,-8.061914,-7.1958766,-7.2665453,-7.281933,-7.8516116,-7.7362375,-7.5505695,-7.714102,-7.480525,-7.237869,-7.2194443,-7.48903,-7.627398,-7.601126,-7.4506807,-7.479048,-7.720183,-6.8487425,-7.185458,-7.3493423,-7.550964,-7.4784884,-6.609768,-6.5073276,-7.055955,3.3730428,2.9030664,3.9155095,4.257017,2.745711,2.9535456,3.5196598,4.461525,3.2955096,3.3994582,4.0453796,4.634227,3.8629606,3.389635,2.660543,2.777724,3.0090876,3.2859569,3.6312075,3.704247,4.370499,3.869642,3.6588411,2.915855,3.2526257,3.0893075,3.1952152,3.5906868,3.2274334,3.4219482,2.853485,2.7956781,3.2349308,3.3498666,3.504167,3.449133,3.5197833,3.2522705,2.717038,2.3704677,2.7831333,3.1770313,3.2428281,2.9669695,2.8945947,2.7993643,2.3435678,2.6737921,3.0106432,3.231997,2.7378056,2.7370398,2.4233942,2.207329,1.9631917,1.8216476,2.8171718,1.9367024,2.2373693,3.0362065,1.8503017,2.5537307,1.4684997,1.6124306,-0.0054303673,0.02448398,-0.0060033184,-0.016017783,-0.0038106106,0.03302174,0.019109521,-0.007049815,-0.0002489644,-0.14768204,-0.119853504,-0.1303627,-0.026613878,0.0602368,-0.14511484,0.032018423,0.3886202,0.18682016,0.2304012,0.07410765,-0.169493,0.054678954,0.013354713,0.1104368,0.50330704,0.035925034,0.26728338,-0.3851673,-0.14560035,0.27038723,0.088427395,0.46058595,0.21042003,0.01780304,-0.17130685,-0.298288,-0.45719546,0.21937564,0.27568054,0.52018857,0.120302714,-0.18917243,-1.0235142,-1.1362274,-0.41266674,-0.660702,-0.25792328,0.79540765,-1.1524024,-2.0820491,-1.4582331,-2.2142963,-1.6626941,-1.2185915,-2.2490215,-1.2414684,0.026075635,-0.028136473,0.028263662,-0.018832859,-0.03563477,0.018912438,-0.010653932,0.019744977,-0.59314406,-1.665656,-1.2147745,-1.5455126,-1.5286924,-1.948502,-1.7226912,-0.47133058,-1.1696712,-1.2083406,-1.4754369,-2.1772463,-2.1098518,-1.5928782,-1.6222715,-1.9754328,-1.3082374,-1.915774,-1.9459435,-1.3658907,-1.7884814,-2.2951367,-2.5009027,-1.9266431,-1.8116826,-2.0584345,-1.485509,-1.7434765,-1.8768939,-1.6182048,-2.1177785,-2.2403288,-2.260105,-1.8593097,-1.8863145,-1.8842808,-0.528928,-1.8938076,-1.9310464,-2.718302,-2.3745098,-2.160738,-1.8906485,-1.8826445,-2.4034584,-2.385579,-2.7440395,-3.0425773,-1.988357,-2.372072,-1.609592,-2.6724792,-2.8553908,-2.3315988,-2.1573935,-1.8731948,-1.2818092,-2.9427824,-2.4681358,-2.2625074,-2.9709282,-2.4014373,-2.0835762,-1.3656455,-2.0859096,-2.172864,-1.9938968,-1.1909616,-1.4852028,-1.6683992,-1.6421653,-1.8737538,-1.5666302,-1.8373767,-2.0133348,-1.6967387,-1.9556514,-1.8110075,-2.278855,-1.6467487,-1.9871393,-1.846243,-1.6449772,-1.4725783,-1.5557351,-1.8134804,-1.7324178,-1.8191721,-1.4219846,-1.3518006,-1.5051988,-1.2048011,-0.91192997,-1.8218781,-2.0444639,-1.6810464,-1.4502262,-1.518046,-1.5833715,-0.71202755,-1.7433423,-1.5908757,-1.7915777,-2.269929,-1.8416597,-1.7659965,-1.0849172,-1.9581816,-2.0803328,-1.7099348,-2.245126,-1.7753955,-1.5634522,-1.8456364,-2.075011,-2.3398974,-2.2818618,-2.1867332,-2.2588956,-1.7841834,-1.6537786,-1.4071165,-2.420622,-1.745319,-1.9539893,-2.0409577,-2.7928371,-1.6816864,-1.9132506,-1.9917867,-2.0641217,-2.1230166,-2.0875201,-2.1305578,-2.4665995,-2.0420327,-1.8732216,-1.8261731,-2.1826925,-2.1305435,-2.2579732,-2.0388393,-1.5330263,-1.8996028,-1.7734718,-1.9025083,-2.2680628,-2.2820837,-2.3842633,-2.2450454,-2.6707263,-1.9432188,-1.8671036,-2.348457,-2.3589585,-1.9505061,-2.9075663,-2.4253929,-2.7330756,-2.510332,-2.4315753,-2.6708446,-2.5321636,-2.6127737,-2.8195102,-2.5745378,-2.9259684,-2.940778,-2.8142452,-2.829989,-2.5222416,-2.8784118,-3.0715885,-2.6494246,-3.064017,-3.181626,-2.5658765,-2.365587,-2.5386233,-3.2812562,-3.415941,-2.971703,-2.878835,-3.0173104,-3.4112415,-3.6059506,-3.024479,-2.7416,-3.3714356,-3.3038929,-3.1795366,-2.680366,-6.011984,-6.492304,-6.430982,-7.011909,-6.7204556,-6.190675,-5.279955,-5.876599,-6.847793,-6.874569,-6.9628315,-6.9622726,-6.920745,-7.5788274,-7.2346344,-6.946393,-6.387171,-6.8243423,-6.27395,-6.7174597,-6.7108917,-6.5701222,-6.724177,-7.1758966,-6.9005084,-6.297411,-6.626062,-4.8272038,-5.5171685,-6.353409,-6.538437,-6.6279655,-6.6436944,-5.6523542,-5.2418003,-5.3884277,-4.5768905,-4.679473,-6.476962,-6.735609,-6.4803147,-6.3321147,-4.768336,-5.662875,-5.8890004,-5.0701222,-7.1972823,-6.6243057,-6.6486278,-6.503713,-6.400523,-6.3918333,-5.922797,-6.605044,-6.5759034,-7.659529,-5.7399826,-5.1566186,-6.273948,-6.92646,-4.6251187,-3.8154376,-3.661828,-4.82136,0.14414921,0.17017573,0.35988602,1.0640388,-0.011527852,0.87459487,-0.379813,0.23222966,0.1247551,0.36720216,0.64401597,0.80627483,0.5364283,0.6045038,0.16699107,0.17637752,0.51003784,0.24624148,0.27663654,0.37881386,0.7173577,0.5758663,0.31946355,0.2954166,0.94758916,1.1318907,1.3627721,2.0646043,1.4801768,0.737889,0.66485107,0.15069616,0.8108745,0.5392803,1.9643651,2.1025803,2.186438,1.6648346,1.1484342,0.5016947,0.05296748,2.138122,2.4600155,2.5085247,1.8108071,2.395657,2.2541378,0.53781307,0.693088,0.95645845,1.7896737,1.0780082,1.7096347,1.7796487,1.8111342,0.74711365,0.966734,1.2167453,0.9411257,1.1554183,1.1595227,1.6276462,1.1994778,-0.14560863,0.034090064,0.014886929,-0.03534961,0.016498547,0.0356316,-0.035369463,0.024206648,-0.019193241,3.2790174,3.3747637,3.7748902,3.0494297,3.3891752,3.9744055,4.2261477,3.3666604,1.0917882,1.4417602,2.1425169,2.2954853,1.845323,2.918011,3.145852,2.305645,1.3524938,1.5057687,1.6631099,1.4734081,1.3940511,1.5868044,1.393211,1.5622139,0.9344985,1.2595159,1.0467094,1.1790679,1.3414009,1.1984764,1.6263474,1.3902543,1.386393,0.9022618,1.2175277,1.1569935,1.1902626,1.1937279,1.7320217,1.7158048,0.9096524,0.8793316,0.6989173,0.55536324,0.5985071,1.1567364,1.4544605,1.1905503,0.008641891,0.017733805,-0.012419074,-0.031100787,0.022695664,0.03362198,0.032130573,0.0141557865,1.4659857,2.8296568,1.8513693,3.0722606,2.418479,2.9084704,2.9672668,2.0409,2.562439,2.5805213,3.798394,3.661153,3.9340153,3.3571494,3.0953155,2.7026854,2.6081944,3.1945446,3.1486604,4.4800353,4.5530224,4.368464,4.0848684,3.0430992,2.7996936,3.0599399,3.354898,3.4948053,3.2877226,4.0161095,3.1850526,3.4760914,2.373806,2.4233,3.0374486,3.3485637,3.2932985,3.633588,3.0821395,2.4623938,2.685739,2.7017817,2.762935,2.4928374,3.1261296,2.4928274,3.145829,2.457345,2.270095,2.1177208,2.9185717,2.4930162,2.6747127,2.663466,2.5372162,2.5818932,2.5949433,2.1386304,2.3674397,2.5605733,2.8038023,2.730369,2.1614785,-0.518228,3.170384,3.2585225,3.3066685,2.7387407,3.288549,3.0112755,3.0964522,3.3990057,3.3969615,3.3103669,3.978548,3.5710542,3.8078992,3.719326,4.0643497,3.6259782,3.2659898,3.7201884,4.10621,5.089527,4.252133,4.619264,3.953295,3.2954795,3.0627337,3.3475163,3.9347775,4.431211,4.1581464,4.517926,3.2663302,3.2469008,3.2409985,3.214222,3.5475435,4.3943524,3.9089499,3.5596356,3.4531343,2.90451,3.1616468,3.2203758,3.3652627,3.6503108,3.0308998,3.7564113,3.448469,3.8048592,3.0462275,3.2034893,3.621543,3.2248948,2.988979,3.2124412,3.3422523,3.8215935,3.187155,3.3711982,2.5612795,3.2522788,3.009134,2.7041028,2.743686,3.115194,5.249565,5.202301,5.09049,4.9937406,4.933084,4.7495103,5.095458,4.3505135,4.8423567,5.4350524,5.3355856,4.940286,5.439469,4.9937286,5.404971,5.1732793,4.8137836,4.7482514,4.8850884,5.146935,5.2317257,5.5496135,5.345147,4.333392,4.7393246,4.793814,4.239814,4.4877386,4.5076113,4.9059863,4.9517126,4.8339953,4.4230566,4.8429403,4.639777,4.222597,4.4353013,4.227926,4.4085665,4.760717,3.9793108,4.053038,4.1669383,4.3194656,4.1121182,4.6042714,4.8559117,4.2953653,3.6652234,4.0197525,4.0805793,4.080202,4.2497983,4.671353,4.722979,3.9283326,3.6888554,4.3991528,4.170942,4.468753,4.3191147,4.0000477,4.323318,3.6595082,8.915661,8.433673,8.515218,8.793327,8.97685,9.497257,10.227514,8.849389,7.457403,7.23237,8.801511,8.384792,9.127321,9.556641,9.6129675,8.347397,8.0280075,8.086414,8.467377,8.83958,9.28183,9.618655,9.0620165,8.637826,7.974767,7.9850636,8.153034,9.06762,9.16028,8.956367,8.762168,8.37657,7.467001,7.726341,7.9156513,8.441124,8.023918,8.177227,8.375623,7.9603996,7.7141533,7.5125504,8.441411,7.705561,8.164544,7.945977,7.9171057,7.677175,7.696212,7.7165194,7.4722953,7.7701244,7.60616,7.715518,7.7745028,8.123586,7.552941,6.6057405,7.466121,7.47304,7.8054934,7.616571,7.225685,8.024904,0.5463743,0.7520078,0.8073708,1.4359834,1.0031681,0.8134584,0.95487684,2.0482774,1.1236957,1.7500862,2.3032267,2.1509964,2.0065365,2.2713842,1.761454,1.1964804,0.57741475,1.1877801,2.0437875,2.6704502,2.5102863,2.384877,1.9838867,0.8821289,1.4422864,1.4563566,1.6589648,1.9111981,1.62966,1.2647804,1.0753442,0.43042135,-0.29180536,0.9365406,1.7240964,1.6034145,1.2459234,1.115899,0.68685496,-0.08131074,-0.24945332,0.4442293,0.69627476,0.6802711,0.06947398,0.16697161,0.22293945,-0.45696148,-0.38834167,0.46039984,1.0263599,0.5636344,0.515,0.18474086,0.3598792,0.24770102,-0.15567546,0.5834931,0.32976326,0.4138869,-0.014846565,0.09278825,0.15534227,0.4770395,0.011735051,-0.007638879,-0.024343133,-0.022282105,0.0063323863,0.022014042,-0.03154668,-0.026990777,0.3841636,0.6948692,0.5396625,0.33863053,0.22886522,0.7546948,1.2209207,0.8159203,0.49151132,0.77051264,0.5794511,0.50605285,0.5436344,0.7961008,1.2047502,0.8800983,0.5854842,0.8221906,0.71575385,0.7386227,0.8491614,0.9494532,1.156351,0.8102312,0.96311814,1.2046957,1.0391979,0.9767492,1.3624806,1.4194295,1.2937562,0.9150516,1.829342,1.9519936,1.7586033,1.9735258,2.2382162,2.6044629,2.3494346,2.228064,3.964629,4.369305,3.9561636,3.5317626,3.714322,3.4854963,3.4757838,3.1905613,-0.028155662,-0.015087529,-0.025688939,0.003141631,0.019345785,0.017437791,0.018466836,0.010753927,1.677705,2.1933432,2.355102,2.2034137,2.169305,2.2394233,2.0173779,0.89578396,1.9118927,1.9148409,2.5538905,2.376337,2.5159237,2.3471115,2.3684266,1.7734078,1.9926316,2.359791,2.5033114,2.6284425,2.9988387,2.6218653,2.9099574,2.35683,2.229265,2.5109975,2.7944558,2.710806,2.9221406,3.177158,3.0244663,2.6441114,2.5461588,2.8605487,3.1670146,3.0890455,3.331386,3.6023831,3.1691127,3.2277637,2.3546226,3.1185746,3.2971241,3.2480428,4.392049,4.7259088,3.8404245,3.1936736,2.2463224,2.6785023,3.0037076,3.407595,3.8377302,3.762352,2.535223,2.7387652,1.4033424,3.0519304,2.5300403,3.3651521,3.4963338,3.624048,2.8135066,1.6022375,2.8900368,2.9640267,2.6020432,2.7761075,2.3140736,2.6763074,2.3738837,2.4548523,2.8259916,2.7974849,3.163611,2.748075,2.8813941,2.9763145,3.1787782,2.7716413,2.7252285,2.964058,2.9372635,3.1712778,2.995303,3.227202,2.8849142,2.9330392,2.6904805,2.93075,3.199985,3.3969312,3.533749,3.0773385,3.3146038,2.995345,2.620781,2.9845958,3.4310715,3.8302214,3.6814315,3.5165226,2.814459,3.065442,2.933254,3.1341944,3.36826,3.647622,3.7748346,4.495495,3.8233624,3.1269782,2.722881,3.3290124,2.8737679,3.3255863,3.421874,3.5635772,3.1427226,3.0026052,2.695431,3.3198788,3.4106445,3.6937783,3.417797,2.7982736,3.973363,3.0753636,2.7684202,2.8331275,3.0920494,3.01232,2.933769,3.023826,3.2110825,2.737592,2.4680424,2.9455163,2.892712,2.8832664,3.081129,3.149756,3.23745,2.9464943,2.7600098,2.9065835,3.2180274,3.2091427,3.0038822,3.0699203,3.5870948,3.1957138,2.9764068,3.169559,3.740569,3.415992,3.7808905,3.119745,4.141746,3.5000818,4.0325155,4.160958,4.3077297,4.399876,4.5316644,4.582934,5.130596,4.5714192,4.4363804,4.8083386,5.0119004,5.078424,5.9087324,6.0367365,5.298565,5.247504,4.8283544,5.1636777,5.3457284,6.0305247,5.869745,6.133887,5.876614,5.9151907,5.309908,5.0969257,5.227245,5.319979,5.9242544,5.7004867,5.517156,5.6003733,7.182708,6.951589,7.165843,7.599103,7.233006,6.997159,6.6070733,7.4506173,7.3196044,7.3301005,7.5059605,7.509988,7.7416945,7.570221,7.5908103,7.695326,7.48608,7.5438995,7.813009,7.599123,7.5525312,7.792688,7.629831,7.8106546,7.6233964,7.518241,7.596742,8.366489,8.299052,8.01936,7.9402995,7.8444366,7.6314282,7.6758537,8.615681,8.408613,9.075827,8.935764,8.219465,7.976517,7.7052975,7.9765687,8.727228,8.454221,8.871758,10.130227,9.174097,8.498849,7.6338944,7.5576367,8.198493,8.738915,9.311381,9.387137,9.254838,8.261285,8.488621,9.847302,9.390078,10.093412,11.047628,11.356351,11.021559,9.796492,1.2573645,1.4181606,1.3401964,1.0504357,1.4728408,0.98881537,1.6541348,1.7702415,1.9248157,1.6402305,1.4745709,1.6221335,1.4070389,1.4930648,1.7894875,1.8600359,1.662437,2.072428,2.2762508,2.2002952,2.1372447,1.9940981,1.8395977,1.6170684,2.0932014,3.2305562,3.7868078,4.1447067,3.685214,3.3714094,2.8060637,2.1287627,2.8113852,3.943247,5.089203,5.079394,5.634687,5.1064944,4.0812445,2.8370788,2.846177,4.759944,5.713827,6.240893,5.9592013,7.0253854,5.8694777,3.7168953,3.081548,4.229496,5.212031,5.3007345,5.7169833,6.0326257,5.151904,2.458994,2.4424853,3.9618707,2.9839716,3.4273546,3.7772877,4.9542356,3.4730883,2.310803,-0.028554954,-0.018101815,0.0073415744,0.031072272,-0.020619294,0.03235394,-0.017396918,-0.025047708,-2.3888369,-2.4334118,-2.078511,-1.0886716,-1.9096625,-1.3549919,-2.106943,-1.0510614,-0.31936702,-0.42337397,-1.0708458,-1.5107368,-0.76250947,-1.249336,-0.41039616,-0.49188662,-0.47715598,-0.47922173,-0.56333715,-0.5731504,-0.8418608,-0.8237653,-0.61721575,-0.31632,-0.27939582,-0.5855118,-0.3178593,-0.7609437,-0.4547521,-0.43657622,-0.7647731,-0.122885495,-0.23511273,-0.39099112,-0.24829073,-0.25182188,-0.3984722,-0.20836954,-0.42103726,-0.26675478,-0.38779816,-0.29056063,-0.51677144,-0.3736009,-0.14318885,-0.441734,-0.7726924,-0.37674767,0.003174508,-0.0071748965,-0.015915586,0.026407106,-0.0023865032,-0.027582806,0.017927313,0.029479451,-1.4920225,-2.4669385,-2.1515386,-2.7148693,-2.0848722,-2.5795677,-2.685224,-2.1165318,-2.7661026,-2.4031558,-2.6811616,-2.8523593,-3.0271873,-3.207228,-1.9365776,-2.5807505,-2.005504,-3.0004418,-2.6345875,-3.247663,-3.19638,-3.4093392,-3.382035,-3.1694024,-2.8067973,-2.5539365,-2.7258,-2.795569,-2.6759093,-2.8453574,-2.6683912,-2.8765268,-2.0619144,-2.2647831,-2.5151083,-2.6244626,-2.7229486,-2.4713583,-2.766638,-2.3858228,-2.1367378,-2.374316,-2.3038962,-2.4861243,-2.6559007,-2.4170194,-2.7102475,-1.94289,-1.5876775,-1.8970649,-2.0214307,-2.1790428,-2.2873368,-2.2481482,-1.7409798,-1.6187185,-1.1536435,-2.0178525,-1.7978688,-2.0080848,-1.8644375,-2.091595,-2.0616918,-0.9727039,-2.421566,-2.0486438,-2.5079093,-2.1498406,-2.1133144,-1.8736011,-2.1323762,-2.614455,-2.367344,-2.4126818,-2.690095,-2.7561057,-2.7527063,-2.5630705,-2.654069,-2.5967429,-2.8214114,-2.8362699,-2.5673175,-2.8846042,-2.7517478,-3.3267288,-3.240213,-2.708152,-2.1181645,-2.3279488,-2.8524728,-2.7761536,-2.4682581,-2.9283507,-2.4821005,-2.4897745,-2.0340738,-2.3183064,-2.7143736,-2.6915662,-2.5456793,-2.5714679,-2.5694916,-2.563536,-2.3424096,-2.4743173,-2.3697288,-2.5938382,-2.5275595,-2.2818487,-2.6630502,-2.8052094,-2.2840488,-2.481999,-2.5511317,-2.4357898,-2.3818953,-2.5739627,-2.7778578,-2.5007362,-2.5037887,-2.339011,-2.2907536,-1.9947071,-2.156397,-2.2274258,-2.0918493,-2.06353,-3.5489933,-3.5282207,-3.665244,-3.916699,-3.950862,-3.9431882,-3.729953,-3.5603802,-3.6384137,-4.092802,-3.960932,-4.190502,-4.164308,-3.9354084,-4.1073756,-4.14742,-3.7777574,-3.9098394,-3.8162348,-4.2089143,-4.2262416,-4.2432995,-4.2859173,-4.1444616,-3.560224,-3.8267918,-3.703794,-3.9656818,-4.0226164,-4.0624433,-4.1360765,-4.210638,-3.4427836,-3.4492917,-3.4366438,-3.610085,-3.7560408,-3.4042885,-3.7971315,-3.5353694,-3.0437393,-3.3655775,-3.3925457,-3.3189461,-3.4486663,-3.655488,-3.907916,-3.429498,-3.1263556,-3.3979428,-3.517417,-3.4755807,-3.922105,-3.3158042,-3.509751,-3.073008,-3.460491,-3.5723197,-3.5896573,-3.7014205,-3.5800867,-3.6324968,-3.8905802,-3.6400836,-6.997836,-7.0102625,-6.783746,-7.2045054,-7.3070374,-6.864025,-6.7185574,-7.389426,-7.554917,-7.202672,-7.6060705,-7.5974274,-7.8199253,-8.219107,-8.150405,-8.101734,-7.0810122,-7.1233096,-7.608438,-7.399023,-7.7136645,-7.790794,-8.452139,-8.24911,-7.160298,-7.2048535,-7.4703145,-7.3491435,-7.6408243,-7.607509,-8.083931,-7.8463864,-7.209109,-7.433326,-7.6142573,-7.3975635,-7.559933,-7.974575,-7.6458554,-8.038377,-7.2222466,-7.221043,-7.2988114,-7.798041,-7.7307687,-7.581672,-7.7478776,-7.479637,-7.2176995,-7.2910943,-7.5225296,-7.607175,-7.5410724,-7.529376,-7.4736247,-7.7002497,-6.790693,-7.19064,-7.32306,-7.519555,-7.4520273,-6.642875,-6.6037574,-7.091503,3.1940417,2.927484,3.9042299,4.267085,2.755186,2.9380655,3.5159009,4.3993163,3.2827752,3.4844508,4.025849,4.640431,3.8254328,3.4402037,2.6315303,2.8059428,3.1157072,3.2838776,3.6016645,3.7475865,4.328192,3.8898947,3.6327698,2.9317133,3.3348534,3.1075993,3.1622932,3.5729332,3.2456257,3.4153805,2.8690956,2.801828,3.1663392,3.403,3.5144858,3.4297836,3.516199,3.228002,2.6674461,2.4130073,2.857721,3.1708074,3.230155,2.9187403,2.8972125,2.787544,2.3398063,2.639314,3.0294507,3.1922235,2.74397,2.6995945,2.387054,2.1730592,1.9822167,1.8221796,2.7737434,1.9404929,2.2140512,2.9612653,1.8818219,2.5397387,1.4694613,1.6518629,-0.031423014,-0.034466468,0.011050345,-0.034290694,0.007954844,-0.0053242426,-0.031322006,0.03312341,0.06261422,-0.1413651,-0.12798771,-0.0395123,-0.037341397,0.085297145,-0.13710591,0.023820905,0.3447451,0.15437824,0.17555594,0.10188673,-0.062851414,0.046811324,-0.015086549,0.08184698,0.45369288,0.05519568,0.25654435,-0.36994353,-0.04449909,0.28943926,0.04549289,0.45256492,0.2318468,0.06702684,-0.17233,-0.10665047,-0.36626735,0.23827356,0.30523676,0.57350546,0.1672852,-0.14502916,-1.0616008,-1.276439,-0.37047333,-0.58680826,-0.39427185,0.8078527,-0.9323992,-2.0479388,-1.4282739,-2.159847,-1.6289991,-1.1002144,-2.1571586,-1.1270425,-0.031830754,-0.031213468,0.01380171,-0.023437962,0.025514366,-0.004386809,0.0077915858,-0.027335623,-0.7291593,-1.757514,-1.194683,-1.779934,-1.5456363,-1.9654548,-1.9648525,-0.51778346,-1.268534,-1.2111901,-1.4711099,-2.1434414,-2.0693388,-1.6900431,-1.6085606,-1.9007583,-1.444025,-1.7636672,-1.9553856,-1.3644788,-1.7850906,-2.3520284,-2.5717516,-1.928204,-1.8406256,-2.0780265,-1.5195239,-1.7776881,-1.8434519,-1.6310822,-2.132698,-2.318191,-2.2186227,-1.8630307,-1.9014155,-1.8786341,-0.5420341,-1.8024895,-1.8588462,-2.7614105,-2.2926826,-2.0586734,-1.9208796,-1.8471904,-2.3149586,-2.367963,-2.5510151,-3.0196693,-1.912512,-2.3250308,-1.5165272,-2.71447,-2.9204826,-2.4547794,-2.1221216,-1.8844643,-1.3016441,-2.9628747,-2.6115801,-2.2442486,-2.9354122,-2.382622,-2.1148458,-1.3762401,-1.9684886,-2.045525,-2.0830276,-1.2247639,-1.624172,-1.878675,-1.5971165,-1.974415,-1.5445801,-1.8951373,-1.9985783,-1.6605226,-1.9256274,-1.791551,-2.2564352,-1.5568868,-2.0018072,-1.9002837,-1.6402872,-1.5078608,-1.5067341,-1.775236,-1.7274706,-1.8894796,-1.4401913,-1.2987317,-1.4896743,-1.1854193,-0.9011314,-1.8934915,-2.0874753,-1.6810577,-1.521305,-1.4521866,-1.5720252,-0.7089729,-1.7136719,-1.6302578,-1.737123,-2.3445926,-1.8229928,-1.719334,-1.06254,-2.004154,-2.1458871,-1.5860921,-2.253023,-1.6670945,-1.4933226,-1.8190452,-2.1396294,-2.3859897,-2.2231908,-2.1792064,-2.1631134,-1.7822917,-1.6081489,-1.4375498,-2.390243,-1.7313148,-1.9627981,-1.9513847,-2.7687294,-1.7395196,-1.9407011,-1.9021324,-2.0374887,-2.0879004,-2.0129552,-2.1522958,-2.3873937,-2.1417701,-1.8468941,-1.9292948,-2.1830974,-2.1332066,-2.2420254,-2.0087843,-1.5776094,-1.9132782,-1.7523022,-1.8871057,-2.2910748,-2.2562456,-2.4345336,-2.2438395,-2.7093902,-1.980895,-1.8647453,-2.443146,-2.4057949,-1.9884253,-2.8835962,-2.3808744,-2.8136861,-2.6034539,-2.3813167,-2.6752565,-2.5318797,-2.5961103,-2.8086698,-2.5608604,-2.9300647,-2.9214396,-2.7716148,-2.7925112,-2.4965222,-2.8637006,-3.0741954,-2.645556,-3.012043,-3.0859733,-2.5570269,-2.3255446,-2.5586903,-3.2683492,-3.4001207,-2.9751978,-2.8195887,-2.9710517,-3.4306114,-3.5860076,-2.9675097,-2.7342994,-3.3596275,-3.2752264,-3.180963,-2.654055,-5.7719502,-6.5618086,-6.506624,-7.1067224,-6.800661,-6.2026978,-5.313706,-5.926771,-6.837936,-6.935565,-6.7663455,-7.025869,-7.009272,-7.535356,-7.172956,-6.8627915,-6.267407,-6.859774,-6.321731,-6.721858,-6.724645,-6.616515,-6.6841345,-7.067288,-6.895083,-6.202126,-6.566747,-4.81484,-5.487403,-6.2673087,-6.396248,-6.58515,-6.531485,-5.670158,-5.2071247,-5.3671536,-4.5794735,-4.6300635,-6.3095007,-6.7605195,-6.556524,-6.292667,-4.7235556,-5.6141586,-5.8203826,-5.034357,-7.1258917,-6.5299034,-6.617915,-6.4674077,-6.406389,-6.224267,-5.849455,-6.5326676,-6.538228,-7.3070626,-5.686443,-5.071365,-6.162537,-6.8547974,-4.5401764,-3.840969,-3.6884487,-4.800506,0.08945065,0.110095926,0.26364625,1.0613209,-0.11373967,0.81842154,-0.4269319,0.04710534,0.17948455,0.2752109,0.5803026,0.7889359,0.5494296,0.5710565,0.11021486,0.2464587,0.40141407,0.25804707,0.24557948,0.32028684,0.7422982,0.55524653,0.29519743,0.17247838,0.9318613,1.1697563,1.3619095,2.0275998,1.4779991,0.70725614,0.614387,0.0987579,0.751983,0.5893697,1.9663305,2.1011508,2.1687503,1.7275132,1.1073216,0.5005023,0.024178203,2.1307333,2.5213687,2.4988756,1.8138387,2.4058332,2.2732096,0.48202553,0.7359682,1.0103142,1.8506436,1.0773095,1.7565958,1.7855761,1.8040105,0.81404614,0.85784554,1.260046,1.006779,1.1703782,1.1897157,1.6318172,1.1938411,0.099386334,-0.019265402,-0.016742546,0.033517133,-0.0037667213,0.019892264,-0.03295558,-0.017423106,0.01130192,3.11639,3.2761416,3.7016525,2.9575124,3.3286037,3.9772024,4.1969533,3.3176494,1.0073271,1.2976245,2.0422533,2.2797563,1.7996893,2.7510204,3.078286,2.258451,1.2889986,1.5900241,1.5858676,1.4673529,1.4114015,1.6269168,1.3688127,1.6061606,0.99344826,1.2742727,0.9280867,1.172206,1.3213893,1.1381034,1.6184163,1.3005981,1.3088195,0.9611658,1.1020124,1.0541044,1.1521204,1.21995,1.6538315,1.6373096,0.8704199,0.8224146,0.6335624,0.46074945,0.43882877,1.0474799,1.4503058,1.1910177,0.011895071,0.005285821,0.015520372,0.015621925,-0.015771491,-0.017759431,-0.032450683,0.03066482,1.3818774,2.803657,1.7958918,2.837594,2.5421062,2.9712086,2.9036632,1.998089,2.5776854,2.6662521,3.865159,3.6539767,3.9594262,3.3915424,3.0877721,2.7502973,2.5345554,3.1233058,3.202178,4.3995924,4.4570785,4.371187,4.0941978,3.0108697,2.868675,3.0539095,3.33691,3.4935348,2.9732451,3.9681754,3.1735141,3.5202196,2.388614,2.4116275,3.0011482,3.1669953,3.1999915,3.736094,2.9537776,2.360893,2.7828898,2.6587777,2.803981,2.5875716,3.0473158,2.549727,3.1989064,2.4540665,2.236024,2.2612555,2.8928726,2.5239868,2.7150755,2.6736429,2.5780091,2.5485814,2.5120182,2.1580436,2.3533108,2.5689163,2.7773697,2.734435,2.1812358,-0.14136167,3.2061536,3.212739,3.3207786,2.7041557,3.241621,2.9982698,3.2093914,3.3512197,3.3687158,3.251747,3.984924,3.5950994,3.7834966,3.76515,4.0279264,3.6115396,3.1902883,3.6737857,4.06869,4.967754,4.170653,4.5747757,4.016219,3.1971846,3.035824,3.2869883,3.9325805,4.3572097,4.0576468,4.438848,3.247862,3.3021328,3.276094,3.1157238,3.5230951,4.3203154,3.842828,3.632147,3.4492693,2.9010944,3.1616688,3.2871258,3.464969,3.7511067,3.0705755,3.6631408,3.4176557,3.8996265,3.0025103,3.1486516,3.6110406,3.0924017,3.0126917,3.2482946,3.265851,3.79322,3.236815,3.377412,2.618014,3.31419,3.023309,2.674474,2.7741783,2.9956245,5.21919,5.1548963,4.976709,4.9200583,4.9031634,4.736631,5.0594554,4.2385917,4.7313304,5.364249,5.2224255,4.8294525,5.374498,4.8848085,5.3012543,5.1428523,4.755675,4.6657753,4.8428783,5.121083,5.2127748,5.4788337,5.281706,4.297362,4.6219053,4.700361,4.240628,4.4163036,4.5247865,4.823041,4.8251066,4.754776,4.349351,4.8048697,4.7115607,4.080444,4.275009,4.137995,4.457382,4.7285123,3.9773276,4.067024,4.262709,4.298464,4.13029,4.629627,4.835439,4.288712,3.7129745,4.0257454,4.036565,4.102614,4.3049955,4.6996584,4.6620045,3.9967182,3.7046556,4.372477,4.2367573,4.4309916,4.304531,3.9484022,4.3188734,3.655313,8.834669,8.414341,8.433446,8.773871,8.961927,9.500198,10.076593,8.7363405,7.367338,7.244896,8.687471,8.344661,9.07547,9.53852,9.505318,8.378971,7.9947486,8.002643,8.339877,8.723723,9.297467,9.548492,8.9340925,8.567692,7.851239,8.134747,8.228912,8.833929,9.294324,8.932182,8.702972,8.3010435,7.3347096,7.7130804,7.950716,8.466933,8.099418,8.115218,8.331747,8.0316515,7.6475234,7.30229,8.326506,7.677383,8.1102705,7.987112,7.9409986,7.9783163,7.714861,7.661654,7.3512464,7.797514,7.7070084,7.6564727,7.7688246,8.166097,7.523641,6.507309,7.4064226,7.421047,7.822341,7.6012626,7.2610326,8.057888,0.61629105,0.77924776,0.83116883,1.5232265,0.945618,0.80703044,0.99913687,2.043019,1.1211921,1.8096718,2.2535641,2.1064465,1.9756136,2.3401325,1.7519535,1.2426131,0.62934333,1.1887295,2.0269227,2.6366656,2.3816853,2.3810394,2.0056543,0.8627869,1.4882106,1.4564059,1.6021761,1.8751899,1.6220114,1.2574207,1.0700288,0.4111745,-0.23845713,0.8990087,1.6910825,1.5630596,1.2181075,1.159854,0.70769155,-0.030010702,-0.24583983,0.41180936,0.69877154,0.6487975,0.053007726,0.19194353,0.20516372,-0.4370272,-0.37121275,0.38434976,1.0416428,0.54944086,0.49219695,0.15370171,0.33042395,0.23264262,-0.2019806,0.5859626,0.36251828,0.3891485,-0.07850487,0.11459632,0.10850573,0.4238808,-0.018693315,-0.03538563,0.029696025,0.0209755,0.023697829,0.033193357,0.032569185,-0.011400779,0.059738643,-0.1256429,-0.04668454,-0.017057287,-0.046193626,0.048859708,-0.10110085,0.058621153,0.361895,0.051441096,0.20088832,0.15892966,-0.08221897,0.08896279,0.009975867,0.123286024,0.4511989,0.029602528,0.21803638,-0.36000946,-0.09282536,0.3249224,0.06621095,0.44168678,0.2278186,0.023492478,-0.14930047,-0.282371,-0.53427666,0.15541261,0.24350093,0.5997317,0.16004327,-0.21822302,-1.0394908,-1.3147225,-0.48683468,-0.6177272,-0.34174648,0.76786405,-1.0011177,-2.0041,-1.5281589,-2.2353694,-1.7233229,-1.1272291,-2.1008732,-1.1700853,-0.020016283,-0.0262458,-0.01742038,-0.027785119,0.008173782,0.010584921,-0.022864787,-0.023176828,-0.62405187,-1.6081895,-1.1305388,-1.6497098,-1.5221852,-2.0620563,-1.6657792,-0.49545786,-1.1998495,-1.18143,-1.4948595,-2.142389,-2.1182418,-1.6328557,-1.5792433,-1.8470056,-1.4023123,-1.6983799,-2.0026574,-1.366143,-1.801292,-2.2671862,-2.622407,-1.8589046,-1.7722871,-2.1149907,-1.5076036,-1.7794092,-1.8409489,-1.6074693,-2.0982966,-2.3318737,-2.2291548,-1.8167043,-1.9169779,-1.8892976,-0.53437513,-1.933503,-1.9137793,-2.6648896,-2.2697341,-2.1094973,-1.8834549,-1.8661195,-2.325529,-2.3636136,-2.7312257,-3.071147,-1.9559783,-2.34314,-1.6115309,-2.6706429,-2.9513423,-2.3128748,-2.131389,-1.8937466,-1.3108833,-2.8822358,-2.605337,-2.2523687,-3.0221882,-2.411386,-2.1035068,-1.4092491,-1.8680682,-2.011914,-1.9210424,-1.1060289,-1.602137,-1.8266553,-1.6460067,-1.7707379,-1.521132,-1.9532928,-2.0679245,-1.6303436,-2.022926,-1.7764369,-2.1728568,-1.4597576,-1.9890348,-1.8733968,-1.6975598,-1.4783988,-1.5079833,-1.7876638,-1.7005687,-1.9156163,-1.5139937,-1.234592,-1.4453812,-1.2125038,-0.8996613,-1.8654023,-2.0705297,-1.7305579,-1.59471,-1.4604801,-1.6286105,-0.6752847,-1.7439908,-1.6751617,-1.7898808,-2.213718,-1.9309204,-1.7475721,-1.0315132,-1.9876742,-2.1282058,-1.7864416,-2.267523,-1.814165,-1.5704364,-1.8315604,-2.1820815,-2.3745084,-2.2627141,-2.2011228,-2.28898,-1.7797568,-1.5794008,-1.3459061,-2.3746336,-1.709348,-1.9287392,-1.9524977,-2.7467437,-1.6811169,-1.9026498,-1.8406402,-1.9909494,-2.0818362,-2.0799131,-2.0625422,-2.431489,-2.0378554,-1.8664906,-1.8955386,-2.145766,-2.1737003,-2.167704,-2.0075588,-1.6434376,-2.000766,-1.8891681,-1.9451535,-2.3311915,-2.330704,-2.4156346,-2.3240151,-2.6890378,-1.8950242,-1.9099005,-2.3650491,-2.3110447,-1.9233468,-2.8975708,-2.424828,-2.8717847,-2.580943,-2.4211824,-2.736292,-2.5263586,-2.6412401,-2.80062,-2.5291734,-2.9692054,-2.894595,-2.8169363,-2.8257902,-2.532663,-2.9071527,-3.0521383,-2.6552315,-3.0767548,-3.1675162,-2.5358808,-2.3377259,-2.5824654,-3.273463,-3.4526565,-2.929801,-2.887586,-2.9938579,-3.2852318,-3.6255999,-3.0215306,-2.7264266,-3.3694544,-3.1826258,-3.2222724,-2.6690376,-5.93824,-6.473526,-6.3118773,-7.07626,-6.7911215,-6.178927,-5.300002,-5.7291956,-6.915368,-7.0291743,-6.7956915,-7.004797,-6.984052,-7.575553,-7.303496,-6.9708176,-6.244219,-6.8713365,-6.41642,-6.778188,-6.8329144,-6.7371917,-6.759169,-7.072529,-6.8252544,-6.26865,-6.608955,-4.8671145,-5.4988403,-6.2930923,-6.5349894,-6.639261,-6.6753407,-5.7106214,-5.209065,-5.3865924,-4.568736,-4.66072,-6.4430423,-6.7812004,-6.546271,-6.29609,-4.7399335,-5.663592,-5.891466,-5.0648026,-7.219491,-6.6403265,-6.646069,-6.5194416,-6.4075656,-6.371845,-5.912424,-6.5694227,-6.561199,-7.44032,-5.745028,-5.1595182,-6.3119974,-6.8809104,-4.621543,-3.8648393,-3.6698503,-4.83969,0.14144649,0.07246284,0.37458006,1.1137643,-0.03518692,0.8585349,-0.3967539,0.14102006,0.16541149,0.25047648,0.5216571,0.75518966,0.5643305,0.5893979,0.19684437,0.2832348,0.53225124,0.32232773,0.25142637,0.48378825,0.71022713,0.5762241,0.31997147,0.25506142,0.9318092,1.0999607,1.3227346,2.0464568,1.4859436,0.71176875,0.6578661,0.058523066,0.82071275,0.53852427,1.9713377,2.1421995,2.1690733,1.6918919,1.1176784,0.48839062,0.05908002,2.1343217,2.4870045,2.5153255,1.838906,2.4159844,2.2339547,0.4849551,0.6664011,0.97100896,1.8408221,1.029208,1.7350392,1.8114271,1.808722,0.94309866,0.9423645,1.217014,1.0651339,1.24301,1.1794833,1.5880075,1.2359568,0.101277664,0.0005438119,0.011995234,-0.0152890375,0.021406146,-0.0032264583,-0.029798703,0.0004367108,0.020507345,3.3510983,3.3741407,3.764323,3.0238056,3.2357922,4.047725,4.219904,3.4660563,1.1380281,1.5210811,2.0733814,2.3660133,1.8230004,2.809499,3.1489303,2.3566766,1.2376113,1.5438199,1.6561477,1.502743,1.3161901,1.6282173,1.4592433,1.64029,1.0055965,1.1913543,1.0226458,1.2515333,1.3337258,1.0749283,1.6077421,1.3491683,1.3110821,0.99385214,1.1010133,1.1749516,1.1645269,1.203908,1.6797553,1.6982862,0.88414925,0.878296,0.69339055,0.8038749,0.4094939,1.1534594,1.445421,1.1817873,0.0090223625,-0.020662762,0.023420252,-0.018004535,0.010020599,-0.0019118824,-0.028078372,-0.004556791,1.443638,2.839992,1.8291506,2.959674,2.520302,2.8760986,2.9699163,2.037795,2.614266,2.5738666,3.7755723,3.6727352,3.8844485,3.4483554,3.1225371,2.7832668,2.527314,3.0949917,3.1661859,4.4233384,4.5377355,4.3931193,4.105167,2.9248118,2.9038358,3.086769,3.3302698,3.4661465,3.05971,3.9907546,3.1908891,3.5758955,2.3604662,2.4105597,2.9750414,3.1605866,3.1934943,3.7650146,3.0518517,2.329968,2.7364979,2.7110395,2.954414,2.6806479,3.1127968,2.4171534,3.214637,2.773617,2.2195644,2.1419845,2.9315922,2.527958,2.7217398,2.7240224,2.546673,2.6558022,2.5502212,2.114593,2.3218973,2.554574,2.798916,2.7162044,2.2017493,-0.40038437,3.1737869,3.35253,3.336161,2.747011,3.3035066,3.041083,3.158096,3.3262362,3.4352868,3.3706198,3.9891477,3.669435,3.7834446,3.664197,4.057296,3.6519172,3.2600858,